
    // !!! This file is generated using emlearn !!!

    #include <eml_trees.h>
    

EmlTreesNode rf_model_nodes[5980] = {
  { 114, -2275.5, 1, 16 },
  { 75, -5287.0, 2, 3 },
  { -1, 2, -1, -1 },
  { 79, 3512.5, 4, 15 },
  { 131, -4226.5, 2, 5 },
  { 33, -203.0, 6, 2 },
  { 21, -5731.0, 2, 7 },
  { 128, 7225.0, 8, 2 },
  { 143, -4327.5, 2, 9 },
  { 107, -4093.0, 2, 10 },
  { 135, -5355.5, 11, 13 },
  { 146, -1400.0, 2, 12 },
  { -1, 1, -1, -1 },
  { 112, -7182.0, 14, 12 },
  { 104, 119.5, 2, 12 },
  { 75, -5086.5, 12, 2 },
  { 54, 5425.0, 17, 2 },
  { 130, 552.5, 18, 40 },
  { 67, -392.0, 19, 30 },
  { 47, -3773.0, 2, 20 },
  { 67, -641.5, 21, 28 },
  { 134, 9557.5, 22, 2 },
  { 12, -2378.5, 23, 25 },
  { 24, -2836.5, 12, 24 },
  { 103, -7742.0, 12, 2 },
  { 25, -798.5, 12, 26 },
  { 25, -730.5, 27, 12 },
  { -1, 0, -1, -1 },
  { 145, -610.5, 12, 29 },
  { 84, -1691.5, 12, 27 },
  { 46, 396.5, 31, 35 },
  { 48, -1767.0, 12, 32 },
  { 126, 850.5, 33, 34 },
  { 92, -1056.5, 12, 27 },
  { 144, 889.0, 12, 27 },
  { 4, 14151.5, 36, 2 },
  { 92, 3118.5, 37, 39 },
  { 25, 639.0, 38, 12 },
  { 91, 383.5, 12, 27 },
  { 126, 3869.0, 12, 2 },
  { 37, 10859.0, 41, 52 },
  { 141, 4806.5, 42, 2 },
  { 0, -2786.0, 43, 45 },
  { 132, -1754.0, 12, 44 },
  { 52, 8008.0, 2, 12 },
  { 65, 10438.5, 46, 2 },
  { 35, -6574.0, 2, 47 },
  { 139, 1184.5, 48, 50 },
  { 103, 1519.5, 12, 49 },
  { 148, 930.0, 12, 27 },
  { 68, -5038.5, 51, 12 },
  { 11, -4360.0, 12, 2 },
  { 39, 2265.5, 53, 55 },
  { 44, -3491.0, 54, 2 },
  { 140, -4289.5, 12, 2 },
  { 127, 13897.5, 12, 2 },
  { 108, -3160.0, 57, 70 },
  { 96, -5238.5, 58, 60 },
  { 72, -5192.0, 2, 59 },
  { 63, -4920.5, 12, 2 },
  { 115, 2623.5, 61, 67 },
  { 131, 5115.0, 62, 2 },
  { 119, -4098.5, 2, 63 },
  { 21, -6272.5, 2, 64 },
  { 51, -2246.5, 65, 66 },
  { 138, -3082.0, 12, 2 },
  { 37, -288.5, 12, 2 },
  { 95, -3578.5, 68, 2 },
  { 13, 8176.0, 69, 12 },
  { 89, -3965.5, 2, 12 },
  { 57, 5134.0, 71, 107 },
  { 79, 665.5, 72, 92 },
  { 91, -355.5, 73, 85 },
  { 17, -4029.0, 2, 74 },
  { 82, -13039.5, 75, 76 },
  { 35, 2156.5, 12, 2 },
  { 148, -989.5, 77, 82 },
  { 132, 6443.0, 78, 2 },
  { 10, -14336.5, 79, 80 },
  { 102, 413.5, 2, 12 },
  { 60, -2158.5, 81, 12 },
  { 147, 105.5, 12, 2 },
  { 37, -767.5, 83, 84 },
  { 148, 2067.0, 12, 2 },
  { 134, -80.0, 12, 27 },
  { 7, -601.5, 86, 87 },
  { 63, 1026.5, 12, 2 },
  { 148, -441.5, 12, 88 },
  { 15, -1806.5, 12, 89 },
  { 48, 784.0, 27, 90 },
  { 41, -99.0, 27, 91 },
  { 141, 6795.0, 12, 2 },
  { 58, 11077.5, 93, 105 },
  { 104, 3313.5, 94, 2 },
  { 27, -3572.0, 2, 95 },
  { 92, -7384.0, 2, 96 },
  { 123, -3098.0, 2, 97 },
  { 46, 893.0, 98, 103 },
  { 30, -1860.0, 2, 99 },
  { 19, 436.0, 12, 100 },
  { 109, 888.5, 101, 27 },
  { 115, 812.5, 102, 12 },
  { 108, -415.0, 12, 27 },
  { 41, -5387.5, 104, 12 },
  { 59, -5341.5, 12, 2 },
  { 6, 2587.5, 2, 106 },
  { 138, 3359.5, 12, 2 },
  { 57, 5558.5, 108, 109 },
  { 56, 3009.0, 12, 2 },
  { 87, 6906.0, 110, 2 },
  { 126, 6442.0, 2, 12 },
  { 105, -2576.5, 112, 127 },
  { 138, -4984.5, 2, 113 },
  { 109, 7738.0, 114, 125 },
  { 98, -3587.5, 115, 118 },
  { 109, 6045.0, 116, 12 },
  { 113, -3803.5, 2, 117 },
  { 119, -3434.5, 12, 2 },
  { 36, -4543.5, 119, 121 },
  { 14, 6912.5, 120, 12 },
  { 138, -4948.5, 12, 2 },
  { 3, 130.0, 122, 2 },
  { 19, 5088.0, 123, 2 },
  { 118, -5414.0, 124, 12 },
  { 58, -8064.5, 12, 2 },
  { 128, -7411.0, 126, 2 },
  { 67, 11985.5, 12, 2 },
  { 39, 5227.0, 128, 172 },
  { 61, 382.0, 129, 155 },
  { 91, -390.5, 130, 143 },
  { 47, -3806.0, 2, 131 },
  { 121, -597.0, 132, 139 },
  { 43, -14125.0, 2, 133 },
  { 0, -3135.5, 134, 135 },
  { 33, -2649.5, 12, 2 },
  { 7, -14359.5, 2, 136 },
  { 133, -949.5, 12, 137 },
  { 38, 143.5, 138, 12 },
  { 122, -310.5, 12, 27 },
  { 125, -3.5, 140, 141 },
  { 26, 1094.5, 12, 2 },
  { 81, 227.5, 27, 142 },
  { 78, 920.0, 2, 12 },
  { 143, 1030.5, 144, 152 },
  { 63, -1147.5, 145, 147 },
  { 59, 129.5, 12, 146 },
  { 144, 143.5, 27, 2 },
  { 145, 535.5, 148, 12 },
  { 47, -884.0, 12, 149 },
  { 147, 368.0, 27, 150 },
  { 59, -117.5, 27, 151 },
  { 24, 452.5, 27, 12 },
  { 15, 2459.5, 153, 12 },
  { 37, -2743.0, 12, 154 },
  { 141, 258.0, 12, 2 },
  { 103, 11475.0, 156, 169 },
  { 21, -3567.5, 2, 157 },
  { 10, 12421.5, 158, 2 },
  { 140, -7415.0, 2, 159 },
  { 135, 12611.0, 160, 2 },
  { 52, 1969.0, 161, 166 },
  { 19, 2173.0, 162, 27 },
  { 129, -365.5, 12, 163 },
  { 15, -116.0, 27, 164 },
  { 70, 638.5, 165, 12 },
  { 18, 488.5, 27, 12 },
  { 1, 269.5, 2, 167 },
  { 31, 10862.0, 12, 168 },
  { 94, 10882.0, 2, 12 },
  { 80, -3922.5, 170, 2 },
  { 88, 13000.5, 171, 2 },
  { 119, -4860.5, 2, 12 },
  { 69, 6934.5, 173, 2 },
  { 19, 5312.0, 174, 12 },
  { 110, 7138.5, 175, 2 },
  { 53, 4818.5, 2, 176 },
  { 11, 12174.0, 12, 2 },
  { 75, -3940.5, 178, 187 },
  { 99, -5207.5, 2, 179 },
  { 129, -3973.5, 180, 184 },
  { 60, -4141.5, 181, 2 },
  { 76, 1946.5, 182, 12 },
  { 89, -3414.0, 2, 183 },
  { 18, -9258.5, 2, 12 },
  { 97, -16643.0, 12, 185 },
  { 121, -6599.5, 186, 2 },
  { 60, -4907.5, 2, 12 },
  { 45, 5084.0, 188, 240 },
  { 16, 378.5, 189, 217 },
  { 4, -394.0, 190, 206 },
  { 148, 4393.5, 191, 2 },
  { 104, -2495.0, 192, 194 },
  { 131, -4327.5, 2, 193 },
  { 110, -2984.0, 12, 2 },
  { 140, 9438.0, 195, 2 },
  { 61, -896.0, 196, 203 },
  { 2, -831.5, 197, 200 },
  { 127, -1535.0, 198, 199 },
  { 114, 3520.5, 12, 2 },
  { 48, 1020.5, 2, 12 },
  { 24, -4474.0, 2, 201 },
  { 4, -14387.0, 202, 12 },
  { 20, 3251.0, 2, 12 },
  { 79, -364.5, 204, 205 },
  { 80, 677.0, 27, 12 },
  { 30, -4065.0, 2, 12 },
  { 85, -434.0, 12, 207 },
  { 141, -1175.5, 208, 210 },
  { 34, -14.5, 209, 12 },
  { 124, -45.5, 27, 12 },
  { 109, 330.5, 211, 215 },
  { 6, 508.0, 27, 212 },
  { 83, 25.5, 213, 214 },
  { 5, -92.5, 27, 12 },
  { 70, -311.5, 27, 12 },
  { 66, 353.5, 216, 12 },
  { 22, 305.0, 12, 27 },
  { 79, 10171.0, 218, 238 },
  { 3, -4166.0, 2, 219 },
  { 44, 3548.0, 220, 237 },
  { 131, 2842.5, 221, 2 },
  { 11, -6777.5, 222, 223 },
  { 36, -3914.5, 12, 2 },
  { 131, -5487.5, 224, 226 },
  { 126, -2492.5, 2, 225 },
  { 127, 10188.5, 12, 2 },
  { 147, -4467.5, 2, 227 },
  { 34, 642.0, 228, 229 },
  { 85, 235.0, 12, 27 },
  { 21, -3549.5, 230, 231 },
  { 110, -4602.5, 2, 12 },
  { 139, 9879.5, 232, 236 },
  { 109, 1517.5, 233, 12 },
  { 40, 2062.0, 12, 234 },
  { 108, -564.5, 235, 12 },
  { 51, -1366.0, 12, 27 },
  { 56, -4916.0, 2, 12 },
  { 115, -1456.0, 12, 2 },
  { 122, -3094.5, 239, 2 },
  { 63, -1947.5, 2, 12 },
  { 90, 4131.0, 241, 242 },
  { 112, 618.5, 12, 2 },
  { 120, 6759.5, 243, 2 },
  { 132, 6299.5, 2, 244 },
  { 125, 493.0, 12, 2 },
  { 105, -4321.5, 246, 253 },
  { 132, -4667.5, 247, 249 },
  { 114, -5299.5, 2, 248 },
  { 85, -7428.5, 12, 2 },
  { 72, -5474.0, 2, 250 },
  { 120, -4707.5, 12, 251 },
  { 141, -3981.5, 252, 12 },
  { 138, -4680.0, 12, 2 },
  { 48, 5249.0, 254, 296 },
  { 100, 527.0, 255, 280 },
  { 91, -448.0, 256, 269 },
  { 86, -2491.0, 257, 258 },
  { 47, -2960.5, 2, 12 },
  { 0, -5138.0, 2, 259 },
  { 19, -14001.0, 260, 261 },
  { 90, -2805.5, 12, 2 },
  { 118, -588.0, 262, 267 },
  { 146, 9883.0, 263, 2 },
  { 146, 7051.0, 264, 266 },
  { 108, 3231.5, 12, 265 },
  { 24, -83.5, 2, 12 },
  { 40, -3592.5, 12, 2 },
  { 16, -4795.0, 2, 268 },
  { 27, -1204.5, 27, 12 },
  { 45, -1085.0, 270, 274 },
  { 18, -2805.0, 271, 272 },
  { 147, -3432.5, 12, 2 },
  { 132, -1168.5, 12, 273 },
  { 145, -360.0, 12, 27 },
  { 137, -775.0, 12, 275 },
  { 20, 691.5, 276, 279 },
  { 26, -1221.5, 2, 277 },
  { 138, 824.0, 27, 278 },
  { 132, 855.5, 12, 27 },
  { 92, 3182.5, 12, 2 },
  { 94, 10766.5, 281, 292 },
  { 15, -4144.0, 2, 282 },
  { 134, 4205.0, 283, 2 },
  { 131, -5465.0, 284, 285 },
  { 28, 7863.0, 2, 12 },
  { 40, 11080.5, 286, 2 },
  { 44, 11751.5, 287, 2 },
  { 114, 4608.0, 288, 2 },
  { 24, -3560.5, 289, 290 },
  { 54, -3602.0, 12, 2 },
  { 71, -5061.0, 291, 12 },
  { 96, -1418.0, 2, 12 },
  { 126, 2042.5, 293, 295 },
  { 66, 1406.5, 2, 294 },
  { 24, 2197.5, 12, 2 },
  { 20, 5295.0, 12, 2 },
  { 69, 4923.5, 297, 298 },
  { 147, -356.5, 2, 12 },
  { 57, 6889.5, 299, 2 },
  { 110, -42.5, 12, 2 },
  { 108, -3165.0, 301, 314 },
  { 96, -5213.0, 302, 304 },
  { 75, -5270.0, 2, 303 },
  { 78, -5268.0, 12, 2 },
  { 94, 8246.0, 305, 2 },
  { 24, -4411.5, 306, 309 },
  { 84, -5084.5, 307, 308 },
  { 29, 3472.0, 12, 2 },
  { 64, 4726.0, 2, 12 },
  { 123, -4835.0, 2, 310 },
  { 149, 3703.5, 311, 2 },
  { 149, -6153.5, 2, 312 },
  { 52, 3059.0, 12, 313 },
  { 92, -4518.5, 12, 2 },
  { 99, 5566.0, 315, 359 },
  { 44, -604.5, 316, 331 },
  { 11, -5808.5, 317, 321 },
  { 133, 9843.5, 318, 2 },
  { 70, 5931.5, 319, 12 },
  { 65, -6743.0, 2, 320 },
  { 66, -2658.5, 2, 12 },
  { 46, 11915.0, 322, 330 },
  { 24, -3511.5, 2, 323 },
  { 146, -6003.5, 2, 324 },
  { 137, 1046.0, 325, 2 },
  { 31, -3870.0, 326, 327 },
  { 149, -957.0, 2, 12 },
  { 68, -827.0, 12, 328 },
  { 116, -614.5, 329, 12 },
  { 110, -821.0, 12, 27 },
  { 137, -3039.0, 12, 2 },
  { 11, 348.5, 332, 347 },
  { 31, -921.5, 333, 336 },
  { 28, -6712.0, 334, 335 },
  { 101, 118.5, 12, 2 },
  { 42, 8027.0, 12, 2 },
  { 70, 692.0, 337, 343 },
  { 142, -484.5, 338, 339 },
  { 52, -539.5, 27, 12 },
  { 90, -1349.0, 12, 340 },
  { 45, 405.5, 27, 341 },
  { 17, -109.0, 27, 342 },
  { 116, 65.0, 12, 27 },
  { 91, 936.0, 27, 344 },
  { 136, 7054.5, 345, 2 },
  { 2, 144.5, 12, 346 },
  { 41, 180.5, 27, 12 },
  { 97, 3567.5, 348, 358 },
  { 86, 9298.0, 349, 2 },
  { 20, 601.5, 350, 352 },
  { 98, 223.5, 12, 351 },
  { 30, -77.0, 27, 12 },
  { 128, 9066.0, 353, 2 },
  { 133, 4126.5, 354, 2 },
  { 24, -3813.0, 2, 355 },
  { 12, 9586.0, 356, 2 },
  { 75, -2027.5, 357, 12 },
  { 87, -1822.5, 12, 2 },
  { 41, 601.5, 12, 2 },
  { 54, 5413.0, 360, 361 },
  { 106, 1759.0, 12, 2 },
  { 81, 6919.5, 362, 2 },
  { 79, 4548.0, 2, 12 },
  { 126, -2881.5, 364, 384 },
  { 120, -4628.0, 365, 370 },
  { 126, -5106.5, 2, 366 },
  { 129, -5055.5, 12, 367 },
  { 132, -4629.0, 2, 368 },
  { 81, -5240.0, 2, 369 },
  { 133, 11595.0, 12, 2 },
  { 31, 2049.5, 371, 378 },
  { 123, -3678.5, 372, 374 },
  { 137, -4285.5, 373, 12 },
  { 38, -4864.5, 12, 2 },
  { 7, -5874.0, 2, 375 },
  { 21, -2725.0, 376, 12 },
  { 125, -2818.5, 2, 377 },
  { 42, -5179.0, 2, 12 },
  { 87, -4615.5, 12, 379 },
  { 26, -2294.0, 380, 2 },
  { 38, -3990.5, 381, 383 },
  { 76, 8902.5, 2, 382 },
  { 132, -3936.5, 2, 12 },
  { 96, -3912.5, 2, 12 },
  { 54, 5413.0, 385, 426 },
  { 13, -481.5, 386, 403 },
  { 20, -3848.0, 2, 387 },
  { 136, 1219.5, 388, 400 },
  { 73, -13426.0, 389, 390 },
  { 23, 1958.0, 12, 2 },
  { 93, -3182.5, 2, 391 },
  { 15, -4728.5, 2, 392 },
  { 141, 4523.0, 393, 398 },
  { 13, -698.5, 394, 397 },
  { 6, -3202.5, 395, 12 },
  { 56, 3298.5, 12, 396 },
  { 114, -1297.5, 12, 2 },
  { 77, -169.5, 12, 27 },
  { 48, 1246.5, 2, 399 },
  { 7, -11347.5, 2, 12 },
  { 25, -1474.0, 401, 12 },
  { 143, 1891.0, 402, 2 },
  { 113, 1327.5, 2, 12 },
  { 31, 227.5, 404, 410 },
  { 91, -549.5, 12, 405 },
  { 30, -1673.0, 12, 406 },
  { 26, 681.5, 407, 12 },
  { 134, -1578.0, 12, 408 },
  { 9, 523.0, 27, 409 },
  { 3, 582.0, 12, 27 },
  { 7, 10626.5, 411, 425 },
  { 17, -6309.5, 2, 412 },
  { 8, 4082.0, 413, 2 },
  { 133, 11985.0, 414, 2 },
  { 19, 867.5, 415, 418 },
  { 105, -145.5, 416, 417 },
  { 102, -2627.0, 2, 12 },
  { 120, 1755.5, 27, 12 },
  { 140, -5868.0, 419, 420 },
  { 143, -6249.0, 12, 2 },
  { 39, -3588.5, 2, 421 },
  { 35, -5413.5, 422, 423 },
  { 89, -4868.5, 12, 2 },
  { 127, 1325.0, 424, 12 },
  { 127, 1286.5, 12, 27 },
  { 57, 1193.0, 2, 12 },
  { 102, 6867.0, 427, 2 },
  { 114, 6478.0, 2, 12 },
  { 33, -3522.0, 429, 441 },
  { 24, -4643.0, 430, 436 },
  { 24, -5441.5, 2, 431 },
  { 109, 5841.5, 432, 435 },
  { 145, -14787.0, 12, 433 },
  { 62, 4683.5, 2, 434 },
  { 73, -1283.5, 12, 2 },
  { 17, -5470.5, 12, 2 },
  { 60, -3636.5, 437, 2 },
  { 129, -4125.0, 438, 440 },
  { 12, -3645.5, 2, 439 },
  { 59, -2268.0, 2, 12 },
  { 125, -7972.5, 2, 12 },
  { 30, 5273.0, 442, 478 },
  { 91, -450.5, 443, 456 },
  { 125, -2717.5, 444, 446 },
  { 102, -2268.0, 2, 445 },
  { 19, -1818.5, 2, 12 },
  { 138, -6411.0, 2, 447 },
  { 61, -13956.0, 448, 449 },
  { 134, 5029.0, 12, 2 },
  { 139, 1523.0, 450, 2 },
  { 47, -3345.5, 2, 451 },
  { 126, 3704.0, 452, 454 },
  { 64, -869.0, 12, 453 },
  { 67, -809.5, 27, 12 },
  { 52, -8254.0, 455, 12 },
  { 50, -598.5, 12, 2 },
  { 49, 231.0, 457, 464 },
  { 96, -1308.5, 458, 459 },
  { 132, -4487.0, 2, 12 },
  { 43, -608.0, 460, 461 },
  { 147, 3891.5, 12, 2 },
  { 66, 444.5, 462, 463 },
  { 89, -1441.0, 12, 27 },
  { 5, -92.5, 27, 12 },
  { 67, 10579.5, 465, 476 },
  { 8, 2266.5, 466, 474 },
  { 140, -5415.0, 467, 469 },
  { 49, 5858.5, 2, 468 },
  { 47, -5121.5, 12, 2 },
  { 52, 710.0, 470, 473 },
  { 107, -4411.5, 2, 471 },
  { 87, -450.0, 12, 472 },
  { 33, 1043.5, 27, 12 },
  { 54, -3790.0, 2, 12 },
  { 59, 3115.0, 475, 2 },
  { 109, 4937.0, 12, 2 },
  { 72, 88.5, 2, 477 },
  { 101, -2366.0, 12, 2 },
  { 12, 6849.5, 479, 2 },
  { 16, -8290.0, 2, 480 },
  { 138, 6658.5, 12, 2 },
  { 15, -3034.0, 482, 499 },
  { 63, -5279.5, 2, 483 },
  { 106, -8410.5, 484, 485 },
  { 133, -24192.5, 2, 12 },
  { 36, -3191.5, 486, 496 },
  { 147, -3045.5, 487, 494 },
  { 138, -4577.0, 488, 490 },
  { 38, -5625.0, 12, 489 },
  { 105, -5799.0, 12, 2 },
  { 3, -4736.0, 491, 492 },
  { 89, -4660.5, 12, 2 },
  { 61, 2900.5, 12, 493 },
  { 76, 8852.0, 2, 12 },
  { 117, -3266.0, 495, 2 },
  { 148, -5155.0, 12, 2 },
  { 106, 11206.0, 497, 2 },
  { 30, -2668.5, 498, 2 },
  { 76, 9907.5, 12, 2 },
  { 60, 5166.5, 500, 538 },
  { 7, 483.5, 501, 520 },
  { 1, -400.5, 502, 512 },
  { 148, 4523.0, 503, 2 },
  { 134, -4144.5, 2, 504 },
  { 55, -13477.0, 505, 506 },
  { 143, 5335.0, 12, 2 },
  { 11, -4087.0, 2, 507 },
  { 115, -888.5, 508, 509 },
  { 3, 8271.5, 12, 2 },
  { 15, -2667.0, 2, 510 },
  { 1, -730.0, 12, 511 },
  { 79, -372.0, 27, 12 },
  { 141, -1213.0, 513, 515 },
  { 62, 347.0, 12, 514 },
  { 23, 911.5, 27, 12 },
  { 14, 717.5, 516, 12 },
  { 146, -1089.5, 12, 517 },
  { 138, 1471.5, 518, 12 },
  { 114, 442.5, 27, 519 },
  { 60, 473.5, 12, 27 },
  { 40, 10770.5, 521, 536 },
  { 102, -2782.0, 522, 524 },
  { 1, 3869.0, 523, 2 },
  { 116, -3733.5, 2, 12 },
  { 47, -6880.5, 2, 525 },
  { 101, 4439.5, 526, 2 },
  { 68, -5046.5, 527, 529 },
  { 86, -4937.5, 528, 2 },
  { 59, -5167.0, 12, 2 },
  { 125, 4396.0, 530, 2 },
  { 19, 835.5, 531, 533 },
  { 1, 719.5, 12, 532 },
  { 121, -71.0, 12, 27 },
  { 145, 1150.5, 534, 12 },
  { 115, 1415.5, 12, 535 },
  { 124, 1395.0, 27, 12 },
  { 129, 1123.5, 2, 537 },
  { 147, 3334.0, 12, 2 },
  { 99, 6766.0, 539, 2 },
  { 74, 232.5, 12, 2 },
  { 111, -3020.5, 541, 551 },
  { 66, -5400.5, 2, 542 },
  { 138, -4984.5, 2, 543 },
  { 129, -3717.5, 544, 547 },
  { 70, 2301.5, 545, 546 },
  { 110, -3866.0, 2, 12 },
  { 81, -4532.5, 12, 2 },
  { 60, -2342.0, 548, 550 },
  { 49, 3872.5, 2, 549 },
  { 67, 4318.0, 12, 2 },
  { 97, 13575.5, 12, 2 },
  { 57, 5558.5, 552, 594 },
  { 94, 472.5, 553, 575 },
  { 91, -441.0, 554, 565 },
  { 44, -3783.5, 2, 555 },
  { 128, 9065.5, 556, 2 },
  { 121, -597.0, 557, 563 },
  { 4, -14243.5, 558, 559 },
  { 83, 4036.5, 2, 12 },
  { 109, -865.5, 560, 562 },
  { 5, -802.0, 561, 12 },
  { 32, -450.0, 12, 2 },
  { 97, -836.5, 27, 12 },
  { 28, -846.0, 12, 564 },
  { 14, -1365.5, 12, 27 },
  { 1, 290.5, 566, 572 },
  { 25, -542.5, 12, 567 },
  { 113, 1116.5, 568, 12 },
  { 45, 785.5, 569, 571 },
  { 99, 431.0, 27, 570 },
  { 21, 432.0, 12, 27 },
  { 147, 889.5, 12, 27 },
  { 97, 392.5, 573, 574 },
  { 29, 2062.0, 12, 2 },
  { 37, 785.5, 27, 2 },
  { 31, 10598.5, 576, 591 },
  { 47, 2693.5, 577, 590 },
  { 38, -6161.0, 578, 579 },
  { 18, -1002.5, 2, 12 },
  { 0, -3607.0, 580, 581 },
  { 107, -4257.0, 12, 2 },
  { 120, 3855.5, 582, 589 },
  { 67, 832.5, 583, 587 },
  { 10, 468.0, 12, 584 },
  { 61, 735.5, 585, 27 },
  { 91, 728.5, 27, 586 },
  { 13, 611.0, 2, 12 },
  { 23, 171.0, 12, 588 },
  { 29, 190.5, 27, 12 },
  { 63, 3792.5, 2, 12 },
  { 80, 3283.5, 12, 2 },
  { 3, 3074.0, 592, 12 },
  { 9, 2366.5, 2, 593 },
  { 76, 12633.0, 12, 2 },
  { 99, 6729.0, 595, 2 },
  { 132, 5857.5, 2, 12 },
  { 65, -596.5, 597, 624 },
  { 30, -4368.5, 598, 601 },
  { 127, 2076.5, 2, 599 },
  { 38, -2969.0, 600, 2 },
  { 0, -5076.0, 12, 2 },
  { 39, 6974.0, 602, 2 },
  { 49, 10777.5, 603, 620 },
  { 125, -6491.0, 604, 605 },
  { 61, 6431.0, 2, 12 },
  { 20, -7288.0, 2, 606 },
  { 12, -4190.5, 607, 608 },
  { 27, -4151.5, 12, 2 },
  { 16, -1611.0, 609, 612 },
  { 133, -2276.5, 610, 611 },
  { 89, -4987.5, 2, 12 },
  { 51, 3368.0, 2, 12 },
  { 111, -4184.0, 613, 614 },
  { 125, -1745.5, 2, 12 },
  { 137, -5618.5, 615, 616 },
  { 110, -5602.5, 12, 2 },
  { 29, -5400.0, 617, 618 },
  { 42, -1745.0, 2, 12 },
  { 29, -691.5, 12, 619 },
  { 107, -793.5, 12, 27 },
  { 138, 982.0, 621, 623 },
  { 12, 939.0, 2, 622 },
  { 36, 916.5, 12, 2 },
  { 129, 3380.5, 12, 2 },
  { 29, 374.5, 625, 646 },
  { 116, 373.0, 626, 638 },
  { 127, -385.5, 627, 630 },
  { 124, -7364.5, 2, 628 },
  { 143, 16.5, 12, 629 },
  { 23, 122.0, 27, 12 },
  { 148, 289.0, 631, 634 },
  { 21, 499.5, 27, 632 },
  { 17, -83.5, 27, 633 },
  { 74, 100.0, 12, 27 },
  { 128, 71.5, 635, 637 },
  { 5, -186.5, 636, 12 },
  { 5, -667.0, 12, 27 },
  { 123, -1098.0, 12, 27 },
  { 4, 6479.5, 639, 2 },
  { 108, 3221.0, 640, 642 },
  { 131, 680.5, 641, 12 },
  { 74, 434.0, 12, 27 },
  { 112, 2843.0, 643, 645 },
  { 125, 4885.0, 2, 644 },
  { 148, -7949.5, 2, 12 },
  { 9, 14718.5, 12, 2 },
  { 129, 7012.0, 647, 2 },
  { 111, -2934.5, 648, 656 },
  { 10, -330.0, 649, 653 },
  { 129, -6385.5, 2, 650 },
  { 8, 4329.0, 651, 652 },
  { 125, 4637.5, 12, 2 },
  { 148, -7977.0, 12, 2 },
  { 120, -4442.5, 2, 654 },
  { 79, 3017.5, 655, 2 },
  { 117, -3541.5, 12, 2 },
  { 142, 5466.5, 657, 2 },
  { 21, 5729.5, 658, 669 },
  { 79, 6177.5, 659, 2 },
  { 58, -13869.0, 2, 660 },
  { 54, -3534.0, 2, 661 },
  { 147, 5685.5, 662, 668 },
  { 41, 630.0, 663, 666 },
  { 44, 524.5, 664, 27 },
  { 26, 438.5, 665, 12 },
  { 110, 303.5, 12, 27 },
  { 118, 518.5, 12, 667 },
  { 133, 542.5, 2, 12 },
  { 5, 2803.5, 12, 2 },
  { 60, 5339.5, 12, 2 },
  { 87, -3757.5, 671, 678 },
  { 36, -5373.5, 2, 672 },
  { 52, 2256.0, 673, 676 },
  { 116, -3671.0, 2, 674 },
  { 9, -2060.5, 12, 675 },
  { 120, -4813.5, 2, 12 },
  { 119, -4998.5, 677, 2 },
  { 61, 7103.0, 2, 12 },
  { 30, 5073.5, 679, 725 },
  { 40, 376.5, 680, 701 },
  { 7, -456.0, 681, 692 },
  { 95, -4628.0, 2, 682 },
  { 143, 9266.0, 683, 2 },
  { 130, 3457.0, 684, 2 },
  { 12, -3116.5, 685, 687 },
  { 112, -6203.0, 686, 2 },
  { 147, 4926.5, 12, 2 },
  { 3, -2963.5, 688, 689 },
  { 48, -1368.0, 12, 2 },
  { 133, -15091.0, 2, 690 },
  { 1, -602.5, 12, 691 },
  { 34, -638.5, 12, 27 },
  { 79, -475.5, 12, 693 },
  { 126, -1873.0, 694, 695 },
  { 70, -320.5, 2, 12 },
  { 123, 1899.5, 696, 12 },
  { 110, -1531.5, 12, 697 },
  { 32, 696.0, 698, 12 },
  { 18, 509.5, 27, 699 },
  { 86, -62.0, 27, 700 },
  { 145, -343.5, 27, 12 },
  { 34, 10605.0, 702, 720 },
  { 8, 4082.0, 703, 2 },
  { 32, -6123.0, 704, 708 },
  { 28, 6305.0, 705, 707 },
  { 9, -1551.5, 2, 706 },
  { 144, -7369.5, 2, 12 },
  { 124, 10381.0, 12, 2 },
  { 25, 848.5, 709, 712 },
  { 146, -4496.0, 2, 710 },
  { 149, -714.5, 12, 711 },
  { 35, 395.5, 27, 12 },
  { 0, -4190.5, 713, 714 },
  { 15, -4335.5, 12, 2 },
  { 24, -2384.0, 715, 718 },
  { 8, -5564.0, 2, 716 },
  { 138, -1479.0, 12, 717 },
  { 87, -1982.0, 2, 12 },
  { 73, 1820.0, 719, 12 },
  { 67, 1810.0, 12, 27 },
  { 15, 2364.0, 721, 723 },
  { 146, -4218.5, 722, 2 },
  { 61, 14517.5, 12, 2 },
  { 127, 11954.5, 724, 2 },
  { 124, 4731.0, 2, 12 },
  { 45, 5724.0, 726, 2 },
  { 77, 4157.5, 12, 2 },
  { 105, -3769.0, 728, 735 },
  { 75, -5287.0, 2, 729 },
  { 37, 2092.0, 730, 733 },
  { 137, -3893.5, 2, 731 },
  { 54, -3034.0, 12, 732 },
  { 45, -2030.0, 12, 2 },
  { 81, -4908.5, 734, 2 },
  { 59, -6081.0, 2, 12 },
  { 48, 5652.0, 736, 783 },
  { 70, 571.5, 737, 762 },
  { 88, -540.0, 738, 749 },
  { 26, -3980.5, 2, 739 },
  { 72, -3235.0, 740, 742 },
  { 41, 948.5, 741, 2 },
  { 25, -7685.0, 12, 2 },
  { 34, -13162.5, 743, 744 },
  { 119, 3381.0, 12, 2 },
  { 36, -2543.5, 745, 746 },
  { 36, -2550.0, 12, 2 },
  { 4, -12792.0, 2, 747 },
  { 0, -2820.5, 748, 12 },
  { 47, -1137.0, 2, 12 },
  { 105, -1574.5, 750, 752 },
  { 21, -2642.0, 751, 12 },
  { 6, -2594.0, 2, 12 },
  { 1, -602.5, 753, 754 },
  { 78, 2384.0, 12, 2 },
  { 8, -636.0, 755, 756 },
  { 142, -206.0, 12, 27 },
  { 3, 515.5, 757, 759 },
  { 144, 460.0, 27, 758 },
  { 75, 465.0, 12, 27 },
  { 41, -99.0, 27, 760 },
  { 38, 3356.0, 761, 2 },
  { 64, -255.5, 27, 12 },
  { 31, 10554.0, 763, 780 },
  { 59, 3115.0, 764, 2 },
  { 3, -4166.0, 765, 767 },
  { 132, -3101.5, 766, 2 },
  { 23, -1050.5, 12, 2 },
  { 131, -4876.0, 768, 772 },
  { 22, 8186.5, 769, 12 },
  { 120, 1357.5, 770, 12 },
  { 101, -6912.0, 771, 2 },
  { 125, -7537.5, 2, 12 },
  { 101, 3230.5, 773, 2 },
  { 76, 660.5, 27, 774 },
  { 117, -3948.0, 2, 775 },
  { 73, 849.0, 776, 778 },
  { 98, 235.0, 777, 12 },
  { 54, -1078.5, 12, 27 },
  { 23, -5533.0, 779, 12 },
  { 105, -1310.0, 2, 12 },
  { 69, 84.0, 2, 781 },
  { 125, -2247.5, 782, 2 },
  { 10, 10039.0, 2, 12 },
  { 51, 6900.5, 784, 2 },
  { 30, 6708.0, 2, 12 },
  { 30, -4248.0, 786, 794 },
  { 57, -5516.0, 2, 787 },
  { 136, -5937.5, 788, 789 },
  { 115, -11918.5, 2, 12 },
  { 94, 6289.0, 790, 793 },
  { 69, -5261.0, 791, 792 },
  { 6, -5379.5, 2, 12 },
  { 27, -4391.0, 2, 12 },
  { 89, -2720.5, 12, 2 },
  { 6, 5358.5, 795, 853 },
  { 133, 433.0, 796, 828 },
  { 112, -440.5, 797, 815 },
  { 14, -3568.0, 2, 798 },
  { 127, -13038.5, 799, 800 },
  { 58, -15488.5, 12, 2 },
  { 117, -4875.0, 2, 801 },
  { 130, -561.0, 802, 812 },
  { 117, 7754.5, 803, 2 },
  { 146, -2832.5, 2, 804 },
  { 142, -136.0, 805, 2 },
  { 30, -2645.0, 806, 807 },
  { 102, -1601.5, 12, 2 },
  { 142, -956.0, 808, 810 },
  { 144, 5200.0, 12, 809 },
  { 146, 1334.5, 2, 12 },
  { 35, 152.0, 811, 12 },
  { 70, -1942.5, 12, 27 },
  { 45, -913.5, 813, 12 },
  { 38, -410.5, 814, 27 },
  { 54, -3037.0, 2, 12 },
  { 26, 639.5, 816, 824 },
  { 104, -718.0, 817, 818 },
  { 19, 4843.5, 12, 2 },
  { 143, -686.5, 12, 819 },
  { 52, 671.0, 820, 12 },
  { 117, 442.5, 821, 823 },
  { 66, 444.5, 27, 822 },
  { 104, -31.0, 27, 12 },
  { 83, -90.5, 27, 12 },
  { 52, 391.5, 12, 825 },
  { 135, 7110.0, 826, 12 },
  { 67, 1051.0, 827, 2 },
  { 73, 399.5, 2, 12 },
  { 55, 10539.0, 829, 849 },
  { 74, 1752.5, 830, 847 },
  { 68, -6154.5, 831, 832 },
  { 100, 2702.0, 12, 2 },
  { 135, 4832.5, 833, 2 },
  { 73, 825.5, 834, 838 },
  { 146, -4779.5, 2, 835 },
  { 10, 416.5, 836, 837 },
  { 143, 1843.0, 12, 2 },
  { 9, -1133.5, 12, 27 },
  { 127, 802.0, 839, 840 },
  { 28, 2705.5, 12, 2 },
  { 134, -5896.5, 841, 842 },
  { 120, -1747.5, 12, 2 },
  { 97, 984.5, 843, 844 },
  { 30, -2011.0, 2, 12 },
  { 124, 1395.0, 845, 12 },
  { 94, 1518.5, 12, 846 },
  { 145, 735.5, 12, 27 },
  { 124, 1935.5, 848, 2 },
  { 119, 4486.5, 12, 2 },
  { 108, 1384.0, 850, 852 },
  { 113, -3505.5, 851, 2 },
  { 100, 12682.0, 12, 2 },
  { 115, 13801.5, 12, 2 },
  { 36, 4667.5, 854, 855 },
  { 84, -939.5, 2, 12 },
  { 3, 6485.0, 856, 2 },
  { 56, -280.0, 12, 2 },
  { 144, -2784.5, 858, 876 },
  { 132, -4233.5, 859, 867 },
  { 75, -5270.0, 2, 860 },
  { 15, -3326.0, 861, 864 },
  { 89, -1459.5, 862, 12 },
  { 138, -4316.0, 2, 863 },
  { 93, -4000.5, 2, 12 },
  { 69, -4540.0, 12, 865 },
  { 46, -2420.0, 866, 2 },
  { 79, -4417.5, 2, 12 },
  { 88, 9027.5, 868, 2 },
  { 89, 4668.5, 869, 2 },
  { 113, 93.0, 870, 12 },
  { 42, -5337.5, 2, 871 },
  { 96, -3540.0, 872, 873 },
  { 125, -8602.0, 2, 12 },
  { 9, -1645.5, 874, 875 },
  { 143, -2243.0, 2, 12 },
  { 129, -3452.0, 2, 12 },
  { 90, 5073.0, 877, 917 },
  { 31, 215.5, 878, 904 },
  { 64, -453.0, 879, 893 },
  { 107, -3484.0, 2, 880 },
  { 133, 1193.5, 881, 892 },
  { 30, -6557.0, 2, 882 },
  { 143, 9642.0, 883, 2 },
  { 19, -14238.0, 884, 885 },
  { 63, -1799.5, 12, 2 },
  { 20, -3848.0, 2, 886 },
  { 55, -642.5, 887, 891 },
  { 114, -3022.0, 888, 889 },
  { 88, -4609.0, 12, 2 },
  { 105, 3118.0, 12, 890 },
  { 78, 2234.5, 2, 12 },
  { 3, -617.0, 27, 12 },
  { 46, -1367.5, 2, 12 },
  { 128, -644.5, 894, 897 },
  { 131, -4327.5, 2, 895 },
  { 69, 94.5, 12, 896 },
  { 88, 1326.0, 27, 12 },
  { 124, 319.5, 898, 903 },
  { 3, 867.5, 899, 902 },
  { 18, 512.0, 27, 900 },
  { 113, -203.0, 27, 901 },
  { 46, -13.5, 27, 12 },
  { 118, -179.0, 12, 27 },
  { 46, -780.0, 2, 12 },
  { 82, 12317.5, 905, 2 },
  { 18, -3561.0, 2, 906 },
  { 137, 4574.0, 907, 2 },
  { 20, -6234.5, 908, 909 },
  { 55, 3656.0, 12, 2 },
  { 25, 565.5, 910, 913 },
  { 101, -1053.0, 911, 912 },
  { 6, -2633.0, 2, 12 },
  { 80, 287.5, 27, 12 },
  { 149, -6041.0, 914, 915 },
  { 126, 1294.0, 12, 2 },
  { 10, 11098.5, 12, 916 },
  { 86, -2778.5, 12, 2 },
  { 48, 5249.0, 918, 919 },
  { 72, 5597.5, 12, 2 },
  { 102, 6894.0, 920, 2 },
  { 67, 2586.0, 2, 12 },
  { 63, -3059.0, 922, 933 },
  { 42, -5161.0, 2, 923 },
  { 13, 5119.0, 924, 930 },
  { 17, -3619.5, 925, 926 },
  { 65, -3882.5, 2, 12 },
  { 123, -6401.5, 2, 927 },
  { 0, -5138.0, 2, 928 },
  { 75, -3385.0, 12, 929 },
  { 80, -1637.0, 2, 12 },
  { 14, -6378.5, 12, 931 },
  { 104, -4668.5, 932, 2 },
  { 13, 9930.0, 2, 12 },
  { 36, 4744.0, 934, 972 },
  { 22, 219.0, 935, 957 },
  { 76, -461.5, 936, 949 },
  { 43, -13286.5, 937, 939 },
  { 137, 4590.0, 938, 2 },
  { 30, -1828.5, 2, 12 },
  { 83, -4667.0, 2, 940 },
  { 136, 337.5, 941, 948 },
  { 23, -4009.5, 2, 942 },
  { 85, -486.0, 943, 27 },
  { 133, -566.5, 944, 947 },
  { 9, -3169.0, 945, 12 },
  { 115, -6187.0, 12, 946 },
  { 63, -2112.5, 2, 12 },
  { 133, -499.0, 27, 12 },
  { 39, -346.5, 2, 12 },
  { 121, 316.0, 950, 953 },
  { 119, -1490.0, 12, 951 },
  { 115, 135.5, 27, 952 },
  { 109, 123.5, 12, 27 },
  { 142, 1295.0, 12, 954 },
  { 52, -147.5, 955, 12 },
  { 128, 673.0, 956, 2 },
  { 84, -1175.5, 2, 12 },
  { 61, 11116.5, 958, 970 },
  { 38, 3434.5, 959, 2 },
  { 21, -3799.5, 2, 960 },
  { 140, 4589.0, 961, 2 },
  { 38, -7060.5, 2, 962 },
  { 31, 12272.0, 963, 2 },
  { 62, -6631.0, 2, 964 },
  { 121, 1424.5, 965, 968 },
  { 7, 479.5, 966, 967 },
  { 79, 100.5, 12, 27 },
  { 121, 1382.0, 12, 27 },
  { 33, -2392.5, 969, 12 },
  { 18, -2447.0, 12, 2 },
  { 119, -3974.5, 971, 2 },
  { 72, 25.0, 2, 12 },
  { 78, 4883.5, 973, 974 },
  { 132, 1196.5, 2, 12 },
  { 99, 6729.0, 975, 2 },
  { 114, 5416.5, 2, 976 },
  { 132, 6407.5, 12, 2 },
  { 135, -4049.0, 978, 988 },
  { 105, -5338.5, 979, 982 },
  { 99, -5807.5, 2, 980 },
  { 136, -69.5, 2, 981 },
  { 145, 1005.5, 12, 2 },
  { 136, -12239.0, 12, 983 },
  { 2, -5987.0, 12, 984 },
  { 118, 2665.5, 985, 2 },
  { 36, -3822.5, 2, 986 },
  { 30, -2266.5, 12, 987 },
  { 55, -10313.0, 12, 2 },
  { 24, 5226.0, 989, 1036 },
  { 115, -423.5, 990, 1006 },
  { 74, -3722.5, 2, 991 },
  { 67, -12676.5, 992, 994 },
  { 138, 1887.0, 993, 2 },
  { 20, 1144.5, 2, 12 },
  { 9, -2344.0, 995, 1001 },
  { 115, -1044.0, 996, 2 },
  { 137, -3022.5, 2, 997 },
  { 102, 1134.0, 998, 2 },
  { 145, -403.0, 999, 2 },
  { 45, -2332.0, 12, 1000 },
  { 90, -1455.0, 2, 12 },
  { 45, 5452.0, 1002, 2 },
  { 97, -518.5, 1003, 1005 },
  { 112, -877.5, 12, 1004 },
  { 103, -831.0, 27, 12 },
  { 31, -82.0, 27, 12 },
  { 112, 301.5, 1007, 1015 },
  { 149, -761.0, 12, 1008 },
  { 4, -767.5, 1009, 1010 },
  { 11, -1341.5, 2, 12 },
  { 42, 787.0, 1011, 1014 },
  { 99, 418.0, 27, 1012 },
  { 86, -73.0, 27, 1013 },
  { 66, 427.0, 27, 12 },
  { 83, -208.5, 27, 12 },
  { 58, 11077.5, 1016, 1032 },
  { 35, 2830.0, 1017, 1030 },
  { 38, -6175.5, 1018, 1020 },
  { 22, 5891.5, 1019, 12 },
  { 133, 1459.0, 12, 2 },
  { 6, -4144.5, 1021, 1022 },
  { 10, 7819.5, 2, 12 },
  { 137, -5618.5, 1023, 1024 },
  { 19, 7909.0, 2, 12 },
  { 70, 1070.5, 1025, 12 },
  { 25, 372.5, 1026, 1027 },
  { 130, 2057.0, 12, 2 },
  { 72, -708.0, 1028, 1029 },
  { 86, -3608.5, 2, 12 },
  { 32, 742.5, 27, 12 },
  { 3, 1339.0, 2, 1031 },
  { 61, -637.5, 12, 2 },
  { 36, 2294.0, 1033, 1035 },
  { 51, 397.0, 2, 1034 },
  { 5, -3289.0, 12, 2 },
  { 149, -3443.5, 12, 2 },
  { 78, 6897.0, 1037, 2 },
  { 56, -504.5, 12, 1038 },
  { 60, 5176.0, 12, 2 },
  { 75, -4220.0, 1040, 1049 },
  { 42, -5147.5, 1041, 1043 },
  { 99, -4923.0, 2, 1042 },
  { 133, -11062.5, 12, 2 },
  { 18, -2873.5, 1044, 2 },
  { 66, -4570.0, 1045, 1048 },
  { 36, -5056.5, 12, 1046 },
  { 51, -4653.0, 2, 1047 },
  { 78, -5621.5, 2, 12 },
  { 87, -3934.0, 12, 2 },
  { 57, 5510.0, 1050, 1103 },
  { 145, 306.0, 1051, 1078 },
  { 82, -479.5, 1052, 1064 },
  { 35, -3717.5, 2, 1053 },
  { 19, -13719.0, 1054, 1055 },
  { 63, 437.5, 12, 2 },
  { 147, -6056.0, 2, 1056 },
  { 24, -4735.5, 2, 1057 },
  { 37, -761.5, 1058, 1062 },
  { 92, -2415.5, 1059, 1060 },
  { 56, -2538.5, 12, 2 },
  { 138, 4754.0, 12, 1061 },
  { 87, 2667.0, 2, 12 },
  { 139, -1099.5, 12, 1063 },
  { 39, -236.5, 27, 12 },
  { 46, 382.0, 1065, 1073 },
  { 98, -703.0, 1066, 1068 },
  { 69, 466.0, 12, 1067 },
  { 116, -1337.5, 12, 27 },
  { 54, -1842.5, 12, 1069 },
  { 3, 867.5, 1070, 1072 },
  { 99, 432.0, 27, 1071 },
  { 45, 444.5, 12, 27 },
  { 36, 1084.5, 12, 27 },
  { 52, 5874.5, 1074, 2 },
  { 56, 3168.5, 1075, 2 },
  { 80, -2116.5, 2, 1076 },
  { 127, 256.5, 12, 1077 },
  { 114, -275.0, 12, 27 },
  { 46, 11000.0, 1079, 1101 },
  { 20, 5801.0, 1080, 2 },
  { 146, -6633.5, 1081, 1083 },
  { 135, -3326.5, 1082, 2 },
  { 147, -4354.0, 2, 12 },
  { 21, -3513.0, 1084, 1086 },
  { 81, -3571.5, 1085, 2 },
  { 62, -658.5, 12, 2 },
  { 144, 5066.5, 1087, 2 },
  { 134, -5896.5, 1088, 1089 },
  { 50, -5392.0, 12, 2 },
  { 38, -6097.0, 2, 1090 },
  { 103, -1646.5, 2, 1091 },
  { 138, -4711.5, 2, 1092 },
  { 72, -3136.0, 1093, 1094 },
  { 57, -3323.0, 12, 2 },
  { 146, 3779.5, 1095, 2 },
  { 14, -5815.5, 1096, 1097 },
  { 40, 7910.0, 2, 12 },
  { 74, -493.0, 12, 1098 },
  { 71, -378.5, 27, 1099 },
  { 104, 214.0, 1100, 12 },
  { 86, 104.5, 12, 27 },
  { 114, 2037.5, 2, 1102 },
  { 137, -3751.5, 12, 2 },
  { 81, 6919.5, 1104, 2 },
  { 115, 5384.5, 2, 12 },
  { 129, -2646.0, 1106, 1120 },
  { 81, -5312.0, 2, 1107 },
  { 54, -1520.0, 1108, 2 },
  { 52, 10615.5, 1109, 2 },
  { 27, -4391.0, 1110, 1113 },
  { 75, -5123.5, 1111, 1112 },
  { 51, -5660.5, 2, 12 },
  { 103, 6425.0, 2, 12 },
  { 147, -4748.5, 2, 1114 },
  { 50, -5006.5, 1115, 1116 },
  { 25, 8281.0, 2, 12 },
  { 61, -6321.0, 1117, 1118 },
  { 118, -8753.0, 12, 2 },
  { 129, -4202.0, 1119, 12 },
  { 90, -4083.5, 12, 2 },
  { 51, 5236.0, 1121, 1152 },
  { 94, 328.0, 1122, 1138 },
  { 34, -759.5, 1123, 1131 },
  { 23, -4009.5, 2, 1124 },
  { 149, 9788.0, 1125, 2 },
  { 93, -3403.0, 1126, 1127 },
  { 125, 5245.5, 12, 2 },
  { 24, -1581.0, 1128, 12 },
  { 57, -423.0, 1129, 2 },
  { 6, -3015.5, 1130, 12 },
  { 34, -6483.0, 12, 2 },
  { 134, -858.0, 12, 1132 },
  { 8, 774.0, 1133, 12 },
  { 7, 629.0, 1134, 1137 },
  { 63, 447.0, 27, 1135 },
  { 20, -92.0, 27, 1136 },
  { 80, 91.0, 12, 27 },
  { 24, -6081.0, 2, 12 },
  { 3, -3493.0, 1139, 1141 },
  { 77, -5802.0, 1140, 2 },
  { 95, -6321.5, 2, 12 },
  { 109, 11421.5, 1142, 2 },
  { 110, -7182.5, 2, 1143 },
  { 120, 4764.5, 1144, 1151 },
  { 122, 5823.0, 1145, 2 },
  { 69, -3075.0, 2, 1146 },
  { 76, 830.5, 1147, 1149 },
  { 7, 312.5, 12, 1148 },
  { 7, 911.5, 27, 12 },
  { 127, 9525.0, 12, 1150 },
  { 114, -1121.5, 2, 12 },
  { 99, 5446.5, 2, 12 },
  { 78, 6843.5, 1153, 2 },
  { 38, -410.0, 12, 1154 },
  { 100, -10092.5, 1155, 2 },
  { 117, 3986.0, 12, 2 },
  { 135, -3512.0, 1157, 1164 },
  { 54, -4758.0, 2, 1158 },
  { 9, -558.5, 1159, 2 },
  { 70, 9889.5, 1160, 2 },
  { 125, -3935.0, 1161, 1162 },
  { 103, 5538.5, 2, 12 },
  { 24, -5174.0, 2, 1163 },
  { 76, 3681.0, 12, 2 },
  { 78, 5741.5, 1165, 1212 },
  { 112, 352.0, 1166, 1191 },
  { 82, -523.0, 1167, 1179 },
  { 53, -3722.0, 2, 1168 },
  { 48, -3636.0, 1169, 1170 },
  { 70, -13873.0, 12, 2 },
  { 133, 288.5, 1171, 1178 },
  { 137, 10307.5, 1172, 2 },
  { 63, -3347.5, 2, 1173 },
  { 130, -626.0, 1174, 1176 },
  { 141, 4864.5, 12, 1175 },
  { 98, 2369.0, 2, 12 },
  { 90, -1542.0, 1177, 12 },
  { 141, -2196.5, 12, 27 },
  { 122, 2840.0, 2, 12 },
  { 131, -630.0, 1180, 1183 },
  { 140, -781.5, 12, 1181 },
  { 143, -635.5, 27, 1182 },
  { 114, -701.5, 12, 2 },
  { 3, 849.0, 1184, 1190 },
  { 23, 2303.5, 1185, 2 },
  { 44, -784.5, 12, 1186 },
  { 45, 762.5, 1187, 1189 },
  { 6, 520.0, 27, 1188 },
  { 30, 489.0, 12, 27 },
  { 0, 751.5, 12, 27 },
  { 8, -198.5, 27, 12 },
  { 64, 12582.5, 1192, 2 },
  { 68, 3612.0, 1193, 2 },
  { 30, -3274.5, 1194, 1198 },
  { 129, -2742.0, 1195, 1196 },
  { 28, -966.0, 2, 12 },
  { 112, 2949.5, 2, 1197 },
  { 138, -1745.0, 12, 2 },
  { 95, -5505.0, 1199, 1202 },
  { 44, -5356.0, 1200, 2 },
  { 53, -6402.0, 1201, 12 },
  { 34, 4994.5, 2, 12 },
  { 28, -1844.0, 2, 1203 },
  { 25, 10994.5, 1204, 1211 },
  { 109, 794.0, 1205, 1207 },
  { 104, -228.5, 1206, 12 },
  { 107, -980.5, 12, 27 },
  { 5, -5863.0, 1208, 1209 },
  { 23, -5829.0, 12, 2 },
  { 130, 1287.5, 1210, 12 },
  { 115, 1366.0, 12, 27 },
  { 117, -1308.0, 2, 12 },
  { 54, 5790.5, 1213, 1214 },
  { 125, 581.5, 2, 12 },
  { 69, 6945.5, 1215, 2 },
  { 13, 3046.5, 2, 12 },
  { 24, -4160.0, 1217, 1226 },
  { 48, -5244.0, 1218, 1220 },
  { 75, -5317.0, 2, 1219 },
  { 27, -5866.0, 2, 12 },
  { 124, -6300.5, 1221, 1222 },
  { 138, 3500.0, 12, 2 },
  { 24, -5277.0, 1223, 1224 },
  { 111, -2241.0, 12, 2 },
  { 36, -4298.5, 2, 1225 },
  { 105, -2824.5, 12, 2 },
  { 90, 4947.5, 1227, 1278 },
  { 124, 318.5, 1228, 1250 },
  { 139, -379.5, 1229, 1242 },
  { 92, -3712.0, 2, 1230 },
  { 147, -4804.0, 2, 1231 },
  { 91, -12823.5, 1232, 1233 },
  { 75, -986.5, 12, 2 },
  { 121, -597.0, 1234, 1239 },
  { 19, -14016.0, 2, 1235 },
  { 131, -3035.0, 1236, 1237 },
  { 86, -2917.0, 12, 2 },
  { 15, -2212.0, 1238, 12 },
  { 39, -1108.5, 12, 2 },
  { 72, -1033.5, 1240, 1241 },
  { 131, -718.5, 2, 27 },
  { 127, -519.0, 27, 12 },
  { 125, -721.0, 1243, 1244 },
  { 8, -1671.5, 2, 12 },
  { 71, 860.5, 1245, 1249 },
  { 39, 785.0, 1246, 1248 },
  { 61, -931.5, 1247, 27 },
  { 125, 221.0, 12, 2 },
  { 2, -145.0, 27, 12 },
  { 113, 5445.0, 12, 2 },
  { 110, 1640.5, 1251, 1275 },
  { 58, 11126.5, 1252, 1272 },
  { 38, -6175.5, 1253, 1256 },
  { 10, 5178.5, 1254, 1255 },
  { 36, -1257.0, 2, 12 },
  { 146, -5952.5, 12, 2 },
  { 128, 1802.0, 1257, 2 },
  { 132, -4364.0, 1258, 1259 },
  { 127, 575.5, 12, 2 },
  { 146, -5838.0, 1260, 1261 },
  { 34, 7871.5, 2, 12 },
  { 75, -2783.0, 1262, 1264 },
  { 111, -2584.0, 1263, 2 },
  { 81, -2841.0, 12, 2 },
  { 121, 581.0, 1265, 1267 },
  { 89, 262.5, 1266, 12 },
  { 107, -845.5, 12, 27 },
  { 29, -5514.0, 1268, 1269 },
  { 140, -4325.5, 12, 2 },
  { 121, 1419.0, 1270, 12 },
  { 82, 1686.0, 12, 1271 },
  { 76, 2029.5, 27, 12 },
  { 144, 968.5, 1273, 12 },
  { 69, 49.5, 2, 1274 },
  { 114, -755.5, 12, 2 },
  { 118, 3914.5, 1276, 2 },
  { 85, 160.5, 2, 1277 },
  { 93, -3606.0, 2, 12 },
  { 39, 5159.0, 1279, 2 },
  { 78, 6415.5, 1280, 2 },
  { 123, 8548.5, 12, 2 },
  { 75, -3143.5, 1282, 1295 },
  { 66, -5315.5, 2, 1283 },
  { 10, 9962.0, 1284, 1294 },
  { 90, -3358.0, 1285, 2 },
  { 144, -5391.0, 1286, 1288 },
  { 8, 1023.0, 2, 1287 },
  { 49, 3568.5, 12, 2 },
  { 116, -5540.0, 1289, 1290 },
  { 79, 6172.0, 2, 12 },
  { 142, 7659.0, 1291, 2 },
  { 9, -5750.0, 2, 1292 },
  { 110, -3979.5, 1293, 12 },
  { 131, -4678.5, 12, 2 },
  { 38, -4067.5, 12, 2 },
  { 45, 5218.0, 1296, 1347 },
  { 130, 313.0, 1297, 1323 },
  { 148, -463.0, 1298, 1312 },
  { 23, -4009.5, 2, 1299 },
  { 97, -12442.0, 1300, 1301 },
  { 6, 1323.5, 12, 2 },
  { 27, -2694.5, 1302, 1303 },
  { 122, 4912.5, 2, 12 },
  { 97, -877.0, 1304, 1308 },
  { 144, 5200.0, 1305, 1307 },
  { 22, -14196.0, 1306, 12 },
  { 29, 3324.0, 2, 12 },
  { 137, 1040.5, 2, 12 },
  { 18, -1126.5, 1309, 1311 },
  { 54, -1610.5, 12, 1310 },
  { 67, -99.5, 27, 12 },
  { 55, 8853.5, 12, 2 },
  { 26, 652.0, 1313, 1322 },
  { 146, -742.5, 1314, 1316 },
  { 1, 58.5, 12, 1315 },
  { 33, 696.5, 12, 27 },
  { 0, 514.5, 1317, 1320 },
  { 3, -1709.5, 12, 1318 },
  { 3, 409.0, 27, 1319 },
  { 0, 412.5, 12, 27 },
  { 26, -95.0, 27, 1321 },
  { 79, -278.5, 27, 12 },
  { 98, -720.0, 2, 12 },
  { 118, 11369.5, 1324, 1345 },
  { 62, 5728.5, 1325, 2 },
  { 111, -3288.0, 2, 1326 },
  { 149, -6148.0, 1327, 1328 },
  { 103, 6563.5, 2, 12 },
  { 109, 794.0, 1329, 1334 },
  { 148, 1610.5, 1330, 2 },
  { 103, 722.5, 1331, 27 },
  { 95, 4384.0, 1332, 2 },
  { 61, 119.0, 12, 1333 },
  { 91, 649.0, 27, 12 },
  { 30, -3507.5, 2, 1335 },
  { 146, 4318.5, 1336, 2 },
  { 43, 12947.0, 1337, 2 },
  { 56, -5903.0, 1338, 1339 },
  { 37, 3013.5, 2, 12 },
  { 46, 10866.0, 1340, 1344 },
  { 94, 898.5, 1341, 1342 },
  { 88, 858.5, 12, 27 },
  { 11, 137.5, 12, 1343 },
  { 116, 166.5, 27, 12 },
  { 80, -2886.5, 12, 2 },
  { 106, 12258.5, 1346, 2 },
  { 134, -2847.0, 12, 2 },
  { 15, 7031.0, 1348, 2 },
  { 3, 6204.0, 2, 1349 },
  { 22, -10476.5, 2, 12 },
  { 111, -3027.0, 1351, 1367 },
  { 141, -4978.5, 1352, 1355 },
  { 81, -5427.5, 2, 1353 },
  { 67, -9371.0, 12, 1354 },
  { 84, -5448.5, 12, 2 },
  { 63, -5448.5, 2, 1356 },
  { 132, -3446.0, 1357, 1364 },
  { 100, 8689.0, 1358, 2 },
  { 98, -6356.0, 1359, 1360 },
  { 70, 6009.5, 2, 12 },
  { 37, 2325.5, 1361, 1362 },
  { 74, -3765.5, 2, 12 },
  { 8, -3141.0, 12, 1363 },
  { 59, 2498.5, 2, 12 },
  { 142, -6839.0, 12, 1365 },
  { 126, -3371.5, 1366, 2 },
  { 148, 2282.5, 12, 2 },
  { 78, 5098.0, 1368, 1417 },
  { 13, 319.5, 1369, 1395 },
  { 13, -407.0, 1370, 1385 },
  { 127, 3275.5, 1371, 2 },
  { 50, -3580.0, 2, 1372 },
  { 28, -13961.0, 1373, 1375 },
  { 72, 494.5, 1374, 2 },
  { 64, -13806.0, 2, 12 },
  { 135, 6059.5, 1376, 2 },
  { 79, -524.0, 1377, 1382 },
  { 148, 2067.0, 1378, 2 },
  { 0, -2972.0, 1379, 1380 },
  { 57, -545.5, 12, 2 },
  { 25, -846.5, 12, 1381 },
  { 139, -968.0, 12, 27 },
  { 103, -143.0, 1383, 1384 },
  { 109, -694.0, 12, 27 },
  { 41, -1788.5, 2, 12 },
  { 147, -1202.0, 1386, 1388 },
  { 116, 380.5, 12, 1387 },
  { 127, 394.5, 27, 2 },
  { 82, -490.5, 12, 1389 },
  { 14, -1035.0, 12, 1390 },
  { 115, 361.0, 1391, 12 },
  { 36, 778.5, 1392, 1394 },
  { 15, 524.5, 27, 1393 },
  { 24, 496.5, 12, 27 },
  { 19, -246.0, 27, 12 },
  { 61, 11634.5, 1396, 1415 },
  { 140, 3153.5, 1397, 1413 },
  { 5, -6136.0, 1398, 1401 },
  { 18, -1420.0, 1399, 12 },
  { 13, 5552.0, 2, 1400 },
  { 129, 663.5, 12, 2 },
  { 0, -4164.5, 2, 1402 },
  { 75, -3117.0, 2, 1403 },
  { 40, 726.5, 1404, 1406 },
  { 79, 315.5, 12, 1405 },
  { 121, 765.0, 27, 12 },
  { 94, 11360.0, 1407, 1412 },
  { 128, -5861.0, 1408, 1409 },
  { 128, -6104.5, 12, 2 },
  { 29, 106.5, 12, 1410 },
  { 8, 202.0, 1411, 12 },
  { 18, 1872.0, 27, 12 },
  { 48, 1434.0, 2, 12 },
  { 103, -552.5, 1414, 2 },
  { 59, 3298.5, 2, 12 },
  { 60, 1745.5, 2, 1416 },
  { 9, 3011.0, 12, 2 },
  { 84, 5492.0, 1418, 2 },
  { 39, 5159.0, 12, 2 },
  { 33, -4284.0, 1420, 1428 },
  { 72, -5275.0, 2, 1421 },
  { 81, -5182.5, 1422, 1423 },
  { 116, -3862.5, 2, 12 },
  { 83, -527.5, 1424, 1426 },
  { 127, 4808.0, 2, 1425 },
  { 142, 6639.5, 12, 2 },
  { 133, -4795.0, 1427, 2 },
  { 123, 1091.0, 12, 2 },
  { 18, 5216.5, 1429, 1488 },
  { 43, 403.5, 1430, 1459 },
  { 94, -405.0, 1431, 1446 },
  { 20, -3667.0, 2, 1432 },
  { 72, -3067.5, 1433, 1436 },
  { 83, -1173.5, 2, 1434 },
  { 18, -1214.0, 1435, 2 },
  { 14, 4854.5, 12, 2 },
  { 16, -13526.5, 1437, 1438 },
  { 62, 5472.5, 2, 12 },
  { 148, 1461.5, 1439, 2 },
  { 85, -844.5, 1440, 1443 },
  { 81, -1891.5, 1441, 12 },
  { 116, 3734.5, 12, 1442 },
  { 114, -1389.5, 12, 2 },
  { 6, -437.5, 1444, 12 },
  { 78, -1196.0, 1445, 27 },
  { 58, -634.5, 27, 12 },
  { 103, 337.5, 1447, 1456 },
  { 25, -542.5, 1448, 1449 },
  { 87, 2114.5, 12, 2 },
  { 32, -687.5, 1450, 1451 },
  { 95, -1013.5, 12, 27 },
  { 143, 914.5, 1452, 12 },
  { 30, -1698.0, 12, 1453 },
  { 51, 450.0, 27, 1454 },
  { 35, -103.5, 27, 1455 },
  { 82, -186.5, 27, 12 },
  { 142, 4432.5, 1457, 2 },
  { 143, 2967.0, 1458, 2 },
  { 46, 360.5, 12, 27 },
  { 40, 10918.5, 1460, 1486 },
  { 23, 2977.5, 1461, 1484 },
  { 74, -6496.0, 1462, 1464 },
  { 13, 8951.0, 1463, 12 },
  { 39, -1472.0, 2, 12 },
  { 141, -4203.5, 1465, 1467 },
  { 27, -2487.0, 2, 1466 },
  { 92, -340.5, 12, 2 },
  { 120, 4143.5, 1468, 1483 },
  { 49, 475.5, 1469, 1470 },
  { 128, -3599.5, 2, 12 },
  { 24, -4595.5, 2, 1471 },
  { 32, -6742.5, 2, 1472 },
  { 40, 669.5, 1473, 1474 },
  { 43, 628.0, 12, 27 },
  { 120, -2730.0, 1475, 1478 },
  { 125, -5280.0, 2, 1476 },
  { 28, 5920.5, 1477, 2 },
  { 132, -2689.5, 12, 2 },
  { 130, 1287.5, 1479, 12 },
  { 4, 2168.5, 1480, 1482 },
  { 68, -404.0, 1481, 12 },
  { 123, -137.0, 12, 27 },
  { 63, -336.5, 27, 12 },
  { 25, 2623.0, 2, 12 },
  { 145, 2409.5, 1485, 2 },
  { 122, 3330.5, 12, 2 },
  { 134, -3385.0, 1487, 2 },
  { 74, -4175.0, 2, 12 },
  { 39, 5885.5, 1489, 2 },
  { 101, 6932.5, 12, 2 },
  { 57, -3289.5, 1491, 1503 },
  { 75, -5305.0, 2, 1492 },
  { 78, -5213.5, 1493, 1494 },
  { 40, 8537.5, 12, 2 },
  { 22, 9651.5, 1495, 2 },
  { 95, -3931.0, 1496, 1497 },
  { 25, 7840.5, 2, 12 },
  { 42, -4077.5, 1498, 1500 },
  { 142, -6933.5, 1499, 2 },
  { 39, -4419.0, 12, 2 },
  { 143, 3235.0, 1501, 1502 },
  { 103, -5280.0, 2, 12 },
  { 133, -2158.0, 12, 2 },
  { 30, 5230.5, 1504, 1544 },
  { 142, 261.0, 1505, 1527 },
  { 139, -376.5, 1506, 1519 },
  { 149, -2028.0, 1507, 1509 },
  { 123, -2474.5, 2, 1508 },
  { 134, -3685.0, 2, 12 },
  { 93, -4352.0, 2, 1510 },
  { 64, -13497.5, 1511, 1512 },
  { 133, -12677.5, 2, 12 },
  { 130, -561.0, 1513, 1516 },
  { 6, -2696.5, 1514, 12 },
  { 144, -26.0, 12, 1515 },
  { 107, 4461.5, 2, 12 },
  { 29, -377.5, 1517, 1518 },
  { 145, -471.5, 2, 12 },
  { 33, 737.0, 27, 12 },
  { 62, -902.0, 1520, 1521 },
  { 95, -4432.0, 2, 12 },
  { 5, 507.0, 1522, 1524 },
  { 147, 477.0, 27, 1523 },
  { 117, 482.5, 12, 27 },
  { 78, -357.5, 27, 1525 },
  { 37, 1389.0, 1526, 2 },
  { 118, 347.5, 12, 2 },
  { 133, 11985.0, 1528, 2 },
  { 37, 10859.0, 1529, 1543 },
  { 123, 5060.0, 1530, 2 },
  { 32, -6167.5, 1531, 1532 },
  { 22, 5891.5, 2, 12 },
  { 63, -3072.0, 2, 1533 },
  { 85, 771.0, 1534, 1538 },
  { 29, 205.5, 1535, 1537 },
  { 34, 252.5, 1536, 27 },
  { 3, -2415.5, 2, 12 },
  { 96, -3159.5, 2, 12 },
  { 24, -4116.0, 2, 1539 },
  { 50, -5265.5, 1540, 1541 },
  { 114, -1236.0, 2, 12 },
  { 123, -4093.5, 2, 1542 },
  { 125, -5431.0, 2, 12 },
  { 126, -1236.5, 2, 12 },
  { 54, 5495.5, 1545, 2 },
  { 0, 7225.5, 1546, 2 },
  { 85, -10424.0, 2, 12 },
  { 90, -2858.5, 1548, 1562 },
  { 105, -4413.5, 1549, 1554 },
  { 81, -5329.0, 2, 1550 },
  { 27, -4949.0, 1551, 1552 },
  { 103, -13073.5, 2, 12 },
  { 4, 11381.0, 2, 1553 },
  { 30, -3702.0, 12, 2 },
  { 1, 3909.0, 1555, 1560 },
  { 129, -3224.0, 1556, 1558 },
  { 71, -3937.0, 2, 1557 },
  { 140, -4741.5, 2, 12 },
  { 123, -3155.0, 12, 1559 },
  { 36, -2926.0, 2, 12 },
  { 130, 5631.0, 2, 1561 },
  { 146, -4636.5, 12, 2 },
  { 60, 5166.5, 1563, 1607 },
  { 139, 261.0, 1564, 1586 },
  { 118, -414.5, 1565, 1576 },
  { 43, -12727.5, 1566, 1567 },
  { 5, 5438.0, 2, 12 },
  { 11, -3877.0, 2, 1568 },
  { 115, -615.5, 1569, 1575 },
  { 120, 3872.5, 1570, 1574 },
  { 118, -917.5, 1571, 1573 },
  { 45, -2282.0, 1572, 12 },
  { 48, -2270.0, 12, 2 },
  { 98, 180.5, 27, 12 },
  { 3, -971.0, 2, 12 },
  { 104, 62.0, 12, 27 },
  { 91, 227.5, 1577, 1582 },
  { 46, -986.5, 12, 1578 },
  { 129, 827.5, 1579, 1581 },
  { 111, 457.5, 27, 1580 },
  { 69, 463.0, 12, 27 },
  { 144, 868.0, 12, 27 },
  { 118, 535.5, 1583, 2 },
  { 2, 331.5, 1584, 1585 },
  { 98, -1049.0, 12, 27 },
  { 104, 2502.5, 12, 2 },
  { 40, 10924.5, 1587, 1605 },
  { 32, 2321.0, 1588, 1603 },
  { 8, -5797.5, 1589, 1591 },
  { 30, -1285.0, 1590, 12 },
  { 30, -2530.0, 12, 2 },
  { 30, -3408.5, 2, 1592 },
  { 131, -5860.5, 2, 1593 },
  { 120, 4700.0, 1594, 2 },
  { 115, 782.0, 1595, 1599 },
  { 109, 644.0, 1596, 27 },
  { 19, -4805.0, 2, 1597 },
  { 37, 228.0, 12, 1598 },
  { 68, 141.5, 27, 12 },
  { 146, 3345.5, 1600, 2 },
  { 148, 881.0, 1601, 12 },
  { 43, 1024.0, 1602, 12 },
  { 37, 421.0, 12, 27 },
  { 97, 2501.0, 1604, 2 },
  { 119, 3470.0, 12, 2 },
  { 84, 1362.0, 2, 1606 },
  { 104, -3889.0, 2, 12 },
  { 57, 5510.0, 1608, 2 },
  { 112, -9330.0, 12, 2 },
  { 117, -2263.5, 1610, 1631 },
  { 111, -4680.5, 1611, 1616 },
  { 93, -5680.5, 2, 1612 },
  { 87, -5504.5, 1613, 1614 },
  { 141, -5625.5, 12, 2 },
  { 60, -5241.0, 1615, 2 },
  { 36, -5446.0, 2, 12 },
  { 46, 9260.5, 1617, 2 },
  { 21, -5628.5, 2, 1618 },
  { 146, 5087.0, 1619, 1630 },
  { 80, -3835.0, 1620, 1623 },
  { 67, 5194.5, 1621, 1622 },
  { 108, -4089.5, 12, 2 },
  { 149, -3879.5, 12, 2 },
  { 58, 4848.5, 1624, 2 },
  { 30, -4814.0, 1625, 1626 },
  { 112, -4720.5, 12, 2 },
  { 137, -4271.5, 2, 1627 },
  { 143, -4327.5, 2, 1628 },
  { 64, -7033.5, 1629, 12 },
  { 85, -8167.5, 12, 2 },
  { 109, -11983.0, 12, 2 },
  { 72, 5160.5, 1632, 1664 },
  { 67, 254.5, 1633, 1655 },
  { 76, -507.5, 1634, 1647 },
  { 133, 50.5, 1635, 1645 },
  { 71, -3136.5, 1636, 1637 },
  { 23, -4009.5, 2, 12 },
  { 97, -12863.5, 1638, 1639 },
  { 111, 1839.0, 12, 2 },
  { 39, -4080.5, 2, 1640 },
  { 97, -877.0, 1641, 1643 },
  { 36, -2522.0, 1642, 12 },
  { 33, -2644.0, 12, 2 },
  { 37, -862.0, 12, 1644 },
  { 101, 777.5, 27, 12 },
  { 102, 1260.0, 1646, 2 },
  { 144, 945.0, 2, 12 },
  { 133, 332.5, 1648, 1654 },
  { 122, -918.0, 12, 1649 },
  { 5, 789.5, 1650, 12 },
  { 135, 830.0, 1651, 1653 },
  { 93, 446.0, 27, 1652 },
  { 111, 470.5, 12, 27 },
  { 135, 868.5, 12, 27 },
  { 146, 1165.5, 12, 2 },
  { 40, 10924.5, 1656, 1663 },
  { 17, -5998.5, 1657, 1658 },
  { 45, -1402.0, 2, 12 },
  { 5, 1587.5, 1659, 1662 },
  { 27, -3716.5, 2, 1660 },
  { 112, 740.0, 1661, 12 },
  { 139, 394.0, 12, 27 },
  { 76, 5449.0, 12, 2 },
  { 69, 1988.5, 2, 12 },
  { 69, 5325.0, 1665, 2 },
  { 53, 4359.5, 12, 2 },
  { 144, -3021.0, 1667, 1683 },
  { 99, -5207.5, 1668, 1671 },
  { 87, -5529.0, 2, 1669 },
  { 93, -5628.0, 1670, 2 },
  { 88, 8685.5, 12, 2 },
  { 136, 2915.5, 1672, 1680 },
  { 25, 3465.5, 1673, 2 },
  { 48, -4119.5, 1674, 1676 },
  { 37, -8.5, 1675, 12 },
  { 131, 2055.0, 2, 12 },
  { 115, -3926.0, 1677, 1678 },
  { 148, -7977.0, 12, 2 },
  { 116, -3272.5, 1679, 12 },
  { 75, -3671.5, 12, 2 },
  { 116, -3164.0, 1681, 2 },
  { 7, 7815.5, 1682, 12 },
  { 144, -3173.5, 2, 12 },
  { 42, 5802.0, 1684, 1725 },
  { 41, -420.0, 1685, 1705 },
  { 92, -5306.0, 1686, 1689 },
  { 56, -6720.5, 2, 1687 },
  { 14, -5188.5, 1688, 2 },
  { 7, 2293.0, 2, 12 },
  { 58, 11126.5, 1690, 1703 },
  { 13, -5183.5, 1691, 1692 },
  { 115, -5728.0, 12, 2 },
  { 68, -5108.5, 1693, 1694 },
  { 61, 8223.0, 2, 12 },
  { 107, 788.0, 1695, 2 },
  { 32, -651.0, 1696, 1701 },
  { 108, -3120.0, 2, 1697 },
  { 138, 5224.5, 1698, 2 },
  { 59, -850.0, 12, 1699 },
  { 53, -823.5, 1700, 12 },
  { 72, 631.5, 12, 27 },
  { 33, 576.0, 1702, 12 },
  { 68, -448.0, 27, 12 },
  { 125, -3086.0, 1704, 2 },
  { 92, -4049.0, 2, 12 },
  { 8, 410.0, 1706, 1712 },
  { 16, -659.5, 1707, 1708 },
  { 4, -8169.5, 2, 12 },
  { 46, 1502.5, 1709, 12 },
  { 60, 432.5, 27, 1710 },
  { 17, -99.0, 27, 1711 },
  { 17, 93.0, 12, 27 },
  { 3, -4511.0, 2, 1713 },
  { 112, 2658.0, 1714, 1724 },
  { 137, 9517.5, 1715, 2 },
  { 127, -15026.5, 2, 1716 },
  { 60, 6685.0, 1717, 2 },
  { 14, 613.5, 1718, 1720 },
  { 62, 433.5, 12, 1719 },
  { 49, -721.0, 12, 27 },
  { 12, -3116.5, 1721, 1722 },
  { 149, 4568.5, 2, 12 },
  { 70, 181.0, 12, 1723 },
  { 92, 3134.5, 12, 2 },
  { 20, 2211.5, 12, 2 },
  { 48, 6914.0, 1726, 2 },
  { 74, -555.5, 12, 2 },
  { 21, -4166.0, 1728, 1734 },
  { 48, -5244.0, 2, 1729 },
  { 130, 5714.5, 1730, 1733 },
  { 67, -2977.5, 1731, 2 },
  { 132, -1747.0, 1732, 2 },
  { 42, -4399.5, 12, 2 },
  { 127, 10550.5, 12, 2 },
  { 30, 5124.0, 1735, 1786 },
  { 28, 186.0, 1736, 1760 },
  { 28, -481.5, 1737, 1752 },
  { 143, -3063.0, 1738, 1740 },
  { 10, -1630.5, 2, 1739 },
  { 35, -1866.0, 12, 2 },
  { 129, 3738.0, 1741, 1749 },
  { 25, -470.5, 1742, 27 },
  { 131, 9191.5, 1743, 2 },
  { 37, -14212.5, 1744, 1745 },
  { 15, -20.5, 12, 2 },
  { 73, 240.5, 1746, 1748 },
  { 25, -596.5, 12, 1747 },
  { 5, 451.0, 27, 12 },
  { 51, 926.0, 2, 12 },
  { 60, 3280.5, 1750, 12 },
  { 96, 3499.0, 2, 1751 },
  { 73, -1062.5, 12, 2 },
  { 112, -546.0, 12, 1753 },
  { 103, 255.0, 1754, 1759 },
  { 122, -918.0, 1755, 1756 },
  { 147, -3752.0, 2, 12 },
  { 0, 511.0, 27, 1757 },
  { 8, -115.5, 27, 1758 },
  { 43, -220.0, 27, 12 },
  { 139, 4692.0, 12, 2 },
  { 34, 10601.0, 1761, 1783 },
  { 23, 1979.0, 1762, 1781 },
  { 44, -6244.0, 1763, 1767 },
  { 9, -3861.0, 12, 1764 },
  { 54, -1104.5, 1765, 12 },
  { 1, 5004.5, 2, 1766 },
  { 73, 8918.0, 12, 2 },
  { 104, 3147.5, 1768, 2 },
  { 3, -4194.5, 2, 1769 },
  { 76, 823.0, 1770, 1774 },
  { 59, 267.0, 1771, 12 },
  { 145, -44.5, 12, 1772 },
  { 117, -1162.5, 1773, 27 },
  { 111, -2240.0, 2, 12 },
  { 2, -5981.5, 1775, 1776 },
  { 9, -1111.0, 2, 12 },
  { 141, -4278.0, 1777, 1778 },
  { 51, -3482.5, 2, 12 },
  { 145, 1150.5, 1779, 12 },
  { 84, -560.5, 1780, 12 },
  { 14, 42.0, 12, 27 },
  { 109, 1323.0, 1782, 2 },
  { 120, -5168.5, 2, 12 },
  { 75, -33.0, 2, 1784 },
  { 92, -3152.5, 1785, 2 },
  { 82, 13135.5, 12, 2 },
  { 51, 5554.5, 1787, 1788 },
  { 80, 6688.0, 12, 2 },
  { 42, 6965.5, 1789, 2 },
  { 110, -42.5, 12, 2 },
  { 138, -2769.5, 1791, 1806 },
  { 57, -5516.0, 2, 1792 },
  { 31, 2340.0, 1793, 1802 },
  { 36, -1860.5, 1794, 1800 },
  { 65, -3825.5, 2, 1795 },
  { 12, -4624.0, 1796, 1798 },
  { 112, -7021.5, 12, 1797 },
  { 69, -4935.0, 12, 2 },
  { 31, -6528.5, 1799, 12 },
  { 108, -3725.0, 12, 2 },
  { 15, -390.0, 1801, 2 },
  { 29, 31.0, 2, 12 },
  { 101, -5435.0, 1803, 1804 },
  { 67, 5913.5, 2, 12 },
  { 56, -2680.0, 1805, 2 },
  { 25, 3533.5, 12, 2 },
  { 117, 5846.5, 1807, 1843 },
  { 7, 486.0, 1808, 1829 },
  { 106, -486.5, 1809, 1818 },
  { 23, -3624.0, 2, 1810 },
  { 43, -12063.0, 1811, 1812 },
  { 21, 1786.5, 12, 2 },
  { 111, -3080.5, 2, 1813 },
  { 99, 5586.5, 1814, 2 },
  { 58, -852.5, 1815, 1817 },
  { 75, -2027.5, 1816, 12 },
  { 129, -719.5, 12, 2 },
  { 16, -299.5, 27, 12 },
  { 115, 308.5, 1819, 1825 },
  { 131, -968.0, 12, 1820 },
  { 10, -728.5, 12, 1821 },
  { 148, -538.0, 12, 1822 },
  { 33, 2155.0, 1823, 12 },
  { 78, 396.5, 27, 1824 },
  { 41, -99.0, 27, 12 },
  { 124, 4112.0, 1826, 2 },
  { 7, 300.0, 1827, 27 },
  { 42, -1751.0, 1828, 12 },
  { 1, -179.0, 2, 12 },
  { 19, 10970.5, 1830, 1841 },
  { 15, -3649.5, 2, 1831 },
  { 5, 4114.5, 1832, 2 },
  { 143, -6597.5, 1833, 1834 },
  { 10, 4546.5, 2, 12 },
  { 34, -334.0, 2, 1835 },
  { 10, 865.5, 1836, 1839 },
  { 100, 385.5, 12, 1837 },
  { 106, 774.0, 27, 1838 },
  { 78, -2860.5, 2, 12 },
  { 65, 122.0, 12, 1840 },
  { 107, 212.0, 27, 12 },
  { 18, 903.5, 2, 1842 },
  { 74, -3031.5, 12, 2 },
  { 45, 5149.0, 1844, 1845 },
  { 121, 1103.5, 12, 2 },
  { 102, 6787.0, 1846, 2 },
  { 99, 6513.0, 2, 12 },
  { 114, -2620.0, 1848, 1860 },
  { 84, -5453.5, 2, 1849 },
  { 67, 2447.0, 1850, 1856 },
  { 131, -4049.5, 2, 1851 },
  { 12, -258.0, 1852, 2 },
  { 27, -5696.0, 2, 1853 },
  { 80, -4043.5, 2, 1854 },
  { 141, -5374.5, 1855, 12 },
  { 62, 94.0, 2, 12 },
  { 27, -3810.0, 1857, 2 },
  { 130, 5714.5, 1858, 1859 },
  { 81, -3870.5, 2, 12 },
  { 37, 7905.5, 2, 12 },
  { 48, 5249.0, 1861, 1899 },
  { 94, 307.0, 1862, 1881 },
  { 76, -469.0, 1863, 1874 },
  { 38, -3893.5, 2, 1864 },
  { 67, -14176.5, 2, 1865 },
  { 63, -3239.5, 2, 1866 },
  { 6, -2430.5, 1867, 1870 },
  { 33, -1736.5, 1868, 2 },
  { 41, 3036.0, 12, 1869 },
  { 49, -6680.0, 12, 2 },
  { 13, -14318.5, 1871, 1872 },
  { 117, 540.0, 2, 12 },
  { 112, -580.0, 12, 1873 },
  { 7, -908.5, 12, 27 },
  { 110, -819.0, 12, 1875 },
  { 19, 443.5, 1876, 1880 },
  { 3, -1828.5, 12, 1877 },
  { 27, 401.0, 27, 1878 },
  { 8, -92.5, 27, 1879 },
  { 76, -332.5, 27, 12 },
  { 116, 3319.0, 12, 2 },
  { 142, 9921.0, 1882, 1895 },
  { 6, -3215.0, 1883, 1884 },
  { 111, -2490.5, 12, 2 },
  { 95, 3116.0, 1885, 2 },
  { 134, -5896.5, 1886, 1888 },
  { 112, 4105.5, 12, 1887 },
  { 88, 6541.0, 2, 12 },
  { 28, 13849.5, 1889, 2 },
  { 109, 800.0, 1890, 1892 },
  { 59, 118.5, 1891, 12 },
  { 128, -934.5, 12, 27 },
  { 111, 4601.5, 1893, 2 },
  { 14, 143.0, 12, 1894 },
  { 2, 180.5, 27, 12 },
  { 19, 7787.0, 2, 1896 },
  { 49, 10824.0, 12, 1897 },
  { 2, -3701.0, 2, 1898 },
  { 134, -1831.0, 12, 2 },
  { 42, 5802.0, 1900, 2 },
  { 124, -9116.0, 12, 2 },
  { 132, -2781.0, 1902, 1922 },
  { 141, -4475.5, 1903, 1912 },
  { 96, -5241.0, 2, 1904 },
  { 118, -13749.0, 12, 1905 },
  { 90, -4817.0, 1906, 1907 },
  { 84, -5320.5, 2, 12 },
  { 144, -4660.0, 1908, 1911 },
  { 87, -4302.5, 1909, 2 },
  { 128, -3586.5, 2, 1910 },
  { 67, 3829.0, 12, 2 },
  { 124, 760.0, 12, 2 },
  { 115, 2447.5, 1913, 1917 },
  { 27, -4708.5, 1914, 1915 },
  { 145, -10185.5, 12, 2 },
  { 110, -4318.0, 2, 1916 },
  { 95, 4511.0, 12, 2 },
  { 134, -3593.0, 1918, 2 },
  { 44, -6325.0, 1919, 1920 },
  { 73, 8300.0, 2, 12 },
  { 2, -3902.0, 12, 1921 },
  { 128, -5145.5, 2, 12 },
  { 66, 5133.5, 1923, 2 },
  { 4, 483.0, 1924, 1946 },
  { 4, -723.5, 1925, 1935 },
  { 0, -2822.0, 1926, 1930 },
  { 127, -6142.5, 1927, 1928 },
  { 15, -6964.5, 2, 12 },
  { 142, -3056.0, 1929, 2 },
  { 124, -3982.0, 2, 12 },
  { 47, -3820.0, 2, 1931 },
  { 143, 9642.0, 1932, 2 },
  { 101, 13811.5, 1933, 2 },
  { 141, 5583.0, 1934, 2 },
  { 115, -15127.5, 2, 12 },
  { 20, 662.0, 1936, 12 },
  { 140, -1009.5, 1937, 1938 },
  { 106, 5668.0, 12, 2 },
  { 103, 621.5, 1939, 1945 },
  { 145, -643.5, 1940, 1941 },
  { 12, -300.0, 27, 12 },
  { 39, 412.5, 27, 1942 },
  { 5, -92.5, 27, 1943 },
  { 136, -57.5, 27, 1944 },
  { 26, 69.0, 12, 27 },
  { 54, -602.5, 12, 27 },
  { 79, 11148.0, 1947, 1959 },
  { 36, -3269.5, 1948, 1949 },
  { 141, -2644.0, 12, 2 },
  { 126, 4430.5, 1950, 1958 },
  { 35, -6574.0, 2, 1951 },
  { 62, 4526.5, 1952, 2 },
  { 43, 11206.0, 1953, 2 },
  { 139, 1210.5, 1954, 1956 },
  { 145, 710.5, 12, 1955 },
  { 48, -758.5, 12, 27 },
  { 14, -5812.5, 1957, 12 },
  { 104, -5467.0, 12, 2 },
  { 18, 2411.0, 2, 12 },
  { 60, 218.0, 2, 1960 },
  { 149, -3443.5, 12, 2 },
  { 120, -2905.0, 1962, 1974 },
  { 105, -4812.5, 1963, 1966 },
  { 69, -5117.5, 2, 1964 },
  { 9, -3386.0, 1965, 2 },
  { 125, -1610.0, 2, 12 },
  { 79, 4283.5, 1967, 1972 },
  { 15, -5816.0, 2, 1968 },
  { 104, -1894.0, 1969, 1971 },
  { 118, 638.5, 2, 1970 },
  { 147, -3045.5, 12, 2 },
  { 98, 6066.5, 12, 2 },
  { 62, -5028.5, 1973, 2 },
  { 77, -7982.5, 2, 12 },
  { 75, 5025.0, 1975, 2010 },
  { 28, 269.0, 1976, 1998 },
  { 26, 671.0, 1977, 1993 },
  { 52, -609.5, 1978, 1985 },
  { 56, -1845.0, 1979, 1981 },
  { 41, -3868.5, 2, 1980 },
  { 137, -40.0, 12, 2 },
  { 58, -8464.5, 2, 1982 },
  { 147, 6677.5, 1983, 2 },
  { 52, -825.0, 12, 1984 },
  { 99, -525.0, 27, 12 },
  { 115, 552.5, 1986, 1992 },
  { 53, -758.5, 12, 1987 },
  { 96, 1451.5, 1988, 12 },
  { 3, 510.5, 27, 1989 },
  { 30, 489.0, 12, 1990 },
  { 91, 56.5, 27, 1991 },
  { 1, 127.5, 12, 27 },
  { 35, -4358.5, 2, 12 },
  { 21, -2807.5, 1994, 1995 },
  { 16, -9790.5, 12, 2 },
  { 80, 14042.5, 1996, 2 },
  { 127, -13351.5, 1997, 12 },
  { 115, -16609.0, 12, 2 },
  { 73, 11074.0, 1999, 2008 },
  { 26, -6158.5, 2000, 2001 },
  { 82, 9239.0, 2, 12 },
  { 39, -3292.5, 2, 2002 },
  { 83, 3239.0, 2003, 2 },
  { 8, -636.0, 12, 2004 },
  { 44, 173.0, 2005, 12 },
  { 128, -548.0, 12, 2006 },
  { 83, 208.5, 2007, 12 },
  { 126, -1094.0, 12, 27 },
  { 81, -265.5, 2, 2009 },
  { 88, 12282.5, 12, 2 },
  { 60, 5209.0, 2011, 2012 },
  { 20, 8067.5, 12, 2 },
  { 75, 6863.0, 2013, 2 },
  { 104, -1315.5, 12, 2 },
  { 6, -3197.0, 2015, 2029 },
  { 27, -5437.0, 2016, 2018 },
  { 27, -5646.0, 2, 2017 },
  { 121, -8410.0, 12, 2 },
  { 105, -997.5, 2019, 2 },
  { 132, -5400.5, 2, 2020 },
  { 89, -3996.5, 2021, 2023 },
  { 1, 8709.5, 2022, 12 },
  { 39, -3202.0, 2, 12 },
  { 25, 5386.0, 2024, 2 },
  { 84, -3433.0, 2025, 2026 },
  { 18, -5553.0, 2, 12 },
  { 139, 1123.0, 2027, 2028 },
  { 143, -430.5, 2, 12 },
  { 9, -3906.0, 2, 12 },
  { 27, 5330.0, 2030, 2076 },
  { 31, -415.0, 2031, 2047 },
  { 113, -4469.0, 2, 2032 },
  { 148, 4766.5, 2033, 2 },
  { 128, 9131.5, 2034, 2046 },
  { 84, -5048.5, 2, 2035 },
  { 114, 7107.5, 2036, 2 },
  { 3, -2963.5, 2037, 2038 },
  { 3, -3094.5, 12, 2 },
  { 91, -15415.0, 2, 2039 },
  { 49, -829.0, 2040, 2044 },
  { 0, -2833.0, 2041, 2042 },
  { 125, 925.5, 12, 2 },
  { 22, -14085.0, 2043, 12 },
  { 125, 4525.5, 2, 12 },
  { 103, -94.0, 2045, 12 },
  { 101, 184.0, 27, 12 },
  { 99, 4179.5, 2, 12 },
  { 43, 405.0, 2048, 2057 },
  { 60, -1587.5, 2049, 2050 },
  { 147, -4887.5, 2, 12 },
  { 17, 710.5, 2051, 12 },
  { 146, -775.5, 12, 2052 },
  { 33, 1478.0, 2053, 12 },
  { 24, 406.5, 27, 2054 },
  { 32, -96.5, 27, 2055 },
  { 68, 44.0, 12, 2056 },
  { 108, 418.5, 12, 27 },
  { 121, 11165.0, 2058, 2072 },
  { 31, 10943.5, 2059, 2071 },
  { 98, 4791.5, 2060, 2 },
  { 56, -5206.0, 2061, 2063 },
  { 36, -1798.0, 2062, 12 },
  { 12, -2697.0, 12, 2 },
  { 46, 769.0, 2064, 2066 },
  { 100, 385.5, 12, 2065 },
  { 109, 773.5, 27, 12 },
  { 93, -4474.5, 2, 2067 },
  { 143, -5675.5, 2, 2068 },
  { 5, 77.0, 12, 2069 },
  { 125, 233.5, 2070, 12 },
  { 79, 1318.5, 12, 27 },
  { 142, 9761.5, 2, 12 },
  { 84, 1362.0, 2073, 2075 },
  { 140, -4289.5, 2074, 2 },
  { 2, -5678.5, 2, 12 },
  { 90, 3584.5, 12, 2 },
  { 42, 5821.0, 2077, 2 },
  { 142, -6501.0, 12, 2 },
  { 102, -4269.0, 2079, 2084 },
  { 129, -5396.5, 2080, 2082 },
  { 93, -5701.5, 2, 2081 },
  { 93, -5628.0, 12, 2 },
  { 69, -5397.0, 2, 2083 },
  { 42, -4834.0, 12, 2 },
  { 78, 5836.5, 2085, 2136 },
  { 112, 301.5, 2086, 2116 },
  { 106, -482.0, 2087, 2106 },
  { 59, -3638.5, 2, 2088 },
  { 6, -5037.5, 2, 2089 },
  { 148, 517.0, 2090, 2105 },
  { 56, 9883.5, 2091, 2 },
  { 137, -2855.5, 2, 2092 },
  { 88, -609.5, 2093, 2103 },
  { 40, -13780.0, 2094, 2095 },
  { 87, 465.5, 12, 2 },
  { 147, 5251.0, 2096, 2102 },
  { 6, -3202.5, 2097, 2099 },
  { 69, -2121.5, 12, 2098 },
  { 111, -637.5, 2, 12 },
  { 91, -855.0, 12, 2100 },
  { 68, 44.5, 12, 2101 },
  { 57, 1007.0, 27, 12 },
  { 108, 4407.0, 2, 12 },
  { 121, -597.0, 12, 2104 },
  { 43, -141.0, 27, 12 },
  { 115, -692.0, 2, 12 },
  { 125, -690.0, 2107, 2108 },
  { 87, -2614.0, 2, 12 },
  { 26, 651.5, 2109, 2115 },
  { 25, 597.5, 2110, 12 },
  { 114, 817.0, 2111, 2113 },
  { 99, 432.0, 27, 2112 },
  { 45, 445.5, 12, 27 },
  { 95, -189.5, 27, 2114 },
  { 115, 169.0, 12, 2 },
  { 135, 4394.5, 12, 2 },
  { 25, 10734.5, 2117, 2134 },
  { 119, 3863.5, 2118, 2 },
  { 143, -5779.0, 2119, 2120 },
  { 61, 7752.5, 2, 12 },
  { 12, -4624.0, 2, 2121 },
  { 148, -458.0, 2, 2122 },
  { 139, 14010.5, 2123, 2 },
  { 144, -4444.0, 2, 2124 },
  { 111, -4090.5, 2, 2125 },
  { 11, -6136.0, 2, 2126 },
  { 139, 1184.5, 2127, 2130 },
  { 137, -541.0, 12, 2128 },
  { 68, 252.5, 2129, 12 },
  { 63, 1988.5, 27, 12 },
  { 52, -688.0, 2131, 2132 },
  { 60, -1079.0, 2, 12 },
  { 27, -3453.5, 2133, 12 },
  { 9, -3861.0, 12, 2 },
  { 60, 2636.0, 2, 2135 },
  { 36, 9276.0, 12, 2 },
  { 45, 5149.0, 2137, 2138 },
  { 5, -73.5, 12, 2 },
  { 21, 6994.0, 2139, 2 },
  { 120, 6762.0, 12, 2 },
  { 69, -2993.5, 2141, 2156 },
  { 93, -5232.0, 2142, 2144 },
  { 27, -4047.0, 2, 2143 },
  { 102, -5870.0, 2, 12 },
  { 53, -4963.5, 2145, 2146 },
  { 28, 7922.0, 2, 12 },
  { 34, 5189.5, 2147, 2155 },
  { 30, -4610.5, 2148, 2150 },
  { 75, -4895.5, 12, 2149 },
  { 130, -4204.0, 12, 2 },
  { 56, 5138.0, 2151, 2 },
  { 125, -4077.5, 2152, 2153 },
  { 28, 739.0, 2, 12 },
  { 31, -6528.5, 2154, 12 },
  { 4, -7249.5, 12, 2 },
  { 35, -3935.0, 12, 2 },
  { 45, 5714.5, 2157, 2 },
  { 16, 377.5, 2158, 2181 },
  { 34, -401.0, 2159, 2172 },
  { 139, 5036.0, 2160, 2 },
  { 110, -4865.0, 2, 2161 },
  { 149, 9709.0, 2162, 2 },
  { 4, -723.5, 2163, 2168 },
  { 12, -2199.5, 2164, 2167 },
  { 148, -6237.0, 12, 2165 },
  { 73, -4512.5, 2, 2166 },
  { 73, -280.5, 12, 2 },
  { 32, -3927.5, 2, 12 },
  { 123, -1130.0, 2169, 2171 },
  { 9, -1202.5, 2170, 12 },
  { 113, -367.0, 12, 27 },
  { 1, -237.5, 27, 12 },
  { 149, -795.5, 2173, 2174 },
  { 112, 3013.5, 12, 2 },
  { 38, 675.0, 2175, 12 },
  { 57, -1553.0, 12, 2176 },
  { 72, 1427.5, 2177, 12 },
  { 57, 436.0, 27, 2178 },
  { 81, 457.5, 12, 2179 },
  { 32, -96.5, 27, 2180 },
  { 16, -267.5, 27, 12 },
  { 46, 10725.5, 2182, 2195 },
  { 128, -5481.5, 2183, 2184 },
  { 58, 7959.5, 2, 12 },
  { 0, -3740.0, 2, 2185 },
  { 132, -4110.0, 2, 2186 },
  { 14, 3754.5, 2187, 2 },
  { 22, 822.0, 2188, 2191 },
  { 88, 412.5, 12, 2189 },
  { 124, 762.5, 2190, 12 },
  { 126, -1418.0, 12, 27 },
  { 35, -5402.5, 2192, 2193 },
  { 75, -1714.5, 2, 12 },
  { 91, 1672.0, 2194, 12 },
  { 115, 1441.5, 12, 27 },
  { 125, -3618.0, 2196, 2 },
  { 144, -2374.0, 2, 12 },
  { 93, -3646.5, 2198, 2205 },
  { 93, -5249.0, 2, 2199 },
  { 7, 9852.5, 2200, 2 },
  { 15, -5491.5, 2, 2201 },
  { 45, -3511.5, 2202, 2204 },
  { 122, -4061.5, 2203, 12 },
  { 42, -4920.5, 12, 2 },
  { 124, -1727.5, 12, 2 },
  { 42, 5208.0, 2206, 2242 },
  { 112, 289.5, 2207, 2221 },
  { 139, -379.5, 2208, 2214 },
  { 47, -3374.5, 2, 2209 },
  { 134, 9454.0, 2210, 2 },
  { 121, -603.5, 2211, 2212 },
  { 30, -4741.0, 2, 12 },
  { 143, -67.0, 12, 2213 },
  { 17, 1011.0, 27, 12 },
  { 18, -1647.0, 2215, 2216 },
  { 145, 299.5, 12, 2 },
  { 57, 1008.0, 2217, 2220 },
  { 122, -1206.0, 12, 2218 },
  { 141, 463.0, 27, 2219 },
  { 66, 570.0, 12, 27 },
  { 101, -214.0, 27, 12 },
  { 58, 11875.0, 2222, 2240 },
  { 145, 11775.5, 2223, 2 },
  { 131, -6506.5, 2224, 2225 },
  { 141, -3426.5, 12, 2 },
  { 0, -4094.0, 2226, 2227 },
  { 102, -3553.0, 12, 2 },
  { 110, 3714.5, 2228, 2 },
  { 85, 948.5, 2229, 2233 },
  { 34, 282.5, 12, 2230 },
  { 125, 630.0, 2231, 12 },
  { 32, -1295.0, 2232, 27 },
  { 137, -3817.0, 2, 12 },
  { 125, -5429.5, 2234, 2236 },
  { 64, 7412.0, 2235, 12 },
  { 73, 2813.5, 12, 2 },
  { 52, -449.5, 2, 2237 },
  { 13, 12266.5, 2238, 2 },
  { 17, 197.5, 12, 2239 },
  { 26, 191.0, 27, 12 },
  { 59, -3641.0, 2241, 2 },
  { 115, 12576.5, 12, 2 },
  { 45, 5714.5, 2243, 2244 },
  { 5, 1734.5, 2, 12 },
  { 36, 6999.0, 2245, 2 },
  { 18, 6725.5, 2, 12 },
  { 48, 5652.0, 2247, 2298 },
  { 60, -2311.0, 2248, 2261 },
  { 81, -5404.5, 2, 2249 },
  { 10, 3969.0, 2250, 2259 },
  { 92, -3928.5, 2251, 2253 },
  { 81, -2534.0, 2, 2252 },
  { 86, -4654.5, 2, 12 },
  { 16, -2897.0, 2254, 2257 },
  { 6, -5039.0, 2, 2255 },
  { 100, -3344.0, 2256, 2 },
  { 83, -1291.0, 2, 12 },
  { 27, -5341.5, 2, 2258 },
  { 136, -4693.0, 2, 12 },
  { 29, -4423.0, 2260, 2 },
  { 126, -4430.0, 12, 2 },
  { 76, 568.0, 2262, 2282 },
  { 106, -555.5, 2263, 2272 },
  { 44, -3397.5, 2, 2264 },
  { 149, 12019.5, 2265, 2 },
  { 1, 9018.5, 2266, 2 },
  { 124, -14975.5, 2, 2267 },
  { 39, -2440.5, 2, 2268 },
  { 97, -877.0, 2269, 2271 },
  { 68, 80.5, 2270, 12 },
  { 105, 3104.5, 12, 2 },
  { 12, -1108.5, 27, 12 },
  { 133, 454.5, 2273, 2281 },
  { 105, -1447.5, 2274, 2275 },
  { 44, 412.0, 12, 27 },
  { 23, 1609.5, 2276, 2280 },
  { 77, -1497.5, 12, 2277 },
  { 15, 524.5, 27, 2278 },
  { 56, -73.0, 27, 2279 },
  { 103, -302.0, 27, 12 },
  { 108, 29.5, 12, 2 },
  { 103, 1271.5, 12, 2 },
  { 31, 11671.5, 2283, 2 },
  { 95, 2909.5, 2284, 2 },
  { 30, -1849.5, 2285, 2286 },
  { 133, 5447.0, 12, 2 },
  { 124, 12535.0, 2287, 2 },
  { 15, -2286.0, 2, 2288 },
  { 58, 830.5, 2289, 2290 },
  { 31, 455.0, 12, 27 },
  { 147, -4171.0, 2, 2291 },
  { 1, 11167.0, 2292, 2297 },
  { 143, -5869.0, 2293, 2294 },
  { 53, -5431.0, 12, 2 },
  { 94, 1656.5, 2295, 12 },
  { 58, 1913.0, 12, 2296 },
  { 37, 2167.5, 27, 12 },
  { 93, 303.5, 2, 12 },
  { 54, 6922.0, 2299, 2 },
  { 104, -1315.5, 12, 2 },
  { 75, -3039.0, 2301, 2313 },
  { 72, -5199.0, 2, 2302 },
  { 57, -3648.0, 2303, 2310 },
  { 0, -4703.0, 2304, 2306 },
  { 142, -7460.0, 12, 2305 },
  { 145, 5537.0, 2, 12 },
  { 119, 5688.5, 2307, 2 },
  { 141, -4539.5, 2308, 12 },
  { 59, -2656.5, 2, 2309 },
  { 136, 2215.0, 12, 2 },
  { 32, -767.5, 2, 2311 },
  { 95, 2042.0, 2312, 2 },
  { 21, -2113.5, 12, 2 },
  { 66, 5133.5, 2314, 2357 },
  { 139, 447.0, 2315, 2341 },
  { 127, -385.5, 2316, 2332 },
  { 20, -3774.0, 2, 2317 },
  { 128, 9066.0, 2318, 2331 },
  { 79, 2189.5, 2319, 2 },
  { 103, -625.5, 2320, 2328 },
  { 144, 5200.0, 2321, 2327 },
  { 125, -5867.0, 2, 2322 },
  { 118, -14865.5, 2, 2323 },
  { 7, -14359.5, 2324, 2325 },
  { 12, 869.0, 2, 12 },
  { 9, -3169.0, 2326, 12 },
  { 138, -619.0, 12, 2 },
  { 105, 4281.0, 2, 12 },
  { 67, -285.0, 2329, 12 },
  { 22, -847.5, 12, 2330 },
  { 9, -1886.5, 12, 27 },
  { 126, 4168.5, 2, 12 },
  { 83, 586.5, 2333, 2339 },
  { 134, -986.5, 2334, 2335 },
  { 92, -2004.5, 2, 12 },
  { 55, 850.0, 2336, 12 },
  { 13, -675.0, 12, 2337 },
  { 111, 822.5, 27, 2338 },
  { 108, 865.0, 12, 27 },
  { 26, 3558.5, 12, 2340 },
  { 70, -1025.5, 12, 2 },
  { 46, 11000.0, 2342, 2355 },
  { 28, -1393.0, 2343, 2345 },
  { 51, 82.0, 2, 2344 },
  { 136, 4227.5, 12, 2 },
  { 139, 11579.5, 2346, 2 },
  { 35, 2509.0, 2347, 2 },
  { 27, -3540.5, 2, 2348 },
  { 149, -5940.5, 2349, 2352 },
  { 82, 6526.5, 2350, 12 },
  { 142, 3537.0, 2351, 2 },
  { 140, -5933.5, 12, 2 },
  { 112, 767.5, 2353, 12 },
  { 10, 416.5, 12, 2354 },
  { 9, 8735.0, 27, 2 },
  { 104, -3197.0, 2356, 2 },
  { 85, 13047.5, 12, 2 },
  { 60, 5631.0, 2358, 2360 },
  { 91, 210.0, 2359, 2 },
  { 73, -10074.5, 2, 12 },
  { 81, 6920.5, 2361, 2 },
  { 113, 11.5, 12, 2 },
  { 81, -3063.5, 2363, 2376 },
  { 114, -4914.5, 2364, 2367 },
  { 72, -5192.0, 2, 2365 },
  { 57, -4658.5, 2366, 2 },
  { 146, -1999.5, 2, 12 },
  { 24, -5630.5, 2, 2368 },
  { 58, 8087.0, 2369, 2375 },
  { 119, -5491.0, 2370, 2371 },
  { 39, -5035.0, 12, 2 },
  { 78, -3186.0, 2372, 2 },
  { 107, 5265.0, 2373, 2 },
  { 122, -4138.5, 2374, 12 },
  { 109, 3406.0, 2, 12 },
  { 102, -4578.5, 12, 2 },
  { 81, 4375.5, 2377, 2415 },
  { 109, 360.0, 2378, 2400 },
  { 100, -548.0, 2379, 2390 },
  { 35, -3687.5, 2, 2380 },
  { 130, 563.0, 2381, 2 },
  { 79, -12345.0, 2382, 2383 },
  { 140, 4606.5, 12, 2 },
  { 16, 12870.5, 2384, 2 },
  { 3, -2959.5, 2385, 2386 },
  { 126, 1883.0, 12, 2 },
  { 127, -580.0, 2387, 2389 },
  { 112, -877.5, 12, 2388 },
  { 32, 167.0, 27, 12 },
  { 148, -325.5, 27, 12 },
  { 43, 389.0, 2391, 2399 },
  { 13, -707.5, 2392, 2393 },
  { 79, -825.5, 2, 12 },
  { 35, 1036.0, 2394, 12 },
  { 0, -1821.0, 12, 2395 },
  { 4, 329.5, 2396, 12 },
  { 138, 465.5, 27, 2397 },
  { 141, 481.5, 2398, 27 },
  { 95, -323.5, 27, 12 },
  { 118, 219.5, 12, 27 },
  { 112, 11362.5, 2401, 2413 },
  { 131, 2639.0, 2402, 2412 },
  { 6, -3766.0, 2, 2403 },
  { 138, -3061.0, 2404, 2405 },
  { 76, 4242.0, 12, 2 },
  { 143, -5966.0, 2406, 2408 },
  { 97, 7913.5, 2407, 12 },
  { 118, 2404.0, 12, 2 },
  { 75, -3117.0, 2, 2409 },
  { 52, 722.5, 2410, 12 },
  { 5, -137.0, 2411, 12 },
  { 10, 313.0, 12, 27 },
  { 49, 1518.5, 2, 12 },
  { 146, -3032.5, 2414, 2 },
  { 101, -5425.5, 2, 12 },
  { 60, 5209.0, 2416, 2418 },
  { 140, -2878.5, 2, 2417 },
  { 92, 9055.5, 12, 2 },
  { 0, 6401.5, 2419, 2 },
  { 93, 6856.0, 2420, 2 },
  { 20, 866.5, 12, 2 },
  { 102, -2802.0, 2422, 2436 },
  { 96, -5183.5, 2423, 2426 },
  { 81, -5427.5, 2, 2424 },
  { 131, 372.5, 2, 2425 },
  { 116, 6628.0, 12, 2 },
  { 94, 8959.5, 2427, 2 },
  { 134, -4080.5, 2428, 2431 },
  { 97, 5874.5, 2429, 12 },
  { 19, 1123.5, 2, 2430 },
  { 43, 2281.0, 12, 2 },
  { 27, -5176.5, 2, 2432 },
  { 128, 5388.5, 2433, 2 },
  { 97, 4227.5, 2434, 2 },
  { 61, -6305.5, 2435, 12 },
  { 72, -3587.5, 12, 2 },
  { 21, 5276.0, 2437, 2474 },
  { 73, -420.5, 2438, 2449 },
  { 134, -4144.5, 2, 2439 },
  { 137, 9517.5, 2440, 2 },
  { 106, 1064.0, 2441, 2 },
  { 90, 6787.5, 2442, 2 },
  { 6, -2715.0, 2443, 2445 },
  { 18, -3099.0, 12, 2444 },
  { 122, 871.5, 12, 2 },
  { 1, -14397.5, 2446, 2447 },
  { 148, -6195.5, 2, 12 },
  { 73, -617.0, 12, 2448 },
  { 145, -610.5, 12, 27 },
  { 88, 340.5, 2450, 2459 },
  { 31, 415.0, 2451, 2458 },
  { 86, -714.5, 12, 2452 },
  { 50, 901.5, 2453, 2457 },
  { 117, -1598.5, 12, 2454 },
  { 147, 475.0, 27, 2455 },
  { 20, -127.0, 27, 2456 },
  { 61, -254.5, 27, 12 },
  { 69, 7132.5, 12, 2 },
  { 106, 268.5, 12, 2 },
  { 34, 10691.0, 2460, 2472 },
  { 135, 4941.0, 2461, 2 },
  { 15, -2819.0, 2462, 2464 },
  { 49, 693.0, 2, 2463 },
  { 36, -3433.0, 2, 12 },
  { 109, 12295.5, 2465, 2 },
  { 89, -7261.5, 2, 2466 },
  { 112, 767.5, 2467, 2469 },
  { 78, -571.0, 12, 2468 },
  { 29, -113.0, 27, 12 },
  { 92, 10910.0, 2470, 2 },
  { 105, -1629.0, 2471, 12 },
  { 32, -5022.5, 2, 12 },
  { 3, 2995.0, 2, 2473 },
  { 43, 12956.0, 12, 2 },
  { 48, 6914.0, 2475, 2 },
  { 4, -7449.0, 2, 2476 },
  { 87, 6906.0, 12, 2 },
  { 24, -3483.0, 2478, 2491 },
  { 30, -4817.5, 2479, 2484 },
  { 21, -5615.0, 2, 2480 },
  { 46, 2392.5, 2481, 2482 },
  { 89, -3931.5, 2, 12 },
  { 12, -5380.5, 2483, 2 },
  { 69, -5330.5, 2, 12 },
  { 136, -8596.0, 12, 2485 },
  { 141, -3222.0, 2486, 2 },
  { 105, -4116.0, 2487, 2489 },
  { 29, -4442.5, 2488, 2 },
  { 77, -5424.0, 2, 12 },
  { 18, -4160.0, 2490, 12 },
  { 135, -3207.5, 2, 12 },
  { 123, 4715.5, 2492, 2538 },
  { 28, 501.0, 2493, 2519 },
  { 4, -381.5, 2494, 2508 },
  { 116, 9229.5, 2495, 2 },
  { 86, -3947.5, 2, 2496 },
  { 55, -829.0, 2497, 2504 },
  { 114, 3471.0, 2498, 2503 },
  { 140, -3035.5, 2499, 2500 },
  { 115, -5392.0, 2, 12 },
  { 18, -2997.0, 2501, 12 },
  { 42, -2535.0, 12, 2502 },
  { 126, -139.5, 2, 12 },
  { 16, -6633.5, 2, 12 },
  { 139, 45.5, 2505, 2507 },
  { 83, 649.0, 2506, 12 },
  { 134, -1361.5, 12, 27 },
  { 97, 6769.5, 12, 2 },
  { 134, -591.0, 2509, 2512 },
  { 138, -406.5, 2510, 2511 },
  { 136, 2331.5, 12, 2 },
  { 52, 450.5, 27, 12 },
  { 35, 653.5, 2513, 2518 },
  { 69, -1523.0, 12, 2514 },
  { 105, 1476.0, 2515, 2517 },
  { 63, 449.5, 27, 2516 },
  { 20, -73.5, 27, 12 },
  { 143, 3823.0, 12, 2 },
  { 4, 1004.5, 12, 2 },
  { 82, 10857.5, 2520, 2535 },
  { 129, -4073.5, 2521, 2522 },
  { 7, 3982.5, 12, 2 },
  { 49, 11036.0, 2523, 2 },
  { 137, -6629.5, 2524, 2525 },
  { 31, 5273.5, 2, 12 },
  { 13, 888.0, 2526, 2530 },
  { 71, 3182.0, 2527, 2 },
  { 127, 215.5, 12, 2528 },
  { 50, -1323.5, 2529, 27 },
  { 52, 2884.0, 12, 2 },
  { 83, -4918.5, 2531, 2533 },
  { 34, 7496.5, 2532, 12 },
  { 41, -5522.0, 12, 2 },
  { 133, 1245.0, 2534, 12 },
  { 133, 1237.0, 12, 27 },
  { 113, -3075.5, 2536, 2 },
  { 56, -4331.0, 2, 2537 },
  { 4, 13212.5, 12, 2 },
  { 48, 5508.0, 2539, 2540 },
  { 21, 1486.5, 2, 12 },
  { 117, 6594.5, 2541, 2 },
  { 137, -1395.0, 12, 2 },
  { 93, -2724.5, 2543, 2565 },
  { 21, -4158.5, 2544, 2551 },
  { 57, -5572.5, 2, 2545 },
  { 127, -8492.0, 2546, 2547 },
  { 44, -639.5, 2, 12 },
  { 19, 10840.0, 2548, 2550 },
  { 6, -5192.5, 2549, 2 },
  { 105, -4495.0, 12, 2 },
  { 84, -5474.5, 2, 12 },
  { 120, -4618.5, 2552, 2555 },
  { 36, -4204.0, 12, 2553 },
  { 63, -4416.5, 2554, 2 },
  { 30, -3192.0, 12, 2 },
  { 46, 2366.5, 2556, 2560 },
  { 53, -4981.5, 2, 2557 },
  { 77, 5150.0, 2558, 2 },
  { 118, -5414.0, 2559, 12 },
  { 118, -8753.0, 12, 2 },
  { 18, -3899.5, 12, 2561 },
  { 9, -3789.0, 2562, 2563 },
  { 8, -2071.0, 12, 2 },
  { 107, -6444.0, 2564, 2 },
  { 15, -1944.5, 2, 12 },
  { 75, 5018.5, 2566, 2612 },
  { 1, 479.0, 2567, 2594 },
  { 34, -396.0, 2568, 2584 },
  { 50, -3755.0, 2, 2569 },
  { 109, 1044.5, 2570, 2581 },
  { 0, -3813.0, 2, 2571 },
  { 145, -13171.0, 2572, 2573 },
  { 20, 1819.5, 12, 2 },
  { 31, -761.5, 2574, 2579 },
  { 25, -14205.5, 2, 2575 },
  { 15, -2027.5, 2576, 12 },
  { 21, -1849.5, 2577, 2 },
  { 126, -506.5, 12, 2578 },
  { 108, -976.0, 2, 12 },
  { 106, -158.5, 2580, 12 },
  { 139, -1308.0, 12, 27 },
  { 19, -1325.5, 2582, 12 },
  { 136, 3510.0, 2583, 2 },
  { 137, 2867.5, 12, 2 },
  { 138, -1076.0, 2585, 2588 },
  { 137, 115.5, 2586, 2587 },
  { 32, -4077.5, 2, 12 },
  { 88, 7340.0, 27, 2 },
  { 85, -461.0, 12, 2589 },
  { 62, 540.0, 2590, 12 },
  { 95, -1456.0, 12, 2591 },
  { 30, 410.5, 27, 2592 },
  { 71, -118.0, 27, 2593 },
  { 77, 100.5, 12, 27 },
  { 46, 11045.5, 2595, 2609 },
  { 41, -6813.0, 2, 2596 },
  { 3, -3825.5, 2, 2597 },
  { 38, 4645.5, 2598, 2 },
  { 128, 3291.0, 2599, 2608 },
  { 115, 1469.5, 2600, 2604 },
  { 79, 1752.5, 2601, 2603 },
  { 92, -376.0, 2602, 12 },
  { 131, -781.5, 12, 27 },
  { 106, 1448.0, 12, 27 },
  { 59, -4820.5, 2605, 12 },
  { 32, -4630.0, 2606, 2 },
  { 149, -4024.5, 12, 2607 },
  { 144, -590.0, 2, 12 },
  { 95, 3116.0, 12, 2 },
  { 24, 878.0, 2, 2610 },
  { 76, 12771.5, 2611, 2 },
  { 98, -995.0, 12, 2 },
  { 18, 4924.5, 2613, 2 },
  { 72, 5597.5, 12, 2 },
  { 132, -2747.0, 2615, 2634 },
  { 123, -4211.0, 2616, 2624 },
  { 126, -4742.0, 2617, 2621 },
  { 75, -5287.0, 2, 2618 },
  { 57, -5161.0, 12, 2619 },
  { 60, -4868.5, 2620, 2 },
  { 95, -2602.0, 2, 12 },
  { 126, -4670.0, 12, 2622 },
  { 107, -2594.5, 2, 2623 },
  { 116, 1044.5, 12, 2 },
  { 79, 2880.0, 2625, 2632 },
  { 149, -4386.0, 2626, 2628 },
  { 111, -4059.0, 2627, 2 },
  { 43, -8379.5, 2, 12 },
  { 94, -2624.5, 2629, 2631 },
  { 84, -3399.0, 2630, 2 },
  { 124, -11205.5, 2, 12 },
  { 28, -1773.0, 2, 12 },
  { 21, -3710.0, 2633, 2 },
  { 15, -4144.0, 2, 12 },
  { 126, 3704.0, 2635, 2672 },
  { 49, 367.5, 2636, 2661 },
  { 55, -446.5, 2637, 2651 },
  { 41, -3627.5, 2, 2638 },
  { 130, 985.5, 2639, 2649 },
  { 45, -5822.0, 2, 2640 },
  { 62, 12086.5, 2641, 2 },
  { 40, -772.5, 2642, 2648 },
  { 94, -11326.0, 2643, 2645 },
  { 119, 7601.0, 2644, 2 },
  { 47, 1425.0, 2, 12 },
  { 24, -2712.5, 2646, 12 },
  { 4, -4480.0, 12, 2647 },
  { 47, 1940.0, 12, 2 },
  { 1, -446.5, 27, 12 },
  { 55, -1534.0, 2, 2650 },
  { 35, 7119.5, 12, 2 },
  { 149, -1007.0, 2652, 2653 },
  { 60, -2337.0, 2, 12 },
  { 83, 631.0, 2654, 2660 },
  { 94, 677.5, 2655, 12 },
  { 81, -1789.5, 12, 2656 },
  { 7, 326.0, 2657, 12 },
  { 0, 401.0, 27, 2658 },
  { 41, -99.0, 27, 2659 },
  { 65, 43.0, 12, 27 },
  { 51, -1206.0, 27, 12 },
  { 16, 10758.5, 2662, 2671 },
  { 9, -3712.5, 2, 2663 },
  { 20, -5727.0, 2664, 2666 },
  { 9, -1727.0, 2665, 12 },
  { 4, 5838.0, 2, 12 },
  { 37, 746.5, 2667, 2669 },
  { 137, -614.5, 12, 2668 },
  { 68, 282.5, 27, 12 },
  { 119, -5711.0, 2670, 12 },
  { 58, 7431.5, 2, 12 },
  { 60, 2098.0, 2, 12 },
  { 78, 6310.0, 2673, 2 },
  { 72, 3069.0, 2, 2674 },
  { 56, -1486.0, 2, 2675 },
  { 110, 10178.5, 2676, 2 },
  { 18, 1388.5, 2, 12 },
  { 75, -4256.5, 2678, 2682 },
  { 87, -5235.5, 2, 2679 },
  { 0, -5792.0, 2, 2680 },
  { 42, -5001.5, 12, 2681 },
  { 141, -4539.5, 2, 12 },
  { 27, 5231.0, 2683, 2727 },
  { 55, 355.5, 2684, 2709 },
  { 85, -500.5, 2685, 2698 },
  { 56, -3431.0, 2, 2686 },
  { 136, 337.5, 2687, 2 },
  { 149, 9816.0, 2688, 2 },
  { 117, -4727.5, 2, 2689 },
  { 112, -581.0, 2690, 2697 },
  { 34, -13885.5, 2691, 2692 },
  { 72, 494.5, 12, 2 },
  { 107, -4105.5, 2, 2693 },
  { 9, -2510.5, 2694, 12 },
  { 24, -2005.5, 2695, 2 },
  { 141, -81.0, 12, 2696 },
  { 42, -2602.5, 12, 2 },
  { 76, -659.5, 12, 27 },
  { 142, 407.5, 2699, 2705 },
  { 96, -1709.5, 12, 2700 },
  { 56, -837.5, 12, 2701 },
  { 68, 1215.5, 2702, 12 },
  { 63, 445.0, 27, 2703 },
  { 17, -118.0, 27, 2704 },
  { 109, -312.5, 27, 12 },
  { 16, -2083.0, 2706, 2707 },
  { 0, -447.5, 2, 12 },
  { 33, -2503.5, 2, 2708 },
  { 132, 3147.5, 12, 2 },
  { 7, 10577.5, 2710, 2726 },
  { 83, 3182.0, 2711, 2 },
  { 47, -6273.0, 2712, 2715 },
  { 69, -1002.0, 2713, 12 },
  { 57, -3701.5, 2714, 2 },
  { 144, -3182.5, 12, 2 },
  { 134, 2937.0, 2716, 2725 },
  { 149, -5882.0, 2717, 2718 },
  { 58, 7787.0, 2, 12 },
  { 91, 13107.0, 2719, 2 },
  { 16, 886.5, 2720, 2724 },
  { 133, 3499.0, 2721, 2 },
  { 135, -516.5, 12, 2722 },
  { 44, 264.5, 2723, 12 },
  { 141, 1726.0, 27, 12 },
  { 3, -4198.0, 2, 12 },
  { 124, 1901.0, 12, 2 },
  { 57, 2106.5, 2, 12 },
  { 45, 5744.0, 2728, 2 },
  { 80, 6688.0, 12, 2 },
  { 132, -2739.5, 2730, 2741 },
  { 78, -5286.5, 2, 2731 },
  { 94, 2760.5, 2732, 2738 },
  { 143, -4327.5, 2, 2733 },
  { 146, 3902.5, 2734, 2 },
  { 21, -6081.5, 2, 2735 },
  { 14, -6139.5, 2, 2736 },
  { 109, -7714.0, 2737, 12 },
  { 133, -7908.0, 12, 2 },
  { 81, -4926.5, 12, 2739 },
  { 146, -5998.5, 2740, 2 },
  { 127, 6634.0, 2, 12 },
  { 57, 5510.0, 2742, 2780 },
  { 142, 251.0, 2743, 2760 },
  { 118, -588.0, 2744, 2752 },
  { 56, -3672.0, 2, 2745 },
  { 40, -13305.5, 2746, 2747 },
  { 101, 2876.0, 12, 2 },
  { 30, -4741.0, 2, 2748 },
  { 109, -865.5, 2749, 2751 },
  { 132, 4532.5, 12, 2750 },
  { 123, 4344.5, 2, 12 },
  { 97, -836.5, 27, 12 },
  { 4, 410.5, 2753, 2759 },
  { 19, -847.0, 12, 2754 },
  { 143, -1077.0, 12, 2755 },
  { 120, 820.5, 2756, 2758 },
  { 126, 445.5, 27, 2757 },
  { 33, 443.5, 12, 27 },
  { 120, 867.5, 12, 27 },
  { 115, 547.0, 12, 2 },
  { 55, 11057.5, 2761, 2777 },
  { 134, 4205.0, 2762, 2 },
  { 6, -3460.5, 2763, 2766 },
  { 103, 9613.5, 2764, 12 },
  { 148, 3842.0, 2, 2765 },
  { 127, 6861.0, 12, 2 },
  { 146, -7039.0, 2, 2767 },
  { 97, 903.0, 2768, 2772 },
  { 16, 194.5, 2769, 2770 },
  { 76, -3540.5, 2, 12 },
  { 47, 802.5, 2771, 12 },
  { 125, -1495.0, 12, 27 },
  { 129, 4800.5, 2773, 2 },
  { 140, -5837.0, 2774, 2775 },
  { 81, 386.0, 12, 2 },
  { 29, 165.0, 12, 2776 },
  { 35, 190.0, 27, 12 },
  { 3, 3074.0, 2778, 12 },
  { 117, 1452.0, 2, 2779 },
  { 52, 11808.5, 12, 2 },
  { 54, 6922.0, 2781, 2 },
  { 62, -645.0, 12, 2 },
  { 102, -3215.5, 2783, 2794 },
  { 69, -5360.0, 2, 2784 },
  { 15, -2187.0, 2785, 2792 },
  { 3, -5773.0, 2, 2786 },
  { 22, 4072.5, 2787, 2790 },
  { 134, -3926.0, 2, 2788 },
  { 117, -3232.5, 12, 2789 },
  { 120, -3064.0, 2, 12 },
  { 32, -4021.5, 2791, 2 },
  { 4, 9231.5, 2, 12 },
  { 123, -3711.5, 2, 2793 },
  { 22, 5634.5, 12, 2 },
  { 54, 5413.0, 2795, 2835 },
  { 127, 328.5, 2796, 2816 },
  { 28, -481.5, 2797, 2808 },
  { 25, -13794.5, 2, 2798 },
  { 35, -3912.5, 2, 2799 },
  { 36, -4215.0, 2, 2800 },
  { 122, 10715.5, 2801, 2 },
  { 94, -848.5, 2802, 2805 },
  { 12, -2972.5, 2803, 12 },
  { 132, -399.0, 12, 2804 },
  { 33, -2649.5, 12, 2 },
  { 94, -821.0, 27, 2806 },
  { 134, 110.0, 12, 2807 },
  { 13, -883.0, 12, 27 },
  { 149, -815.5, 2809, 2810 },
  { 71, -3258.5, 2, 12 },
  { 145, -545.5, 2811, 2812 },
  { 61, 3467.0, 12, 2 },
  { 1, 808.0, 2813, 12 },
  { 30, 476.0, 27, 2814 },
  { 59, -117.5, 27, 2815 },
  { 70, -22.0, 27, 12 },
  { 28, 11576.5, 2817, 2834 },
  { 95, 3044.5, 2818, 2832 },
  { 146, -6003.5, 2819, 2822 },
  { 100, 6915.0, 2820, 12 },
  { 133, 2677.0, 2821, 2 },
  { 47, -5819.5, 12, 2 },
  { 18, -3561.0, 2, 2823 },
  { 146, 2296.0, 2824, 2 },
  { 127, 13922.5, 2825, 2 },
  { 82, 870.5, 2826, 2829 },
  { 31, 323.5, 12, 2827 },
  { 140, -644.0, 12, 2828 },
  { 104, 915.5, 27, 12 },
  { 115, 11419.5, 2830, 2831 },
  { 50, -5940.5, 2, 12 },
  { 120, -447.0, 2, 12 },
  { 107, 3693.0, 2833, 2 },
  { 77, 7411.5, 12, 2 },
  { 18, 2836.5, 2, 12 },
  { 36, 6999.0, 2836, 2 },
  { 15, 6559.0, 2, 12 },
  { 135, -2268.5, 2838, 2856 },
  { 13, 2189.5, 2839, 2849 },
  { 132, -4615.0, 2840, 2843 },
  { 87, -5582.0, 2, 2841 },
  { 111, -5947.5, 2842, 2 },
  { 90, -5527.5, 12, 2 },
  { 113, -4091.0, 2, 2844 },
  { 130, 3226.0, 2845, 2 },
  { 24, -5964.0, 2, 2846 },
  { 59, 8930.5, 2847, 2 },
  { 125, -3772.5, 2848, 12 },
  { 118, 638.5, 2, 12 },
  { 14, -4498.5, 2850, 2852 },
  { 67, 5913.5, 2, 2851 },
  { 28, 7864.5, 2, 12 },
  { 4, 3166.5, 2853, 2854 },
  { 60, -3077.0, 2, 12 },
  { 29, -3977.5, 2855, 2 },
  { 147, -3621.5, 2, 12 },
  { 78, 5836.5, 2857, 2896 },
  { 85, 539.0, 2858, 2882 },
  { 109, -624.0, 2859, 2873 },
  { 47, -3806.0, 2, 2860 },
  { 112, -12114.0, 2861, 2862 },
  { 53, 5940.5, 2, 12 },
  { 149, 12183.5, 2863, 2 },
  { 109, -865.5, 2864, 2872 },
  { 142, 1134.5, 2865, 2 },
  { 73, -12224.5, 2866, 2867 },
  { 25, -14205.5, 2, 12 },
  { 138, 4570.5, 2868, 2871 },
  { 45, -2282.0, 2869, 12 },
  { 48, -2267.5, 12, 2870 },
  { 127, -8489.0, 12, 2 },
  { 69, 1939.0, 2, 12 },
  { 143, 52.5, 27, 12 },
  { 7, -511.0, 2874, 2876 },
  { 112, -516.5, 27, 2875 },
  { 66, 3175.0, 12, 2 },
  { 119, -850.5, 12, 2877 },
  { 17, 735.5, 2878, 2881 },
  { 29, -632.5, 12, 2879 },
  { 132, 836.5, 27, 2880 },
  { 62, -140.0, 27, 12 },
  { 110, 3113.5, 12, 2 },
  { 49, 11736.5, 2883, 2894 },
  { 56, -6749.0, 2, 2884 },
  { 13, -1528.5, 2885, 2887 },
  { 30, 1933.0, 2, 2886 },
  { 97, 6182.5, 12, 2 },
  { 3, -4409.5, 2, 2888 },
  { 56, 3168.5, 2889, 2 },
  { 91, 11173.0, 2890, 2 },
  { 94, 898.5, 2891, 2892 },
  { 4, 875.5, 27, 12 },
  { 23, -6156.0, 2893, 12 },
  { 141, -191.5, 12, 2 },
  { 48, 2529.5, 2, 2895 },
  { 11, -5112.5, 2, 12 },
  { 30, 4619.5, 2897, 2 },
  { 65, 821.0, 12, 2 },
  { 18, -4308.0, 2899, 2905 },
  { 57, -5526.0, 2, 2900 },
  { 127, -6183.0, 2901, 2903 },
  { 126, -860.0, 2902, 2 },
  { 21, -5759.5, 2, 12 },
  { 94, 6289.0, 2, 2904 },
  { 74, -5173.5, 12, 2 },
  { 108, 6756.5, 2906, 2 },
  { 145, 362.0, 2907, 2930 },
  { 124, -377.5, 2908, 2922 },
  { 129, -5048.5, 2, 2909 },
  { 8, -3869.5, 2, 2910 },
  { 109, -13037.0, 2911, 2912 },
  { 99, 612.5, 12, 2 },
  { 124, -737.5, 2913, 2919 },
  { 78, 5836.5, 2914, 2 },
  { 126, 4280.0, 2915, 2918 },
  { 146, -3112.0, 2, 2916 },
  { 118, -884.5, 12, 2917 },
  { 7, -793.0, 12, 27 },
  { 66, 1810.0, 2, 12 },
  { 70, -311.5, 2920, 2921 },
  { 13, -751.5, 12, 27 },
  { 145, -2285.5, 2, 12 },
  { 26, 1016.0, 2923, 2928 },
  { 40, 365.0, 2924, 2927 },
  { 105, -1527.5, 12, 2925 },
  { 147, 475.0, 27, 2926 },
  { 47, -137.0, 27, 12 },
  { 138, 333.0, 12, 27 },
  { 5, 3719.5, 12, 2929 },
  { 90, 5241.0, 2, 12 },
  { 106, 11448.5, 2931, 2952 },
  { 128, 4195.5, 2932, 2 },
  { 146, -5766.5, 2933, 2935 },
  { 88, 6541.0, 2934, 12 },
  { 148, 1046.0, 12, 2 },
  { 129, -4149.5, 2936, 2938 },
  { 18, -3398.0, 2937, 2 },
  { 98, -245.5, 12, 2 },
  { 2, -5981.5, 2939, 2940 },
  { 66, -1819.5, 2, 12 },
  { 58, -1564.5, 2, 2941 },
  { 79, 855.5, 2942, 2946 },
  { 100, 1691.5, 2943, 2 },
  { 16, 254.5, 12, 2944 },
  { 103, 807.0, 2945, 12 },
  { 14, 452.5, 27, 12 },
  { 3, -4194.5, 2, 2947 },
  { 127, 10565.5, 2948, 2951 },
  { 148, 1188.5, 2949, 12 },
  { 59, 64.0, 12, 2950 },
  { 32, 242.5, 27, 12 },
  { 144, -1821.0, 2, 12 },
  { 77, -3780.5, 2953, 2 },
  { 44, -4184.5, 2, 12 },
  { 0, -3262.5, 2955, 2970 },
  { 54, -4554.5, 2956, 2960 },
  { 66, -5400.5, 2, 2957 },
  { 60, -5156.5, 2958, 2 },
  { 126, -4051.5, 2959, 2 },
  { 34, 8567.5, 12, 2 },
  { 9, -4613.5, 2961, 2962 },
  { 130, -7966.5, 12, 2 },
  { 4, 9076.5, 2963, 2969 },
  { 30, -2712.5, 2964, 2 },
  { 62, -6434.5, 2, 2965 },
  { 74, 7622.5, 2966, 2 },
  { 142, 2226.0, 2967, 12 },
  { 85, 919.0, 2968, 2 },
  { 3, -3435.5, 12, 2 },
  { 134, -6049.5, 12, 2 },
  { 42, 4399.0, 2971, 3011 },
  { 109, 238.0, 2972, 2991 },
  { 97, -518.5, 2973, 2984 },
  { 126, -5075.0, 2, 2974 },
  { 140, -4037.5, 2, 2975 },
  { 14, -4080.0, 2, 2976 },
  { 80, 11127.0, 2977, 2 },
  { 52, -14435.0, 2978, 2979 },
  { 85, -15508.5, 12, 2 },
  { 103, -629.0, 2980, 2982 },
  { 56, -1792.5, 2981, 12 },
  { 17, -1779.0, 12, 2 },
  { 56, 100.5, 12, 2983 },
  { 83, 12.5, 12, 27 },
  { 29, 662.0, 2985, 2990 },
  { 146, -816.0, 2986, 2987 },
  { 140, -4514.5, 2, 12 },
  { 111, 812.0, 2988, 2989 },
  { 114, -1592.0, 12, 27 },
  { 8, -115.5, 27, 12 },
  { 105, 4210.5, 12, 2 },
  { 121, 11344.5, 2992, 3008 },
  { 22, 10796.0, 2993, 3006 },
  { 119, -6474.0, 2994, 2995 },
  { 139, 8510.0, 2, 12 },
  { 147, 5606.0, 2996, 3005 },
  { 125, -5431.0, 2997, 2999 },
  { 123, -2.0, 2998, 2 },
  { 93, -1900.0, 2, 12 },
  { 99, -4611.0, 2, 3000 },
  { 115, 769.0, 3001, 3003 },
  { 90, -327.0, 12, 3002 },
  { 23, 274.5, 27, 12 },
  { 109, 1512.5, 3004, 12 },
  { 106, 1534.5, 12, 27 },
  { 69, 4114.0, 2, 12 },
  { 113, -2895.0, 3007, 2 },
  { 59, -4053.5, 2, 12 },
  { 69, 2497.0, 3009, 12 },
  { 113, -3527.5, 3010, 2 },
  { 85, 12561.5, 12, 2 },
  { 87, 6753.0, 3012, 2 },
  { 132, 1774.5, 2, 3013 },
  { 82, -10370.0, 2, 12 },
  { 111, -2936.0, 3015, 3028 },
  { 60, -5477.5, 2, 3016 },
  { 85, 8857.5, 3017, 2 },
  { 146, 3590.0, 3018, 3027 },
  { 144, -4960.0, 2, 3019 },
  { 36, -4298.5, 3020, 3023 },
  { 19, 7480.5, 3021, 12 },
  { 81, -5081.5, 12, 3022 },
  { 98, -604.0, 2, 12 },
  { 113, -5595.5, 3024, 3025 },
  { 61, 6545.0, 2, 12 },
  { 19, 7312.0, 3026, 2 },
  { 93, -2798.5, 12, 2 },
  { 148, -9432.5, 12, 2 },
  { 6, 5722.0, 3029, 3069 },
  { 109, 794.0, 3030, 3053 },
  { 61, -460.0, 3031, 3040 },
  { 53, -3560.5, 2, 3032 },
  { 134, 9454.0, 3033, 2 },
  { 147, 8998.5, 3034, 2 },
  { 31, -826.0, 3035, 3037 },
  { 75, -2023.5, 3036, 12 },
  { 99, -1657.5, 12, 2 },
  { 100, -914.0, 12, 3038 },
  { 99, -525.0, 3039, 12 },
  { 98, -1312.0, 12, 27 },
  { 8, 408.0, 3041, 3049 },
  { 137, -1095.5, 3042, 3043 },
  { 25, 765.0, 12, 2 },
  { 106, -535.5, 12, 3044 },
  { 123, 823.0, 3045, 3048 },
  { 69, -1842.0, 12, 3046 },
  { 27, 473.0, 27, 3047 },
  { 27, 478.0, 12, 27 },
  { 59, -131.0, 27, 12 },
  { 14, 3754.5, 3050, 2 },
  { 37, -160.0, 3051, 3052 },
  { 67, -10.5, 27, 12 },
  { 56, -2190.0, 2, 12 },
  { 82, 11549.0, 3054, 3066 },
  { 123, 4746.5, 3055, 2 },
  { 24, -3360.5, 2, 3056 },
  { 2, 5558.5, 3057, 2 },
  { 46, 10865.5, 3058, 3065 },
  { 53, -6948.0, 2, 3059 },
  { 134, 2826.0, 3060, 2 },
  { 146, -6003.5, 3061, 3062 },
  { 53, -5431.0, 12, 2 },
  { 130, 1287.5, 3063, 12 },
  { 13, 2199.5, 12, 3064 },
  { 37, 2217.5, 27, 12 },
  { 6, 2338.5, 2, 12 },
  { 79, 12317.0, 3067, 2 },
  { 46, 12379.0, 2, 3068 },
  { 144, -2395.5, 2, 12 },
  { 54, 5495.5, 3070, 2 },
  { 78, 3762.0, 2, 12 },
  { 135, -2747.0, 3072, 3088 },
  { 108, -5335.5, 3073, 3075 },
  { 6, -3517.5, 2, 3074 },
  { 0, -3102.0, 12, 2 },
  { 109, 2833.5, 3076, 3083 },
  { 122, -4209.0, 3077, 3079 },
  { 134, -5152.5, 2, 3078 },
  { 140, -5003.5, 12, 2 },
  { 128, 5006.5, 3080, 2 },
  { 21, -5485.0, 2, 3081 },
  { 28, 10266.0, 3082, 2 },
  { 3, -5302.0, 2, 12 },
  { 27, -3720.0, 3084, 3086 },
  { 70, 8819.0, 3085, 12 },
  { 30, -3890.0, 2, 12 },
  { 140, -6746.0, 3087, 2 },
  { 130, 7502.0, 2, 12 },
  { 54, 5389.0, 3089, 2 },
  { 1, 478.5, 3090, 3116 },
  { 55, -437.5, 3091, 3106 },
  { 59, -3495.0, 2, 3092 },
  { 115, 1681.5, 3093, 2 },
  { 61, -12945.5, 3094, 3096 },
  { 81, 181.5, 12, 3095 },
  { 77, 2030.0, 12, 2 },
  { 6, -5109.0, 2, 3097 },
  { 79, -655.5, 3098, 3104 },
  { 130, 927.5, 3099, 2 },
  { 140, 11682.5, 3100, 2 },
  { 72, -2020.0, 3101, 3102 },
  { 105, -1447.0, 12, 2 },
  { 12, -2378.5, 3103, 12 },
  { 84, 484.0, 12, 2 },
  { 34, -715.0, 12, 3105 },
  { 51, 107.0, 27, 12 },
  { 148, 652.0, 3107, 3115 },
  { 80, -592.0, 3108, 3109 },
  { 99, 596.0, 12, 27 },
  { 142, -567.0, 12, 3110 },
  { 119, -821.0, 12, 3111 },
  { 148, -550.5, 12, 3112 },
  { 81, 427.0, 27, 3113 },
  { 47, -90.5, 27, 3114 },
  { 106, -309.5, 27, 12 },
  { 148, 4344.5, 12, 2 },
  { 16, 11029.0, 3117, 3128 },
  { 12, -3114.5, 3118, 3121 },
  { 22, 1632.0, 3119, 3120 },
  { 125, -4243.0, 2, 12 },
  { 80, -5787.0, 12, 2 },
  { 35, 4595.5, 3122, 2 },
  { 61, 1906.0, 3123, 3126 },
  { 93, -718.0, 12, 3124 },
  { 42, 542.0, 3125, 12 },
  { 38, 234.0, 27, 12 },
  { 68, -5046.5, 3127, 12 },
  { 53, -5386.0, 12, 2 },
  { 24, 2504.5, 2, 12 },
  { 90, -3259.5, 3130, 3142 },
  { 72, -4373.0, 3131, 3135 },
  { 84, -5453.5, 2, 3132 },
  { 119, -833.0, 3133, 3134 },
  { 148, 6518.0, 2, 12 },
  { 97, 633.5, 12, 2 },
  { 15, -1942.0, 3136, 2 },
  { 40, 5639.0, 3137, 2 },
  { 40, -5888.5, 3138, 3139 },
  { 64, -12235.0, 12, 2 },
  { 15, -5276.0, 2, 3140 },
  { 110, -3979.5, 3141, 12 },
  { 120, -4207.0, 2, 12 },
  { 54, 5413.0, 3143, 3188 },
  { 91, 522.0, 3144, 3169 },
  { 19, -718.5, 3145, 3157 },
  { 47, -3345.5, 2, 3146 },
  { 55, -13910.0, 3147, 3148 },
  { 47, 3127.5, 12, 2 },
  { 23, -1603.0, 3149, 3150 },
  { 21, -1396.0, 2, 12 },
  { 64, -13561.5, 2, 3151 },
  { 9, -4880.5, 2, 3152 },
  { 52, -13322.5, 3153, 3154 },
  { 12, 571.0, 2, 12 },
  { 42, -2350.0, 3155, 12 },
  { 144, -26.0, 12, 3156 },
  { 128, 4559.0, 2, 12 },
  { 142, -342.5, 3158, 3162 },
  { 13, -140.0, 3159, 3161 },
  { 118, -956.0, 12, 3160 },
  { 12, 1129.5, 27, 12 },
  { 101, -3030.0, 2, 12 },
  { 48, -1489.0, 3163, 3164 },
  { 47, -3757.5, 2, 12 },
  { 145, 640.5, 3165, 12 },
  { 92, 2572.5, 3166, 2 },
  { 107, -1177.0, 12, 3167 },
  { 72, 825.0, 27, 3168 },
  { 69, 887.5, 12, 27 },
  { 0, -3689.0, 3170, 3172 },
  { 56, -5589.0, 3171, 2 },
  { 3, -3976.0, 2, 12 },
  { 58, 11077.5, 3173, 3185 },
  { 95, 3116.0, 3174, 3183 },
  { 140, -5701.0, 3175, 3177 },
  { 36, -1166.0, 2, 3176 },
  { 104, -6013.5, 12, 2 },
  { 55, 839.0, 3178, 3181 },
  { 148, 4353.0, 3179, 2 },
  { 31, 514.0, 12, 3180 },
  { 83, -1366.0, 12, 27 },
  { 77, -5834.5, 2, 3182 },
  { 114, -3716.5, 2, 12 },
  { 115, 2464.0, 3184, 2 },
  { 145, 1436.0, 2, 12 },
  { 95, -3559.5, 3186, 3187 },
  { 82, 13097.0, 12, 2 },
  { 101, -3223.0, 12, 2 },
  { 48, 6914.0, 3189, 2 },
  { 4, 4839.5, 2, 12 },
  { 75, -3143.5, 3191, 3202 },
  { 87, -5073.0, 3192, 3195 },
  { 75, -5287.0, 2, 3193 },
  { 73, 2103.0, 3194, 2 },
  { 37, -839.0, 2, 12 },
  { 149, -4449.5, 3196, 3198 },
  { 76, 5173.5, 2, 3197 },
  { 37, 18233.0, 12, 2 },
  { 112, 2980.0, 3199, 2 },
  { 47, -4112.0, 2, 3200 },
  { 111, -4827.5, 2, 3201 },
  { 6, -5929.0, 2, 12 },
  { 36, 4744.0, 3203, 3246 },
  { 148, 219.0, 3204, 3228 },
  { 130, -386.5, 3205, 3217 },
  { 44, -3783.5, 2, 3206 },
  { 112, -581.0, 3207, 3214 },
  { 4, -14269.5, 3208, 3209 },
  { 66, 460.0, 12, 2 },
  { 127, -926.5, 3210, 3212 },
  { 15, -3078.5, 3211, 12 },
  { 27, -2752.5, 12, 2 },
  { 146, 136.5, 3213, 12 },
  { 91, -1031.5, 12, 27 },
  { 106, -338.0, 3215, 3216 },
  { 20, -1779.0, 12, 27 },
  { 42, 2061.5, 12, 2 },
  { 2, 613.5, 3218, 3224 },
  { 47, -884.0, 12, 3219 },
  { 87, 833.0, 3220, 3222 },
  { 0, 514.5, 27, 3221 },
  { 66, 528.5, 12, 27 },
  { 65, -138.0, 27, 3223 },
  { 41, -99.0, 27, 12 },
  { 12, -3028.0, 2, 3225 },
  { 149, 4624.5, 3226, 2 },
  { 96, 3712.5, 12, 3227 },
  { 42, 3004.5, 2, 12 },
  { 130, 11408.0, 3229, 3244 },
  { 111, 4453.0, 3230, 2 },
  { 19, 11005.5, 3231, 3243 },
  { 39, -3292.5, 2, 3232 },
  { 35, -6167.5, 3233, 3234 },
  { 10, 5201.5, 2, 12 },
  { 52, -4318.0, 2, 3235 },
  { 109, 794.0, 3236, 3239 },
  { 31, 272.0, 12, 3237 },
  { 17, 215.5, 3238, 12 },
  { 122, -1728.0, 12, 27 },
  { 22, -1974.0, 3240, 3241 },
  { 52, -1151.0, 12, 2 },
  { 125, -5764.0, 3242, 12 },
  { 113, -5752.0, 12, 2 },
  { 95, -3559.5, 12, 2 },
  { 109, 11971.0, 3245, 2 },
  { 148, 13236.5, 12, 2 },
  { 48, 5291.5, 3247, 2 },
  { 144, 1718.5, 2, 12 },
  { 18, -4160.0, 3249, 3254 },
  { 42, -5357.0, 2, 3250 },
  { 112, -8532.0, 12, 3251 },
  { 48, -5277.0, 12, 3252 },
  { 25, 11123.0, 2, 3253 },
  { 46, 12247.0, 12, 2 },
  { 60, 5190.5, 3255, 3310 },
  { 130, 325.5, 3256, 3287 },
  { 64, -468.0, 3257, 3273 },
  { 143, -3063.0, 3258, 3260 },
  { 133, -3702.0, 2, 3259 },
  { 122, -4284.5, 2, 12 },
  { 59, -3643.0, 2, 3261 },
  { 34, 573.5, 3262, 2 },
  { 49, -13417.0, 3263, 3264 },
  { 146, 5749.5, 12, 2 },
  { 114, -8065.0, 2, 3265 },
  { 79, -524.0, 3266, 3272 },
  { 15, -2212.0, 3267, 3270 },
  { 144, 3287.5, 3268, 2 },
  { 145, -5970.5, 12, 3269 },
  { 118, -4776.0, 2, 12 },
  { 34, -853.0, 12, 3271 },
  { 22, -666.0, 27, 12 },
  { 37, -1016.5, 12, 27 },
  { 43, 287.0, 3274, 3283 },
  { 69, -1247.5, 12, 3275 },
  { 12, 875.5, 3276, 3281 },
  { 68, -978.5, 12, 3277 },
  { 30, 410.5, 27, 3278 },
  { 27, 412.5, 12, 3279 },
  { 135, 408.0, 3280, 27 },
  { 61, -177.0, 27, 12 },
  { 83, -61.5, 3282, 12 },
  { 137, -2241.5, 2, 27 },
  { 58, 2493.5, 3284, 2 },
  { 139, 274.0, 3285, 27 },
  { 100, 392.5, 12, 3286 },
  { 76, 614.0, 27, 12 },
  { 76, 11697.5, 3288, 3308 },
  { 107, 1167.5, 3289, 3305 },
  { 123, -4195.5, 3290, 3291 },
  { 24, -3338.5, 12, 2 },
  { 68, -5871.0, 3292, 3296 },
  { 46, 3924.0, 2, 3293 },
  { 95, -6232.5, 3294, 2 },
  { 67, 5720.5, 3295, 12 },
  { 1, 3973.0, 12, 2 },
  { 82, 928.5, 3297, 3300 },
  { 25, 331.0, 12, 3298 },
  { 96, -1136.5, 3299, 27 },
  { 83, -3184.0, 2, 12 },
  { 52, 10988.5, 3301, 3304 },
  { 149, -5940.5, 2, 3302 },
  { 62, 63.0, 12, 3303 },
  { 47, 211.0, 27, 12 },
  { 2, -3486.0, 2, 12 },
  { 134, 2614.5, 3306, 3307 },
  { 103, 4265.5, 12, 2 },
  { 115, 1130.0, 12, 2 },
  { 92, -3797.5, 3309, 2 },
  { 0, 863.5, 2, 12 },
  { 78, 6843.5, 3311, 2 },
  { 137, 302.0, 12, 2 },
  { 0, -2789.0, 3313, 3334 },
  { 84, -4867.5, 3314, 3319 },
  { 36, -4303.5, 3315, 3318 },
  { 60, -5477.5, 2, 3316 },
  { 130, 5310.5, 3317, 12 },
  { 36, -5521.5, 12, 2 },
  { 80, -1601.5, 2, 12 },
  { 70, 4255.0, 3320, 3328 },
  { 149, -4386.0, 3321, 3323 },
  { 135, -4145.0, 3322, 2 },
  { 67, 304.0, 2, 12 },
  { 99, -606.5, 3324, 2 },
  { 31, -1596.5, 3325, 12 },
  { 145, -6824.0, 12, 3326 },
  { 22, -2221.5, 3327, 12 },
  { 111, -995.5, 2, 12 },
  { 59, -7950.0, 3329, 3330 },
  { 91, 6487.5, 2, 12 },
  { 87, -4528.0, 12, 3331 },
  { 44, -5464.5, 3332, 2 },
  { 0, -3991.5, 2, 3333 },
  { 97, 9163.0, 2, 12 },
  { 18, 5215.5, 3335, 3378 },
  { 37, -673.5, 3336, 3343 },
  { 32, -2116.0, 3337, 3339 },
  { 62, -3450.0, 2, 3338 },
  { 86, -1397.0, 12, 2 },
  { 72, 6125.5, 3340, 2 },
  { 145, -13171.0, 3341, 12 },
  { 4, -11101.5, 2, 3342 },
  { 113, -295.5, 2, 12 },
  { 31, 276.0, 3344, 3354 },
  { 130, 362.5, 3345, 3353 },
  { 47, -874.5, 12, 3346 },
  { 14, 696.0, 3347, 12 },
  { 57, 1394.5, 3348, 12 },
  { 57, -1803.5, 12, 3349 },
  { 18, 512.0, 3350, 3352 },
  { 120, 443.5, 27, 3351 },
  { 35, -40.5, 27, 12 },
  { 65, -169.5, 27, 12 },
  { 101, -5778.0, 2, 12 },
  { 25, 10795.5, 3355, 3375 },
  { 53, 1967.0, 3356, 3372 },
  { 32, -6170.5, 2, 3357 },
  { 43, 387.5, 3358, 3360 },
  { 94, 66.5, 3359, 27 },
  { 28, 445.0, 2, 12 },
  { 147, 4238.5, 3361, 3371 },
  { 40, 870.5, 3362, 3366 },
  { 43, 833.0, 3363, 27 },
  { 102, -499.0, 12, 3364 },
  { 135, 966.0, 3365, 12 },
  { 32, -1165.0, 12, 27 },
  { 137, -5568.0, 3367, 3368 },
  { 29, -4786.0, 12, 2 },
  { 118, 1443.5, 3369, 12 },
  { 79, 1752.5, 12, 3370 },
  { 64, 1961.5, 27, 12 },
  { 105, 5324.0, 2, 12 },
  { 40, 2903.0, 3373, 2 },
  { 96, 3278.5, 3374, 2 },
  { 32, 1707.0, 2, 12 },
  { 63, 2197.0, 3376, 12 },
  { 65, -3844.0, 3377, 2 },
  { 98, -4760.5, 2, 12 },
  { 54, 6922.0, 3379, 2 },
  { 57, 6818.5, 3380, 12 },
  { 4, -7449.0, 2, 3381 },
  { 58, -7554.5, 12, 2 },
  { 99, -2747.5, 3383, 3396 },
  { 69, -5395.0, 2, 3384 },
  { 4, 9500.5, 3385, 3395 },
  { 68, -4021.5, 3386, 3387 },
  { 40, 7892.0, 2, 12 },
  { 141, -5374.5, 3388, 3389 },
  { 66, -4981.5, 12, 2 },
  { 143, -4274.0, 3390, 3391 },
  { 65, -3880.0, 12, 2 },
  { 12, -5652.0, 2, 3392 },
  { 140, 5779.5, 3393, 2 },
  { 49, -6811.5, 3394, 12 },
  { 127, -8282.0, 12, 2 },
  { 92, -4656.5, 12, 2 },
  { 54, 5870.0, 3397, 3440 },
  { 79, 349.5, 3398, 3419 },
  { 112, -581.0, 3399, 3409 },
  { 80, -3084.0, 3400, 3401 },
  { 108, -2170.0, 12, 2 },
  { 31, -13992.0, 3402, 3403 },
  { 109, -8901.5, 2, 12 },
  { 145, 1734.5, 3404, 2 },
  { 9, -4464.0, 2, 3405 },
  { 134, 11400.0, 3406, 2 },
  { 97, -934.0, 12, 3407 },
  { 85, -760.0, 3408, 12 },
  { 101, 477.5, 27, 12 },
  { 133, 320.0, 3410, 3418 },
  { 28, -846.0, 12, 3411 },
  { 25, 403.5, 3412, 12 },
  { 116, -870.5, 12, 3413 },
  { 14, 748.0, 3414, 12 },
  { 87, 833.0, 3415, 3417 },
  { 141, 463.0, 27, 3416 },
  { 45, 458.5, 12, 27 },
  { 50, -103.0, 27, 12 },
  { 144, 5290.5, 12, 2 },
  { 37, 10757.0, 3420, 3436 },
  { 7, -740.0, 3421, 3423 },
  { 121, 4046.0, 3422, 2 },
  { 135, 1462.0, 12, 2 },
  { 5, -6136.0, 2, 3424 },
  { 79, 834.0, 3425, 3428 },
  { 147, -656.5, 3426, 3427 },
  { 88, 1089.5, 12, 2 },
  { 98, 250.0, 27, 12 },
  { 27, -3456.0, 2, 3429 },
  { 138, 4735.0, 3430, 2 },
  { 143, -5966.0, 3431, 3432 },
  { 110, -6031.5, 12, 2 },
  { 2, -5981.5, 2, 3433 },
  { 145, 1150.5, 3434, 12 },
  { 95, 29.0, 12, 3435 },
  { 41, 300.0, 27, 12 },
  { 15, 2364.0, 3437, 3439 },
  { 149, -4451.0, 3438, 2 },
  { 122, -4907.0, 2, 12 },
  { 149, -3443.5, 12, 2 },
  { 45, 6939.0, 3441, 2 },
  { 42, 6702.0, 2, 12 },
  { 108, -2463.0, 3443, 3463 },
  { 63, -4213.5, 3444, 3451 },
  { 63, -5290.0, 2, 3445 },
  { 69, -5079.0, 3446, 3448 },
  { 13, 9069.5, 3447, 2 },
  { 138, -6633.5, 2, 12 },
  { 97, -14250.0, 12, 3449 },
  { 19, 10850.0, 2, 3450 },
  { 62, 975.5, 12, 2 },
  { 88, 2614.0, 3452, 3460 },
  { 149, -5397.5, 2, 3453 },
  { 135, -5029.0, 2, 3454 },
  { 145, 3479.5, 3455, 2 },
  { 104, 5230.0, 3456, 2 },
  { 97, -7075.0, 3457, 3458 },
  { 27, -3490.0, 12, 2 },
  { 101, -4216.0, 3459, 12 },
  { 2, -4167.0, 12, 2 },
  { 65, -7747.0, 12, 3461 },
  { 101, -3225.0, 3462, 2 },
  { 26, -3664.5, 2, 12 },
  { 12, 5269.5, 3464, 3503 },
  { 112, -637.5, 3465, 3475 },
  { 8, -4082.0, 2, 3466 },
  { 15, -4540.5, 2, 3467 },
  { 40, -13780.0, 2, 3468 },
  { 142, 1446.0, 3469, 2 },
  { 120, 7868.0, 3470, 2 },
  { 142, -956.0, 3471, 3473 },
  { 144, 5200.0, 12, 3472 },
  { 87, 3504.0, 2, 12 },
  { 15, -1172.5, 3474, 12 },
  { 5, 84.0, 12, 27 },
  { 118, 453.5, 3476, 3486 },
  { 4, 427.0, 3477, 3483 },
  { 22, -847.5, 3478, 3480 },
  { 29, -1144.5, 3479, 12 },
  { 21, -424.0, 2, 12 },
  { 6, -1817.5, 12, 3481 },
  { 69, 432.5, 27, 3482 },
  { 50, -73.5, 27, 12 },
  { 97, 1971.0, 3484, 2 },
  { 68, -431.0, 3485, 12 },
  { 147, -917.5, 12, 27 },
  { 8, 3631.5, 3487, 2 },
  { 34, 11703.5, 3488, 3501 },
  { 21, -3567.5, 2, 3489 },
  { 135, 5114.5, 3490, 2 },
  { 134, -5896.5, 3491, 3493 },
  { 121, 4401.0, 12, 3492 },
  { 43, 8711.0, 2, 12 },
  { 115, 974.0, 3494, 3496 },
  { 34, 387.0, 12, 3495 },
  { 58, 1006.5, 27, 12 },
  { 136, 12728.0, 3497, 2 },
  { 20, -5727.0, 3498, 3499 },
  { 32, -5729.5, 12, 2 },
  { 121, 1419.0, 3500, 12 },
  { 115, 1415.5, 12, 27 },
  { 23, -3094.0, 3502, 2 },
  { 11, -3811.0, 2, 12 },
  { 18, 6537.0, 3504, 2 },
  { 6, 6225.5, 2, 12 },
  { 102, -2939.5, 3506, 3520 },
  { 111, -4838.5, 3507, 3511 },
  { 75, -5318.5, 2, 3508 },
  { 48, -5223.5, 12, 3509 },
  { 16, -891.0, 3510, 2 },
  { 48, -4376.0, 12, 2 },
  { 109, 8803.0, 3512, 2 },
  { 143, -4274.0, 3513, 3515 },
  { 13, 8586.0, 3514, 12 },
  { 79, 5127.0, 2, 12 },
  { 48, -4783.5, 3516, 3517 },
  { 12, -5743.5, 2, 12 },
  { 122, 5379.0, 3518, 2 },
  { 33, -4934.5, 2, 3519 },
  { 111, -3161.0, 12, 2 },
  { 42, 5195.5, 3521, 3566 },
  { 148, 289.0, 3522, 3542 },
  { 58, -464.0, 3523, 3531 },
  { 38, -3893.5, 2, 3524 },
  { 37, -13787.5, 3525, 3526 },
  { 124, -9359.5, 2, 12 },
  { 143, 9784.5, 3527, 2 },
  { 85, -583.5, 3528, 3530 },
  { 0, -3083.0, 3529, 12 },
  { 24, -2836.5, 12, 2 },
  { 2, 2399.0, 27, 12 },
  { 22, 268.0, 3532, 3538 },
  { 100, -530.0, 3533, 3534 },
  { 43, -759.0, 2, 12 },
  { 141, 378.0, 3535, 3536 },
  { 143, -1307.0, 12, 27 },
  { 56, -76.5, 27, 3537 },
  { 26, 57.5, 12, 27 },
  { 64, 4524.0, 3539, 2 },
  { 19, 336.0, 27, 3540 },
  { 59, 3458.0, 12, 3541 },
  { 64, 660.5, 12, 2 },
  { 121, 10308.5, 3543, 3563 },
  { 143, -7024.0, 2, 3544 },
  { 6, -3766.0, 2, 3545 },
  { 116, 4096.0, 3546, 2 },
  { 117, 4619.5, 3547, 2 },
  { 37, 11653.0, 3548, 2 },
  { 142, 447.5, 3549, 3552 },
  { 87, -1936.0, 2, 3550 },
  { 148, 396.5, 3551, 27 },
  { 6, 595.5, 12, 27 },
  { 60, -3162.5, 2, 3553 },
  { 139, 10582.0, 3554, 2 },
  { 146, 3651.5, 3555, 2 },
  { 147, -3171.5, 3556, 3557 },
  { 148, 4476.5, 12, 2 },
  { 91, 1669.0, 3558, 3561 },
  { 91, 1657.0, 3559, 27 },
  { 126, 1677.0, 12, 3560 },
  { 148, 764.5, 27, 12 },
  { 17, -5773.0, 3562, 12 },
  { 62, -5398.5, 12, 2 },
  { 140, -3448.0, 3564, 2 },
  { 80, -5313.0, 2, 3565 },
  { 36, -4113.5, 2, 12 },
  { 57, 5256.5, 3567, 3568 },
  { 78, 4829.5, 12, 2 },
  { 45, 7131.0, 3569, 2 },
  { 113, 11.5, 12, 2 },
  { 99, -2813.0, 3571, 3590 },
  { 54, -4552.5, 3572, 3575 },
  { 90, -5249.0, 2, 3573 },
  { 142, -10613.5, 12, 3574 },
  { 147, -4845.5, 12, 2 },
  { 114, -4390.5, 3576, 3578 },
  { 129, -4754.5, 2, 3577 },
  { 39, -2461.0, 12, 2 },
  { 97, 4750.5, 3579, 3587 },
  { 129, -3224.0, 3580, 3585 },
  { 49, 2707.5, 3581, 3584 },
  { 50, -3809.5, 3582, 3583 },
  { 29, -4291.0, 12, 2 },
  { 143, -4274.0, 2, 12 },
  { 80, -3654.0, 12, 2 },
  { 51, -3827.5, 12, 3586 },
  { 94, -885.0, 2, 12 },
  { 59, -7950.0, 12, 3588 },
  { 133, 5653.5, 3589, 2 },
  { 54, -1413.0, 12, 2 },
  { 75, 5025.0, 3591, 3629 },
  { 61, 475.0, 3592, 3615 },
  { 13, -407.0, 3593, 3606 },
  { 13, -10880.0, 3594, 3596 },
  { 65, 2279.0, 2, 3595 },
  { 18, 1801.5, 12, 2 },
