
    // !!! This file is generated using emlearn !!!

#include <eml_trees.h>
    

EmlTreesNode rf150_running_model_nodes[2874] = {
  { 427, -2819.0, 1, 6 },
  { 443, 450.0, 2, 3 },
  { -1, 2, -1, -1 },
  { 400, -4479.5, 2, 4 },
  { 303, 1278.0, 2, 5 },
  { -1, 1, -1, -1 },
  { 85, 142.5, 7, 15 },
  { 112, -85.0, 8, 14 },
  { 431, -5199.5, 9, 10 },
  { 180, 5100.0, 2, 5 },
  { 67, -5379.5, 2, 11 },
  { 55, -235.5, 12, 13 },
  { 169, 461.5, 5, 2 },
  { 63, 2452.0, 14, 2 },
  { -1, 0, -1, -1 },
  { 88, 3232.5, 16, 2 },
  { 86, -5108.0, 2, 5 },
  { 412, -1749.0, 18, 23 },
  { 374, 1386.5, 19, 21 },
  { 433, -3329.0, 2, 20 },
  { 440, -3531.0, 2, 5 },
  { 18, 1459.0, 22, 2 },
  { 296, 297.5, 2, 5 },
  { 430, 156.5, 24, 31 },
  { 304, -164.0, 25, 30 },
  { 220, -4248.0, 2, 26 },
  { 376, -350.0, 27, 29 },
  { 67, -989.5, 28, 5 },
  { 25, -1428.0, 5, 14 },
  { 238, -597.5, 5, 14 },
  { 406, -111.0, 5, 14 },
  { 238, -966.5, 2, 32 },
  { 325, 8288.5, 5, 2 },
  { 415, -3369.5, 34, 37 },
  { 63, -11245.5, 5, 35 },
  { 335, 2440.0, 2, 36 },
  { 47, -1095.5, 2, 5 },
  { 433, 297.0, 38, 47 },
  { 253, -212.5, 39, 43 },
  { 296, -3263.0, 2, 40 },
  { 268, -404.0, 41, 14 },
  { 202, -1178.5, 5, 42 },
  { 22, -376.5, 14, 5 },
  { 38, 290.0, 44, 46 },
  { 29, -1763.0, 45, 14 },
  { 30, -3474.0, 2, 5 },
  { 51, 1936.5, 5, 2 },
  { 286, -2111.5, 2, 48 },
  { 448, 9135.0, 49, 2 },
  { 269, -4374.0, 50, 5 },
  { 303, 3286.0, 2, 5 },
  { 436, -1621.0, 52, 57 },
  { 418, -3229.5, 53, 56 },
  { 417, -12979.5, 5, 54 },
  { 245, 1461.0, 2, 55 },
  { 436, -6610.5, 2, 5 },
  { 73, -7640.0, 2, 5 },
  { 427, 155.5, 58, 64 },
  { 313, -166.5, 59, 62 },
  { 250, -3946.0, 2, 60 },
  { 268, -912.5, 5, 61 },
  { 53, -745.0, 5, 14 },
  { 231, -2054.5, 5, 63 },
  { 299, -1581.0, 5, 14 },
  { 250, -798.0, 65, 67 },
  { 74, 2735.0, 2, 66 },
  { 267, 6853.0, 5, 2 },
  { 409, 6774.0, 5, 68 },
  { 162, 159.5, 5, 2 },
  { 415, -2158.5, 70, 74 },
  { 75, -11090.5, 5, 71 },
  { 403, -3161.0, 2, 72 },
  { 386, -1701.5, 2, 73 },
  { 324, -1195.0, 2, 5 },
  { 217, -3667.5, 2, 75 },
  { 254, 447.0, 76, 78 },
  { 266, -159.0, 77, 14 },
  { 52, -2352.5, 2, 5 },
  { 202, 3336.0, 5, 79 },
  { 321, -2867.0, 5, 2 },
  { 427, -3307.0, 81, 82 },
  { 84, -11091.0, 5, 2 },
  { 167, -2810.5, 83, 84 },
  { 132, 4161.5, 2, 5 },
  { 107, 246.0, 85, 90 },
  { 215, -150.0, 86, 88 },
  { 233, -367.0, 5, 87 },
  { 339, -208.5, 14, 5 },
  { 404, 1283.0, 14, 89 },
  { 323, 2729.0, 5, 2 },
  { 212, 3645.0, 91, 93 },
  { 194, 372.5, 92, 5 },
  { 446, -1213.0, 5, 14 },
  { 306, -1755.5, 5, 2 },
  { 376, -1553.5, 95, 100 },
  { 348, -13232.5, 5, 96 },
  { 306, 11276.5, 97, 5 },
  { 403, -4805.0, 2, 98 },
  { 98, -318.5, 2, 99 },
  { 280, -4882.0, 2, 5 },
  { 391, 291.0, 101, 106 },
  { 268, -410.5, 102, 103 },
  { 269, -3575.5, 2, 5 },
  { 295, 421.5, 104, 105 },
  { 143, -1854.5, 5, 14 },
  { 442, -2675.5, 2, 5 },
  { 391, 3786.0, 107, 108 },
  { 115, -2484.0, 2, 5 },
  { 63, -4388.0, 109, 2 },
  { 29, -824.5, 5, 2 },
  { 404, -1135.0, 111, 116 },
  { 316, -518.5, 112, 114 },
  { 128, 511.0, 2, 113 },
  { 349, -5256.0, 2, 5 },
  { 259, 2547.5, 115, 2 },
  { 121, -2737.0, 2, 5 },
  { 337, -4619.0, 117, 118 },
  { 75, -2508.0, 5, 2 },
  { 134, 252.0, 119, 123 },
  { 221, -165.5, 120, 121 },
  { 173, -2568.0, 2, 5 },
  { 70, 496.5, 14, 122 },
  { 398, 2302.5, 5, 2 },
  { 278, 6247.5, 124, 2 },
  { 149, 4920.5, 5, 2 },
  { 433, -3574.0, 126, 127 },
  { 213, -14161.5, 5, 2 },
  { 115, -3231.5, 128, 130 },
  { 126, -470.0, 2, 129 },
  { 281, 1165.5, 5, 2 },
  { 383, -225.0, 131, 132 },
  { 127, 5779.5, 5, 2 },
  { 338, 291.0, 133, 135 },
  { 284, -679.0, 134, 14 },
  { 76, 227.5, 2, 5 },
  { 130, 3388.5, 5, 2 },
  { 439, -3479.0, 2, 137 },
  { 431, -189.5, 138, 141 },
  { 170, -3866.0, 139, 140 },
  { 93, 1961.0, 2, 5 },
  { 100, 4196.0, 5, 2 },
  { 380, 175.5, 142, 143 },
  { 130, 712.0, 14, 5 },
  { 446, 6470.0, 144, 2 },
  { 299, 465.5, 145, 5 },
  { 407, 326.0, 14, 5 },
  { 436, -3473.0, 147, 150 },
  { 321, -13048.5, 5, 148 },
  { 424, -4107.0, 2, 149 },
  { 399, -7205.5, 5, 2 },
  { 154, -3196.0, 151, 153 },
  { 189, 257.0, 2, 152 },
  { 235, -7078.5, 2, 5 },
  { 446, -129.0, 154, 155 },
  { 148, 4454.5, 5, 2 },
  { 446, 131.5, 156, 157 },
  { 132, 2262.0, 14, 5 },
  { 259, 3951.5, 158, 2 },
  { 203, 297.0, 159, 5 },
  { 152, -509.0, 5, 160 },
  { 330, 3176.5, 14, 2 },
  { 430, -3380.5, 162, 164 },
  { 332, 2521.0, 2, 163 },
  { 258, -4112.0, 5, 2 },
  { 128, -2553.5, 165, 167 },
  { 268, -19.5, 2, 166 },
  { 23, -5568.5, 2, 5 },
  { 125, 493.5, 168, 172 },
  { 317, -339.0, 5, 169 },
  { 118, 355.5, 170, 171 },
  { 156, 3078.5, 14, 2 },
  { 119, -1338.5, 2, 5 },
  { 290, 6775.0, 173, 2 },
  { 434, 7600.0, 5, 2 },
  { 448, -1702.0, 175, 178 },
  { 296, -753.5, 2, 176 },
  { 433, -5104.5, 177, 5 },
  { 300, -11216.5, 5, 2 },
  { 448, 179.0, 179, 187 },
  { 277, -420.5, 180, 185 },
  { 178, -6922.5, 2, 181 },
  { 160, 9646.5, 182, 2 },
  { 265, -939.5, 5, 183 },
  { 117, 2466.5, 184, 5 },
  { 279, -3959.0, 5, 14 },
  { 390, -1940.0, 5, 186 },
  { 338, -303.5, 5, 14 },
  { 82, 3140.5, 188, 2 },
  { 202, -989.0, 189, 5 },
  { 189, 3928.5, 2, 190 },
  { 139, -5481.5, 2, 5 },
  { 289, -2055.0, 192, 198 },
  { 245, 2556.5, 193, 196 },
  { 144, 8106.5, 194, 5 },
  { 149, 561.0, 2, 195 },
  { 349, -4358.5, 2, 5 },
  { 318, -3175.0, 197, 2 },
  { 302, 780.0, 2, 5 },
  { 280, 3764.0, 199, 204 },
  { 124, 176.0, 200, 5 },
  { 130, -162.5, 201, 202 },
  { 188, -5134.5, 2, 5 },
  { 312, 2398.5, 203, 5 },
  { 320, 610.0, 14, 5 },
  { 129, 884.0, 205, 2 },
  { 30, 60.0, 2, 5 },
  { 433, -1534.0, 207, 213 },
  { 317, -890.0, 2, 208 },
  { 310, -5496.5, 209, 210 },
  { 98, 2537.0, 2, 5 },
  { 137, 3229.0, 211, 2 },
  { 5, -227.5, 212, 5 },
  { 377, 146.5, 5, 2 },
  { 403, 154.0, 214, 220 },
  { 415, -172.0, 215, 219 },
  { 256, -3406.5, 2, 216 },
  { 166, -157.0, 217, 5 },
  { 296, 538.5, 218, 5 },
  { 298, -1235.0, 5, 14 },
  { 419, -5741.0, 2, 14 },
  { 166, -6249.0, 2, 221 },
  { 388, 10731.5, 222, 2 },
  { 32, 10033.5, 223, 2 },
  { 118, -5393.0, 2, 224 },
  { 289, 327.5, 225, 5 },
  { 202, -231.0, 5, 14 },
  { 400, -3139.0, 227, 229 },
  { 377, 1499.0, 2, 228 },
  { 195, -3160.5, 5, 2 },
  { 151, -3240.0, 230, 233 },
  { 388, -2886.0, 5, 231 },
  { 47, 4094.0, 2, 232 },
  { 110, 5500.0, 5, 2 },
  { 100, 109.5, 234, 238 },
  { 70, -338.5, 235, 237 },
  { 1, -3408.5, 236, 5 },
  { 39, -3530.0, 5, 2 },
  { 239, 876.0, 14, 5 },
  { 118, 3922.0, 239, 2 },
  { 326, 5470.0, 5, 2 },
  { 433, -3329.0, 241, 244 },
  { 0, -14584.5, 5, 242 },
  { 293, 3150.5, 2, 243 },
  { 239, 4452.0, 5, 2 },
  { 178, -3613.5, 245, 247 },
  { 105, 2670.5, 2, 246 },
  { 34, -4633.5, 5, 2 },
  { 338, -219.0, 248, 250 },
  { 86, -4899.0, 249, 5 },
  { 192, 3391.5, 2, 5 },
  { 344, 273.5, 251, 252 },
  { 15, 1148.0, 14, 5 },
  { 183, 611.5, 5, 253 },
  { 284, 1743.5, 5, 2 },
  { 317, -475.5, 255, 260 },
  { 118, -2410.5, 256, 257 },
  { 287, -417.5, 2, 5 },
  { 424, -3340.5, 2, 258 },
  { 44, -4611.5, 2, 259 },
  { 1, 5727.5, 5, 2 },
  { 308, 307.0, 261, 264 },
  { 397, -630.0, 262, 263 },
  { 274, -4360.5, 2, 5 },
  { 187, -299.0, 5, 14 },
  { 112, 4078.0, 265, 2 },
  { 208, -3865.5, 2, 266 },
  { 238, 3972.0, 267, 2 },
  { 44, -5088.0, 2, 5 },
  { 274, -1902.5, 269, 274 },
  { 420, 8575.0, 270, 5 },
  { 191, 1652.5, 271, 273 },
  { 146, -99.5, 2, 272 },
  { 349, -4787.5, 2, 5 },
  { 220, -5692.5, 2, 5 },
  { 368, -219.0, 275, 280 },
  { 40, -2451.5, 276, 278 },
  { 2, 2229.5, 2, 277 },
  { 428, -3708.5, 2, 5 },
  { 47, 3826.0, 279, 2 },
  { 86, -5351.5, 2, 5 },
  { 278, 333.0, 281, 282 },
  { 94, 7663.0, 14, 2 },
  { 394, 7828.5, 5, 2 },
  { 424, -3120.0, 284, 286 },
  { 421, -4027.0, 2, 285 },
  { 179, 517.0, 2, 5 },
  { 241, -962.0, 287, 290 },
  { 92, -3272.0, 2, 288 },
  { 202, -4953.5, 289, 5 },
  { 132, -418.0, 2, 5 },
  { 262, 402.5, 291, 293 },
  { 50, -737.0, 5, 292 },
  { 63, -2102.0, 5, 14 },
  { 271, 4338.5, 5, 2 },
  { 412, -3341.0, 295, 296 },
  { 66, -13307.5, 5, 2 },
  { 79, -298.5, 297, 302 },
  { 236, -5456.0, 2, 298 },
  { 257, 3466.5, 299, 2 },
  { 95, -4949.0, 2, 300 },
  { 181, -1283.5, 5, 301 },
  { 181, -1143.0, 14, 5 },
  { 133, 158.0, 303, 305 },
  { 277, -568.5, 304, 14 },
  { 52, 6240.0, 5, 2 },
  { 118, 4495.0, 5, 2 },
  { 208, -2013.5, 307, 311 },
  { 369, 8872.0, 308, 5 },
  { 384, 1245.0, 2, 309 },
  { 179, -333.5, 2, 310 },
  { 356, 1489.0, 5, 2 },
  { 448, -3833.0, 312, 313 },
  { 363, -12172.5, 5, 2 },
  { 188, 428.0, 314, 319 },
  { 311, -341.5, 315, 317 },
  { 110, -5187.5, 316, 5 },
  { 120, 2446.0, 2, 5 },
  { 115, 391.0, 14, 318 },
  { 344, 2366.5, 5, 2 },
  { 286, 6780.0, 5, 2 },
  { 328, -2126.5, 321, 326 },
  { 290, -492.0, 2, 322 },
  { 21, 1770.5, 323, 324 },
  { 55, -5208.0, 2, 5 },
  { 298, -4221.5, 2, 325 },
  { 423, 3473.0, 5, 2 },
  { 355, 234.5, 327, 333 },
  { 358, -106.0, 328, 331 },
  { 365, -4385.0, 2, 329 },
  { 341, 361.5, 330, 5 },
  { 395, -200.5, 5, 14 },
  { 318, 1290.0, 14, 332 },
  { 354, 4275.0, 2, 5 },
  { 316, 3476.5, 334, 335 },
  { 178, -2235.5, 2, 5 },
  { 243, -2586.0, 5, 336 },
  { 325, 8524.5, 337, 2 },
  { 389, -2766.0, 2, 5 },
  { 187, -2016.5, 339, 341 },
  { 104, 2626.0, 2, 340 },
  { 339, -6181.0, 2, 5 },
  { 187, 192.5, 342, 348 },
  { 214, -351.0, 343, 345 },
  { 188, -2438.0, 344, 5 },
  { 334, 548.5, 2, 5 },
  { 302, -373.0, 346, 347 },
  { 139, -2836.5, 2, 5 },
  { 341, 636.5, 14, 5 },
  { 175, 4340.0, 349, 351 },
  { 85, -1952.0, 2, 350 },
  { 274, 5043.0, 5, 2 },
  { 145, 3464.5, 352, 2 },
  { 224, -4404.5, 2, 5 },
  { 265, -2283.5, 354, 357 },
  { 424, -4046.5, 2, 355 },
  { 146, -444.0, 2, 356 },
  { 182, 2896.0, 5, 2 },
  { 427, -3397.5, 358, 359 },
  { 258, -12892.0, 5, 2 },
  { 442, 400.5, 360, 367 },
  { 274, -425.5, 361, 364 },
  { 71, -4298.5, 2, 362 },
  { 19, -1388.0, 363, 5 },
  { 46, -1898.5, 5, 14 },
  { 321, -958.5, 365, 366 },
  { 118, -153.5, 14, 5 },
  { 438, 6115.0, 14, 5 },
  { 343, 9838.5, 368, 2 },
  { 68, -4842.0, 2, 5 },
  { 370, -2750.5, 370, 374 },
  { 9, -11770.5, 5, 371 },
  { 400, -4877.5, 2, 372 },
  { 404, -787.0, 2, 373 },
  { 298, -5443.0, 2, 5 },
  { 139, -2870.5, 375, 377 },
  { 18, 731.5, 2, 376 },
  { 369, 315.5, 2, 5 },
  { 295, -431.5, 378, 381 },
  { 178, -7652.0, 2, 379 },
  { 228, 939.5, 5, 380 },
  { 174, 1298.5, 14, 5 },
  { 268, 286.0, 382, 385 },
  { 31, -600.0, 383, 384 },
  { 239, -3926.5, 2, 5 },
  { 371, -1827.0, 5, 14 },
  { 364, 7742.5, 5, 2 },
  { 325, -1019.5, 387, 390 },
  { 344, -1744.5, 2, 388 },
  { 379, -5284.0, 2, 389 },
  { 268, -5842.5, 2, 5 },
  { 370, 286.5, 391, 393 },
  { 296, 535.0, 392, 5 },
  { 353, -297.5, 5, 14 },
  { 289, 3841.0, 394, 2 },
  { 109, -2989.5, 2, 395 },
  { 108, 9630.5, 5, 2 },
  { 268, -1936.5, 397, 400 },
  { 262, -3723.0, 2, 398 },
  { 197, -428.5, 2, 399 },
  { 43, -4384.5, 2, 5 },
  { 250, 271.0, 401, 409 },
  { 235, -92.0, 402, 14 },
  { 164, -3652.0, 2, 403 },
  { 256, -403.5, 404, 406 },
  { 313, -832.5, 5, 405 },
  { 244, -895.5, 14, 5 },
  { 206, -394.0, 5, 407 },
  { 133, -555.0, 408, 14 },
  { 245, 3143.5, 5, 2 },
  { 343, 5494.5, 410, 412 },
  { 61, -4857.5, 2, 411 },
  { 84, 4704.5, 5, 2 },
  { 357, -2943.5, 5, 413 },
  { 142, -2063.0, 5, 2 },
  { 196, -1818.0, 415, 420 },
  { 383, -764.5, 2, 416 },
  { 208, -3644.0, 417, 419 },
  { 449, -321.0, 418, 2 },
  { 9, 1878.0, 5, 2 },
  { 254, -909.0, 2, 5 },
  { 445, -3339.5, 421, 422 },
  { 90, -10165.5, 5, 2 },
  { 403, 164.5, 423, 425 },
  { 436, -144.0, 424, 14 },
  { 395, -6090.5, 2, 5 },
  { 445, 10158.5, 426, 2 },
  { 277, 348.5, 427, 5 },
  { 10, -444.5, 5, 14 },
  { 442, -3326.0, 429, 434 },
  { 162, -14561.5, 5, 430 },
  { 305, 2290.0, 431, 433 },
  { 395, 1549.0, 2, 432 },
  { 51, -2721.5, 5, 2 },
  { 383, 1040.5, 2, 5 },
  { 37, 4009.0, 435, 2 },
  { 293, -261.0, 436, 437 },
  { 16, -3238.0, 2, 5 },
  { 218, 386.0, 438, 440 },
  { 434, 3898.0, 439, 2 },
  { 199, 404.5, 14, 5 },
  { 356, 6718.0, 5, 2 },
  { 247, -2205.0, 442, 449 },
  { 285, 7983.0, 443, 5 },
  { 286, -1500.0, 444, 448 },
  { 274, -3542.5, 445, 447 },
  { 349, -4276.5, 2, 446 },
  { 48, -373.0, 2, 5 },
  { 128, -1579.5, 2, 5 },
  { 351, -58.5, 2, 5 },
  { 80, 218.0, 450, 454 },
  { 71, -680.5, 451, 453 },
  { 95, -5132.5, 2, 452 },
  { 440, 6536.0, 5, 2 },
  { 405, -1726.5, 5, 14 },
  { 217, 3397.0, 455, 456 },
  { 29, -3018.5, 2, 5 },
  { 75, 752.0, 457, 2 },
  { 79, -3571.0, 2, 5 },
  { 406, -3034.5, 459, 463 },
  { 248, 623.5, 2, 460 },
  { 96, -2167.5, 5, 461 },
  { 254, 686.5, 462, 2 },
  { 253, 14664.5, 5, 2 },
  { 412, 4914.0, 464, 469 },
  { 335, -198.5, 465, 467 },
  { 371, -5552.0, 2, 466 },
  { 7, -3309.0, 2, 5 },
  { 311, 215.0, 14, 468 },
  { 334, 11451.0, 5, 2 },
  { 300, -2413.5, 5, 2 },
  { 415, -3218.0, 471, 473 },
  { 215, 1522.0, 2, 472 },
  { 48, -280.5, 5, 2 },
  { 250, -379.5, 474, 479 },
  { 208, -3717.5, 2, 475 },
  { 212, -2843.5, 2, 476 },
  { 316, -851.5, 5, 477 },
  { 163, -1236.0, 5, 478 },
  { 298, -679.0, 14, 5 },
  { 304, 356.0, 480, 481 },
  { 37, -574.0, 5, 14 },
  { 412, 6725.5, 5, 2 },
  { 424, -3302.5, 483, 486 },
  { 438, -13608.0, 5, 484 },
  { 272, 1413.5, 2, 485 },
  { 213, -6873.5, 5, 2 },
  { 11, 229.0, 487, 494 },
  { 56, -748.0, 488, 492 },
  { 95, -3988.0, 489, 491 },
  { 432, 7120.0, 2, 490 },
  { 372, 7621.5, 2, 5 },
  { 98, -713.0, 5, 2 },
  { 73, 201.5, 493, 5 },
  { 268, -913.5, 5, 14 },
  { 259, -4048.5, 2, 495 },
  { 301, 11189.5, 496, 2 },
  { 94, -7039.0, 2, 497 },
  { 215, 378.5, 498, 5 },
  { 362, -176.0, 5, 14 },
  { 397, -2964.5, 500, 504 },
  { 93, -10815.5, 5, 501 },
  { 382, -3269.5, 502, 503 },
  { 275, 3277.0, 2, 5 },
  { 335, -1162.5, 2, 5 },
  { 358, 259.5, 505, 512 },
  { 331, -494.0, 506, 510 },
  { 179, -3844.5, 2, 507 },
  { 337, -2393.0, 2, 508 },
  { 1, -1201.5, 509, 5 },
  { 70, -1813.0, 5, 14 },
  { 7, -522.0, 5, 511 },
  { 7, 1710.5, 14, 5 },
  { 375, 573.5, 513, 514 },
  { 127, -4410.0, 2, 5 },
  { 9, 3333.5, 2, 515 },
  { 89, 8371.5, 5, 2 },
  { 418, -1692.0, 517, 523 },
  { 357, 11266.5, 518, 5 },
  { 272, 2256.5, 519, 521 },
  { 415, -3369.5, 2, 520 },
  { 245, -3961.5, 2, 5 },
  { 87, 1734.0, 522, 2 },
  { 271, -5262.0, 2, 5 },
  { 418, 149.5, 524, 527 },
  { 131, 249.0, 525, 5 },
  { 122, -648.5, 526, 14 },
  { 249, -2218.0, 2, 5 },
  { 406, 6824.5, 528, 2 },
  { 238, -1295.5, 529, 5 },
  { 60, 2299.5, 2, 530 },
  { 267, 6853.0, 5, 2 },
  { 262, -3839.0, 532, 535 },
  { 235, -6251.5, 2, 533 },
  { 254, -266.0, 2, 534 },
  { 145, -6260.5, 5, 2 },
  { 238, 3475.5, 536, 543 },
  { 179, 468.0, 537, 542 },
  { 209, -239.5, 538, 541 },
  { 71, -5269.0, 2, 539 },
  { 119, -7061.5, 2, 540 },
  { 400, -10632.5, 2, 5 },
  { 132, 1088.0, 14, 5 },
  { 25, -6029.0, 2, 5 },
  { 324, -3392.0, 544, 2 },
  { 139, 9972.0, 5, 2 },
  { 274, -1917.5, 546, 549 },
  { 253, -3851.5, 2, 547 },
  { 263, 1171.0, 548, 5 },
  { 153, 10646.5, 2, 5 },
  { 277, 3548.0, 550, 2 },
  { 128, -690.0, 551, 553 },
  { 233, -3615.5, 552, 5 },
  { 285, 8511.5, 2, 5 },
  { 209, 410.0, 554, 5 },
  { 446, -1122.0, 5, 14 },
  { 241, -3540.0, 556, 559 },
  { 279, 1093.5, 2, 557 },
  { 103, -5730.0, 558, 2 },
  { 217, -11192.0, 2, 5 },
  { 445, -3218.0, 560, 563 },
  { 162, -5971.5, 5, 561 },
  { 326, 1922.0, 2, 562 },
  { 211, 9300.0, 5, 2 },
  { 443, -254.0, 564, 567 },
  { 170, -5159.5, 565, 566 },
  { 358, 1441.0, 2, 5 },
  { 115, 4743.5, 5, 2 },
  { 437, 120.0, 568, 569 },
  { 86, 599.5, 14, 5 },
  { 373, 5549.5, 570, 2 },
  { 380, 159.0, 571, 5 },
  { 375, 1371.0, 14, 5 },
  { 356, -685.5, 573, 579 },
  { 216, 5536.5, 574, 578 },
  { 406, -1286.0, 2, 575 },
  { 209, -3406.0, 576, 577 },
  { 288, 4615.5, 2, 5 },
  { 316, 18088.5, 5, 2 },
  { 51, 2193.0, 2, 5 },
  { 356, 310.5, 580, 583 },
  { 371, -254.0, 5, 581 },
  { 295, -3018.0, 2, 582 },
  { 176, 534.5, 14, 5 },
  { 201, 1463.0, 584, 587 },
  { 18, 2555.5, 585, 2 },
  { 55, -4495.0, 2, 586 },
  { 349, 7027.0, 5, 2 },
  { 441, 8799.5, 2, 5 },
  { 253, -3775.5, 589, 591 },
  { 280, -5741.0, 2, 590 },
  { 83, -539.5, 2, 5 },
  { 22, -3096.5, 592, 595 },
  { 26, 5438.0, 593, 5 },
  { 237, -3028.0, 594, 2 },
  { 20, 2649.0, 2, 5 },
  { 220, 3374.0, 596, 603 },
  { 79, 217.0, 597, 5 },
  { 58, -205.0, 598, 14 },
  { 14, -6006.5, 2, 599 },
  { 91, -386.5, 600, 602 },
  { 163, -1224.0, 5, 601 },
  { 121, -1186.5, 14, 5 },
  { 127, -160.0, 14, 5 },
  { 333, -3120.0, 5, 2 },
  { 439, -3314.5, 605, 608 },
  { 360, -13088.5, 5, 606 },
  { 245, 2589.0, 2, 607 },
  { 300, 582.0, 2, 5 },
  { 194, -4543.0, 609, 610 },
  { 138, 3035.5, 2, 5 },
  { 74, 136.0, 611, 615 },
  { 116, -568.0, 612, 613 },
  { 428, 4008.0, 5, 2 },
  { 331, -627.5, 5, 614 },
  { 433, 16084.5, 14, 2 },
  { 364, 7998.0, 616, 2 },
  { 71, 326.5, 617, 5 },
  { 100, -992.0, 5, 14 },
  { 427, -3307.0, 619, 622 },
  { 387, -13235.0, 5, 620 },
  { 272, 1493.5, 2, 621 },
  { 126, -1780.5, 5, 2 },
  { 419, -276.0, 623, 626 },
  { 167, -3623.0, 624, 625 },
  { 39, 1828.0, 2, 5 },
  { 226, 7024.5, 5, 2 },
  { 281, 412.5, 627, 629 },
  { 194, -1212.0, 628, 14 },
  { 254, -2873.5, 2, 5 },
  { 415, 6140.0, 630, 2 },
  { 404, 7026.5, 5, 2 },
  { 343, -1345.0, 632, 636 },
  { 446, -1262.0, 2, 633 },
  { 439, -4544.0, 634, 635 },
  { 269, 1826.0, 2, 5 },
  { 253, -6582.5, 2, 5 },
  { 301, 222.0, 637, 640 },
  { 374, -285.5, 638, 639 },
  { 254, -3657.0, 2, 5 },
  { 19, 309.5, 14, 5 },
  { 262, 4880.5, 641, 642 },
  { 182, -5980.0, 2, 5 },
  { 282, -3165.0, 643, 2 },
  { 377, -2704.5, 2, 5 },
  { 412, -3042.5, 645, 649 },
  { 309, -15108.0, 5, 646 },
  { 194, 479.5, 2, 647 },
  { 335, 476.5, 2, 648 },
  { 441, -9339.0, 2, 5 },
  { 379, 247.0, 650, 658 },
  { 253, -395.5, 651, 655 },
  { 185, -3951.5, 2, 652 },
  { 292, -1097.5, 5, 653 },
  { 30, 2440.5, 654, 5 },
  { 231, -117.5, 5, 14 },
  { 400, -568.5, 656, 657 },
  { 119, -7167.0, 2, 5 },
  { 84, 5349.5, 14, 5 },
  { 433, 5354.0, 659, 2 },
  { 64, -2959.5, 2, 660 },
  { 37, 3915.5, 5, 2 },
  { 433, -3609.0, 662, 665 },
  { 153, -13829.0, 5, 663 },
  { 353, 1333.0, 2, 664 },
  { 180, -5043.5, 5, 2 },
  { 238, -1674.0, 666, 668 },
  { 143, -315.5, 2, 667 },
  { 442, 773.0, 5, 2 },
  { 383, -109.0, 5, 669 },
  { 299, 589.0, 670, 672 },
  { 383, 347.5, 14, 671 },
  { 97, 479.0, 2, 5 },
  { 229, 3507.0, 5, 2 },
  { 445, -3218.0, 674, 677 },
  { 363, -13201.5, 5, 675 },
  { 371, 1536.5, 2, 676 },
  { 110, 644.0, 2, 5 },
  { 395, -256.5, 678, 681 },
  { 356, -5500.5, 2, 679 },
  { 175, 6867.5, 680, 2 },
  { 116, -6720.5, 2, 5 },
  { 314, 215.0, 682, 683 },
  { 50, -1445.5, 5, 14 },
  { 356, 3429.5, 684, 2 },
  { 262, -18171.5, 2, 5 },
  { 347, -1173.5, 686, 691 },
  { 445, -1875.5, 687, 689 },
  { 320, -1479.0, 2, 688 },
  { 406, -3966.0, 2, 5 },
  { 223, -1953.5, 2, 690 },
  { 20, -5566.5, 2, 5 },
  { 290, 240.0, 692, 696 },
  { 428, -201.5, 693, 694 },
  { 353, -229.5, 5, 14 },
  { 340, -994.0, 695, 14 },
  { 367, -3375.5, 2, 5 },
  { 262, -4015.5, 2, 697 },
  { 301, 5532.5, 698, 2 },
  { 113, 214.5, 699, 5 },
  { 349, -241.0, 5, 14 },
  { 415, -4118.5, 701, 702 },
  { 381, -13216.0, 5, 2 },
  { 121, -3828.0, 2, 703 },
  { 266, 281.5, 704, 708 },
  { 398, -272.0, 705, 707 },
  { 305, -3804.5, 706, 5 },
  { 442, 2059.0, 2, 5 },
  { 389, 820.0, 14, 2 },
  { 400, 11316.5, 709, 2 },
  { 355, -7981.0, 2, 5 },
  { 316, -2338.5, 711, 714 },
  { 313, -4093.0, 2, 712 },
  { 179, -346.5, 2, 713 },
  { 332, -593.0, 2, 5 },
  { 73, -3005.0, 715, 717 },
  { 68, 941.0, 2, 716 },
  { 290, 1490.0, 5, 2 },
  { 55, 228.0, 718, 724 },
  { 52, -210.0, 719, 723 },
  { 245, -5072.0, 2, 720 },
  { 328, 5212.0, 721, 2 },
  { 34, -399.5, 5, 722 },
  { 302, 1676.0, 14, 5 },
  { 355, -624.0, 5, 14 },
  { 217, 3905.0, 725, 2 },
  { 412, 14000.5, 5, 2 },
  { 430, -3379.5, 727, 733 },
  { 384, -13223.0, 728, 729 },
  { 183, -9432.0, 5, 2 },
  { 439, -3314.5, 730, 732 },
  { 359, 1410.5, 2, 731 },
  { 439, -4544.0, 2, 5 },
  { 301, -12935.5, 2, 5 },
  { 382, 263.0, 734, 741 },
  { 352, -121.5, 735, 740 },
  { 164, -4672.0, 2, 736 },
  { 265, -6465.0, 2, 737 },
  { 406, -687.0, 5, 738 },
  { 7, 385.5, 739, 5 },
  { 151, -3025.0, 5, 14 },
  { 284, -677.5, 5, 14 },
  { 445, 3267.0, 742, 743 },
  { 118, -3180.5, 2, 5 },
  { 294, -2290.5, 744, 2 },
  { 153, -5438.5, 2, 5 },
  { 436, -3241.5, 746, 748 },
  { 266, 1468.0, 2, 747 },
  { 9, -3146.0, 5, 2 },
  { 184, -1972.5, 749, 752 },
  { 121, -6201.5, 2, 750 },
  { 103, -5092.0, 5, 751 },
  { 221, 450.0, 2, 5 },
  { 67, 188.5, 753, 757 },
  { 154, -200.0, 754, 755 },
  { 206, -5519.0, 2, 5 },
  { 64, -299.5, 756, 14 },
  { 295, 8360.5, 5, 2 },
  { 439, 5118.5, 5, 2 },
  { 433, -1378.0, 759, 763 },
  { 439, -4091.0, 760, 761 },
  { 63, -13243.0, 5, 2 },
  { 422, -1453.0, 2, 762 },
  { 109, -3377.5, 2, 5 },
  { 52, 199.5, 764, 772 },
  { 28, -452.0, 765, 770 },
  { 4, -4688.5, 2, 766 },
  { 188, -6453.5, 2, 767 },
  { 349, 5102.5, 768, 2 },
  { 397, -683.5, 769, 5 },
  { 8, 421.5, 5, 14 },
  { 268, -1011.5, 771, 14 },
  { 355, 1036.5, 5, 2 },
  { 34, 4683.5, 773, 2 },
  { 229, 3556.5, 5, 2 },
  { 262, -1851.0, 775, 779 },
  { 182, 469.5, 776, 778 },
  { 167, -166.0, 2, 777 },
  { 94, -13111.0, 2, 5 },
  { 274, -3638.0, 2, 5 },
  { 241, 162.5, 780, 786 },
  { 349, -182.0, 781, 784 },
  { 242, -3799.5, 2, 782 },
  { 394, -700.5, 5, 783 },
  { 347, 508.5, 14, 5 },
  { 121, -1246.5, 785, 14 },
  { 208, -1415.5, 2, 5 },
  { 226, 3516.0, 787, 2 },
  { 415, -2288.5, 2, 5 },
  { 268, -1948.5, 789, 791 },
  { 200, 327.5, 2, 790 },
  { 253, -4239.5, 2, 5 },
  { 368, -243.0, 792, 796 },
  { 409, -1741.0, 2, 793 },
  { 218, -3792.0, 794, 795 },
  { 198, 2417.5, 2, 5 },
  { 235, 20384.0, 5, 2 },
  { 269, 301.5, 797, 798 },
  { 447, 3382.0, 14, 2 },
  { 255, 2373.5, 5, 2 },
  { 427, -3307.0, 800, 803 },
  { 438, -16213.0, 5, 801 },
  { 436, -3426.5, 2, 802 },
  { 321, -4682.0, 5, 2 },
  { 193, -3922.0, 2, 804 },
  { 86, 208.0, 805, 810 },
  { 137, -158.0, 806, 808 },
  { 80, -4570.0, 807, 5 },
  { 63, 7423.5, 2, 5 },
  { 365, 736.5, 14, 809 },
  { 149, 1015.5, 5, 2 },
  { 122, 6631.5, 811, 2 },
  { 113, 522.0, 812, 5 },
  { 71, 433.0, 5, 14 },
  { 445, -1928.5, 814, 817 },
  { 394, -5056.0, 2, 815 },
  { 284, -1866.5, 2, 816 },
  { 373, 11629.0, 5, 2 },
  { 433, 309.5, 818, 827 },
  { 421, -148.5, 819, 824 },
  { 7, 10179.5, 820, 2 },
  { 337, -785.0, 821, 822 },
  { 401, 4785.0, 5, 2 },
  { 139, -9.0, 823, 5 },
  { 284, -329.0, 5, 14 },
  { 238, -525.5, 825, 826 },
  { 142, -10959.5, 2, 5 },
  { 429, 1228.0, 14, 5 },
  { 392, 3727.5, 828, 2 },
  { 314, -6084.5, 2, 829 },
  { 145, 4143.0, 830, 2 },
  { 436, 6831.0, 5, 831 },
  { 290, -1130.5, 2, 5 },
  { 415, -3369.5, 833, 835 },
  { 281, 1474.0, 2, 834 },
  { 102, -1777.5, 5, 2 },
  { 311, -5050.0, 2, 836 },
  { 430, -148.5, 837, 840 },
  { 418, -3312.5, 2, 838 },
  { 385, -496.0, 5, 839 },
  { 400, -453.0, 14, 5 },
  { 325, 216.0, 841, 845 },
  { 187, -185.5, 842, 844 },
  { 359, 3098.0, 843, 2 },
  { 350, -2463.0, 2, 5 },
  { 214, 558.5, 14, 5 },
  { 436, 6202.5, 846, 2 },
  { 1, -2841.0, 2, 5 },
  { 385, -2394.0, 848, 853 },
  { 445, -4038.0, 849, 850 },
  { 414, -16534.5, 5, 2 },
  { 227, -300.0, 851, 5 },
  { 233, -1702.0, 2, 852 },
  { 247, -3900.0, 2, 5 },
  { 437, -159.5, 854, 860 },
  { 106, -3889.0, 855, 856 },
  { 29, 3917.5, 2, 5 },
  { 233, 2721.0, 857, 2 },
  { 104, -6770.0, 2, 858 },
  { 425, -248.5, 5, 859 },
  { 413, -96.0, 14, 5 },
  { 407, 268.5, 861, 863 },
  { 136, 879.0, 14, 862 },
  { 58, 6081.0, 5, 2 },
  { 292, 4945.5, 864, 2 },
  { 260, 6086.5, 5, 2 },
  { 439, -3313.5, 866, 870 },
  { 48, -11153.5, 867, 868 },
  { 415, -4942.0, 5, 2 },
  { 326, 1275.5, 2, 869 },
  { 18, -2515.0, 5, 2 },
  { 131, -127.5, 871, 875 },
  { 211, -870.5, 872, 873 },
  { 33, 10374.0, 2, 5 },
  { 415, 3262.0, 874, 2 },
  { 271, -9633.5, 2, 5 },
  { 53, 218.0, 876, 878 },
  { 268, 363.5, 14, 877 },
  { 342, 16.5, 2, 5 },
  { 299, 5562.0, 879, 2 },
  { 448, 3098.5, 880, 2 },
  { 104, 533.0, 881, 5 },
  { 414, 1281.5, 14, 5 },
  { 388, -822.0, 883, 892 },
  { 445, -3286.5, 884, 888 },
  { 138, -14566.0, 5, 885 },
  { 429, -13147.5, 5, 886 },
  { 263, 1450.5, 2, 887 },
  { 379, -6445.5, 2, 5 },
  { 223, -4321.5, 889, 891 },
  { 241, -6307.0, 2, 890 },
  { 90, -176.5, 2, 5 },
  { 43, 16119.5, 5, 2 },
  { 328, 236.0, 893, 897 },
  { 259, -412.5, 894, 896 },
  { 187, -4739.0, 2, 895 },
  { 158, -5013.5, 2, 5 },
  { 269, -869.0, 5, 14 },
  { 379, 3605.0, 898, 899 },
  { 172, -1949.0, 2, 5 },
  { 345, -2019.0, 900, 2 },
  { 266, 2508.0, 5, 2 },
  { 382, -1243.5, 902, 907 },
  { 433, -3609.0, 903, 905 },
  { 134, 1602.0, 2, 904 },
  { 21, -5075.0, 5, 2 },
  { 275, -3317.5, 2, 906 },
  { 355, -5687.0, 2, 5 },
  { 406, 178.5, 908, 912 },
  { 418, -288.0, 909, 911 },
  { 37, -5060.5, 2, 910 },
  { 447, 10299.5, 5, 2 },
  { 377, -616.0, 5, 14 },
  { 214, -5222.0, 2, 913 },
  { 367, 7610.0, 914, 2 },
  { 49, -3828.0, 915, 5 },
  { 208, -3017.0, 5, 2 },
  { 406, -3140.5, 917, 918 },
  { 9, -11770.5, 5, 2 },
  { 397, 300.5, 919, 926 },
  { 280, -405.5, 920, 924 },
  { 129, -1157.5, 921, 922 },
  { 417, -3237.5, 5, 2 },
  { 211, -1124.0, 5, 923 },
  { 167, 382.5, 5, 14 },
  { 163, 137.0, 925, 5 },
  { 380, -1178.5, 5, 14 },
  { 373, 5062.5, 927, 928 },
  { 244, -347.5, 2, 5 },
  { 178, -5.5, 929, 2 },
  { 144, 3970.5, 5, 2 },
  { 403, -3161.0, 931, 932 },
  { 72, -11114.0, 5, 2 },
  { 229, -6412.5, 2, 933 },
  { 125, 247.0, 934, 939 },
  { 47, -680.5, 935, 938 },
  { 184, -1280.5, 936, 937 },
  { 48, 2593.0, 2, 5 },
  { 386, 6228.0, 5, 2 },
  { 216, 696.5, 14, 5 },
  { 337, 9021.0, 5, 940 },
  { 183, -63.5, 5, 2 },
  { 412, -3341.0, 942, 945 },
  { 372, -13228.0, 5, 943 },
  { 242, 2937.5, 2, 944 },
  { 53, 1280.0, 5, 2 },
  { 253, -2289.5, 946, 948 },
  { 409, -2572.5, 947, 2 },
  { 209, -1899.0, 2, 5 },
  { 302, -341.0, 949, 951 },
  { 322, 1924.5, 950, 2 },
  { 118, -3132.5, 2, 5 },
  { 317, 229.0, 952, 953 },
  { 328, 412.0, 14, 5 },
  { 355, 7686.5, 5, 2 },
  { 421, -3362.5, 955, 958 },
  { 351, -16061.5, 5, 956 },
  { 442, -4060.0, 2, 957 },
  { 239, 684.5, 2, 5 },
  { 247, -3691.0, 2, 959 },
  { 38, 197.0, 960, 966 },
  { 65, -684.0, 961, 963 },
  { 340, 2050.5, 962, 2 },
  { 27, -4588.5, 2, 5 },
  { 387, -669.0, 964, 14 },
  { 346, -570.0, 5, 965 },
  { 142, -1275.0, 5, 14 },
  { 232, 3810.5, 967, 2 },
  { 5, 285.5, 968, 5 },
  { 86, 208.0, 14, 5 },
  { 439, -3301.0, 970, 974 },
  { 393, -12686.0, 971, 972 },
  { 297, -13461.5, 2, 5 },
  { 371, 1536.5, 2, 973 },
  { 200, 1274.0, 2, 5 },
  { 172, -4596.5, 975, 977 },
  { 131, -448.5, 2, 976 },
  { 112, -6992.0, 2, 5 },
  { 76, -249.5, 978, 980 },
  { 295, 4855.5, 979, 2 },
  { 206, -5209.5, 2, 5 },
  { 88, 136.5, 981, 982 },
  { 444, -3858.5, 5, 14 },
  { 418, 7156.0, 983, 2 },
  { 37, 16510.0, 5, 2 },
  { 206, -517.5, 985, 990 },
  { 388, -1361.0, 2, 986 },
  { 75, 3108.0, 987, 989 },
  { 131, -3355.0, 2, 988 },
  { 151, -8914.5, 2, 5 },
  { 281, -9146.0, 2, 5 },
  { 200, 146.5, 991, 994 },
  { 313, -476.0, 992, 993 },
  { 385, -4336.0, 2, 5 },
  { 353, -229.0, 5, 14 },
  { 45, 356.0, 995, 997 },
  { 443, -3355.0, 2, 996 },
  { 365, -1946.5, 2, 5 },
  { 254, 1416.0, 998, 2 },
  { 411, 1257.0, 999, 5 },
  { 304, -4402.0, 2, 14 },
  { 403, -3161.0, 1001, 1006 },
  { 441, -13701.0, 5, 1002 },
  { 356, 3565.5, 1003, 1005 },
  { 445, -4038.0, 2, 1004 },
  { 299, -141.5, 2, 5 },
  { 244, -7531.0, 2, 5 },
  { 160, -2824.5, 1007, 1009 },
  { 68, 119.5, 2, 1008 },
  { 288, -16.5, 2, 5 },
  { 196, 172.5, 1010, 1015 },
  { 292, -377.0, 1011, 1014 },
  { 350, 3980.0, 1012, 2 },
  { 223, -1044.5, 5, 1013 },
  { 295, -730.5, 14, 5 },
  { 284, -1253.5, 5, 14 },
  { 442, 9033.0, 1016, 2 },
  { 289, 21204.0, 5, 2 },
  { 430, -3339.0, 1018, 1021 },
  { 72, -11510.0, 5, 1019 },
  { 442, -4068.5, 2, 1020 },
  { 164, 214.5, 2, 5 },
  { 235, -3710.5, 2, 1022 },
  { 439, 173.5, 1023, 1029 },
  { 430, -147.0, 1024, 1027 },
  { 401, 126.0, 1025, 5 },
  { 168, 1291.0, 1026, 5 },
  { 236, -4731.0, 2, 14 },
  { 74, 1776.5, 1028, 5 },
  { 413, -590.5, 5, 14 },
  { 418, 6648.0, 1030, 2 },
  { 22, -5815.0, 2, 5 },
  { 163, -2177.0, 1032, 1037 },
  { 200, 1231.5, 1033, 1036 },
  { 171, 8060.0, 1034, 5 },
  { 404, -787.0, 2, 1035 },
  { 373, -4074.5, 2, 5 },
  { 148, -5217.5, 2, 5 },
  { 106, 4197.0, 1038, 2 },
  { 124, 170.5, 1039, 1047 },
  { 106, -114.5, 1040, 1045 },
  { 104, -6770.0, 2, 1041 },
  { 415, -6438.0, 2, 1042 },
  { 46, -151.5, 1043, 14 },
  { 202, -1175.0, 5, 1044 },
  { 265, -738.5, 14, 5 },
  { 236, -1291.5, 1046, 14 },
  { 164, -4639.0, 2, 5 },
  { 71, -5556.5, 2, 5 },
  { 259, -3522.5, 2, 1049 },
  { 13, -147.5, 1050, 1056 },
  { 43, -5677.0, 2, 1051 },
  { 119, -3851.0, 1052, 1053 },
  { 78, 3075.0, 2, 5 },
  { 43, 593.0, 1054, 2 },
  { 50, -59.0, 1055, 5 },
  { 143, -385.5, 5, 14 },
  { 40, 223.0, 14, 1057 },
  { 268, 4869.5, 1058, 2 },
  { 127, -6945.5, 2, 5 },
  { 283, -2035.5, 1060, 1063 },
  { 333, 8826.0, 1061, 5 },
  { 218, 3184.0, 2, 1062 },
  { 89, 2317.0, 2, 5 },
  { 82, -4318.5, 2, 1064 },
  { 262, 286.5, 1065, 1069 },
  { 241, -366.0, 1066, 1067 },
  { 107, -5629.5, 2, 5 },
  { 397, -179.0, 1068, 14 },
  { 205, -106.0, 14, 5 },
  { 232, 4273.5, 5, 2 },
  { 349, -1607.0, 1071, 1074 },
  { 415, -4296.0, 2, 1072 },
  { 170, -3167.0, 2, 1073 },
  { 292, -6060.0, 2, 5 },
  { 325, 217.5, 1075, 1081 },
  { 268, -410.5, 1076, 1079 },
  { 124, -7403.5, 2, 1077 },
  { 151, -1298.0, 5, 1078 },
  { 19, 508.5, 14, 5 },
  { 449, -949.0, 5, 1080 },
  { 339, -2987.0, 5, 14 },
  { 349, 5196.0, 1082, 1083 },
  { 70, -3646.5, 2, 5 },
  { 327, -3193.0, 1084, 2 },
  { 432, -5814.0, 2, 5 },
  { 328, -1155.0, 1086, 1090 },
  { 155, -117.5, 1087, 1088 },
  { 9, 9126.0, 2, 5 },
  { 326, -1981.0, 2, 1089 },
  { 433, -12747.0, 2, 5 },
  { 340, 236.5, 1091, 1094 },
  { 404, -300.5, 1092, 1093 },
  { 86, -3807.0, 2, 5 },
  { 182, 565.0, 14, 5 },
  { 361, 4581.0, 1095, 2 },
  { 190, -1125.5, 2, 5 },
  { 409, -3243.5, 1097, 1101 },
  { 333, -13017.0, 1098, 1099 },
  { 270, -12698.5, 2, 5 },
  { 439, -4091.0, 2, 1100 },
  { 396, -7287.0, 5, 2 },
  { 365, -5032.0, 2, 1102 },
  { 38, 197.0, 1103, 1107 },
  { 83, -672.0, 1104, 1105 },
  { 371, 4309.0, 5, 2 },
  { 10, -167.0, 1106, 14 },
  { 44, -117.0, 14, 5 },
  { 430, 6786.5, 1108, 2 },
  { 284, 5251.5, 1109, 1111 },
  { 122, 246.5, 1110, 5 },
  { 257, 7.5, 5, 14 },
  { 3, -1749.0, 5, 2 },
  { 250, -3784.5, 1113, 1115 },
  { 276, 1087.5, 2, 1114 },
  { 255, 1835.5, 5, 2 },
  { 122, 491.5, 1116, 1121 },
  { 107, -684.0, 1117, 1119 },
  { 49, -2116.5, 2, 1118 },
  { 425, 1447.5, 5, 2 },
  { 402, -1166.5, 5, 1120 },
  { 11, -1421.5, 2, 14 },
  { 226, 4152.0, 5, 1122 },
  { 149, 2952.5, 5, 2 },
  { 352, -797.5, 1124, 1131 },
  { 335, -882.5, 1125, 1129 },
  { 201, 6163.0, 1126, 1128 },
  { 365, -1385.0, 2, 1127 },
  { 267, 2091.5, 5, 2 },
  { 23, -531.0, 2, 5 },
  { 376, -4597.0, 1130, 5 },
  { 30, -2035.0, 5, 2 },
  { 388, 258.5, 1132, 1136 },
  { 431, -189.5, 1133, 1134 },
  { 172, -5332.0, 2, 5 },
  { 427, -716.5, 1135, 14 },
  { 238, 15809.5, 5, 2 },
  { 373, 3911.0, 1137, 1138 },
  { 226, -1565.0, 2, 5 },
  { 361, 9152.0, 1139, 2 },
  { 393, -302.5, 1140, 2 },
  { 8, -2835.0, 2, 5 },
  { 259, -3522.5, 2, 1142 },
  { 274, 3383.0, 1143, 1151 },
  { 218, 369.0, 1144, 1150 },
  { 143, -488.0, 1145, 1149 },
  { 388, -1687.0, 1146, 1148 },
  { 146, -1202.0, 2, 1147 },
  { 197, -2122.0, 2, 5 },
  { 232, -1019.5, 2, 5 },
  { 422, -291.5, 5, 14 },
  { 79, -4504.5, 2, 5 },
  { 351, -1394.0, 1152, 2 },
  { 423, -4225.0, 2, 5 },
  { 391, -1144.5, 1154, 1161 },
  { 409, -3243.5, 1155, 1159 },
  { 308, 2964.5, 1156, 1158 },
  { 272, 1493.5, 2, 1157 },
  { 68, 1447.0, 2, 5 },
  { 363, -2583.0, 5, 2 },
  { 182, -2962.5, 2, 1160 },
  { 424, -1075.0, 5, 2 },
  { 397, 240.5, 1162, 1168 },
  { 430, -318.0, 1163, 1166 },
  { 406, -5372.0, 2, 1164 },
  { 12, -13.5, 5, 1165 },
  { 393, 1621.5, 14, 5 },
  { 194, -705.5, 1167, 14 },
  { 141, -4128.5, 2, 5 },
  { 361, 3697.0, 1169, 1170 },
  { 104, -5051.0, 2, 5 },
  { 300, -2413.5, 1171, 2 },
  { 12, -12115.5, 2, 5 },
  { 295, -4150.5, 1173, 1175 },
  { 433, -2095.0, 2, 1174 },
  { 262, -6377.5, 2, 5 },
  { 269, -2909.5, 1176, 1180 },
  { 351, 7423.0, 1177, 1179 },
  { 111, 4541.5, 2, 1178 },
  { 50, 6192.0, 5, 2 },
  { 421, -13296.0, 2, 5 },
  { 185, 224.0, 1181, 1184 },
  { 314, -344.0, 1182, 1183 },
  { 391, -3783.0, 2, 5 },
  { 16, 467.0, 14, 5 },
  { 226, 3516.0, 1185, 2 },
  { 211, -5330.0, 2, 5 },
  { 418, -3395.5, 1187, 1190 },
  { 18, -11716.5, 5, 1188 },
  { 400, -4116.5, 2, 1189 },
  { 303, -7018.0, 5, 2 },
  { 232, -3711.5, 1191, 1193 },
  { 424, -2133.5, 1192, 2 },
  { 378, 470.0, 2, 5 },
  { 372, -490.0, 1194, 1197 },
  { 65, -4221.0, 2, 1195 },
  { 45, -1690.5, 5, 1196 },
  { 9, -946.0, 14, 5 },
  { 306, 397.0, 1198, 1201 },
  { 420, 384.0, 14, 1199 },
  { 305, -5468.0, 2, 1200 },
  { 230, -108.5, 5, 14 },
  { 343, 2094.5, 1202, 1206 },
  { 63, 1149.5, 1203, 5 },
  { 343, -791.5, 1204, 1205 },
  { 210, -571.5, 2, 5 },
  { 425, -946.0, 5, 14 },
  { 141, 4136.0, 2, 5 },
  { 277, -1930.5, 1208, 1215 },
  { 161, 1270.0, 1209, 1213 },
  { 402, 9113.0, 1210, 1212 },
  { 107, 584.0, 2, 1211 },
  { 313, -3996.0, 2, 5 },
  { 229, -4802.5, 2, 5 },
  { 190, -3321.5, 2, 1214 },
  { 391, -15239.0, 2, 5 },
  { 371, -248.0, 1216, 1221 },
  { 400, -2885.5, 2, 1217 },
  { 272, -4319.0, 1218, 1219 },
  { 294, 3621.5, 2, 5 },
  { 28, -4872.0, 2, 1220 },
  { 203, 6429.0, 5, 2 },
  { 371, 170.0, 14, 1222 },
  { 202, 3336.0, 5, 2 },
  { 247, -2205.0, 1224, 1228 },
  { 179, 1551.5, 1225, 1227 },
  { 307, -3470.0, 2, 1226 },
  { 365, 11.0, 2, 5 },
  { 235, -4713.0, 2, 5 },
  { 437, -206.5, 1229, 1231 },
  { 73, -5617.5, 2, 1230 },
  { 106, 4429.5, 5, 2 },
  { 446, 277.0, 1232, 1234 },
  { 350, -305.0, 1233, 14 },
  { 280, 17989.0, 5, 2 },
  { 253, 3929.0, 5, 2 },
  { 241, -1835.5, 1236, 1238 },
  { 152, 473.5, 2, 1237 },
  { 417, 1339.5, 2, 5 },
  { 383, -188.5, 1239, 1243 },
  { 323, -5804.0, 2, 1240 },
  { 409, -2578.5, 1241, 1242 },
  { 366, -10151.5, 5, 2 },
  { 158, -6762.5, 2, 5 },
  { 326, 292.5, 1244, 1246 },
  { 293, -625.5, 1245, 14 },
  { 327, -668.0, 5, 2 },
  { 238, 3972.0, 5, 2 },
  { 262, -2176.5, 1248, 1253 },
  { 137, 184.5, 1249, 1251 },
  { 137, -123.0, 2, 1250 },
  { 437, -1354.5, 2, 5 },
  { 373, -4965.5, 2, 1252 },
  { 206, 4824.0, 5, 2 },
  { 347, -229.5, 1254, 1258 },
  { 302, -6086.0, 2, 1255 },
  { 16, -3211.0, 1256, 1257 },
  { 53, 2771.5, 2, 5 },
  { 440, 1805.0, 5, 2 },
  { 302, 353.5, 1259, 1261 },
  { 79, 390.0, 14, 1260 },
  { 115, 3476.0, 5, 2 },
  { 283, 5307.0, 5, 2 },
  { 334, -1388.5, 1263, 1267 },
  { 373, -4104.5, 1264, 1265 },
  { 9, -10623.0, 5, 2 },
  { 155, -2743.0, 2, 1266 },
  { 257, 4210.0, 5, 2 },
  { 337, 264.0, 1268, 1273 },
  { 307, -107.0, 1269, 1272 },
  { 233, -5905.5, 2, 1270 },
  { 170, 530.5, 1271, 5 },
  { 395, -200.5, 5, 14 },
  { 3, -2537.5, 5, 14 },
  { 352, 3769.0, 1274, 1275 },
  { 148, -2219.0, 2, 5 },
  { 333, -2374.5, 1276, 2 },
  { 256, 16122.5, 5, 2 },
  { 253, -2324.0, 1278, 1280 },
  { 256, -3644.0, 2, 1279 },
  { 10, -2685.0, 2, 5 },
  { 7, -3285.5, 1281, 1282 },
  { 253, -2238.0, 5, 2 },
  { 296, 395.5, 1283, 1287 },
  { 341, -199.0, 1284, 1285 },
  { 244, 9192.5, 5, 2 },
  { 58, 1578.0, 14, 1286 },
  { 226, 14941.0, 5, 2 },
  { 328, 7002.0, 5, 2 },
  { 439, -3479.0, 1289, 1292 },
  { 63, -11653.0, 5, 1290 },
  { 430, -4134.0, 2, 1291 },
  { 326, -2390.0, 2, 5 },
  { 173, -3919.0, 1293, 1294 },
  { 315, 6434.0, 2, 5 },
  { 8, 143.0, 1295, 1299 },
  { 50, -689.5, 1296, 1297 },
  { 41, -3543.0, 2, 5 },
  { 123, -3178.0, 5, 1298 },
  { 328, -613.5, 5, 14 },
  { 266, 6204.5, 1300, 2 },
  { 121, -6201.5, 2, 1301 },
  { 424, 10302.0, 1302, 2 },
  { 74, 215.5, 1303, 5 },
  { 404, -276.5, 5, 14 },
  { 344, -1272.5, 1305, 1309 },
  { 165, 8855.0, 1306, 5 },
  { 448, -1900.5, 2, 1307 },
  { 269, -3892.5, 2, 1308 },
  { 212, 1469.0, 5, 2 },
  { 122, 492.0, 1310, 1316 },
  { 155, -200.0, 1311, 1313 },
  { 319, -3354.0, 2, 1312 },
  { 310, 2962.5, 5, 2 },
  { 103, 570.5, 1314, 1315 },
  { 298, -1066.5, 5, 14 },
  { 46, 2001.5, 5, 2 },
  { 1, -4621.0, 2, 1317 },
  { 190, -4284.5, 2, 1318 },
  { 357, 3522.0, 5, 2 },
  { 439, -3301.0, 1320, 1321 },
  { 87, -11049.5, 5, 2 },
  { 211, -231.0, 1322, 1327 },
  { 259, -3509.0, 1323, 1325 },
  { 427, -2111.5, 1324, 2 },
  { 87, -2705.5, 2, 5 },
  { 73, -3434.5, 2, 1326 },
  { 245, -5072.0, 2, 5 },
  { 235, 330.5, 1328, 1332 },
  { 406, -159.5, 1329, 1331 },
  { 34, 17845.0, 1330, 2 },
  { 112, -137.0, 14, 5 },
  { 233, -1127.5, 2, 14 },
  { 310, 5252.0, 5, 1333 },
  { 180, -27.5, 5, 2 },
  { 418, -3366.0, 1335, 1337 },
  { 266, 1468.0, 2, 1336 },
  { 87, -784.5, 5, 2 },
  { 214, -2139.0, 1338, 1340 },
  { 140, -425.5, 2, 1339 },
  { 392, 3916.0, 5, 2 },
  { 227, 316.5, 1341, 1346 },
  { 311, -117.5, 1342, 1344 },
  { 407, -233.0, 1343, 14 },
  { 218, -5596.0, 2, 5 },
  { 163, 203.0, 14, 1345 },
  { 150, 1155.5, 5, 2 },
  { 367, 9919.0, 5, 2 },
  { 379, -1664.5, 1348, 1354 },
  { 185, 1535.5, 1349, 1353 },
  { 300, 11427.5, 1350, 5 },
  { 439, -3040.5, 2, 1351 },
  { 132, 78.0, 2, 1352 },
  { 28, 9679.5, 5, 2 },
  { 326, -23.0, 2, 5 },
  { 221, 411.5, 1355, 1359 },
  { 365, -252.0, 1356, 1358 },
  { 121, -3906.5, 2, 1357 },
  { 35, -6628.5, 2, 5 },
  { 151, 430.5, 14, 2 },
  { 367, 5330.5, 1360, 2 },
  { 310, -3519.5, 2, 5 },
  { 415, -1756.0, 1362, 1366 },
  { 448, -4156.5, 1363, 1364 },
  { 72, -11114.0, 5, 2 },
  { 98, -318.5, 2, 1365 },
  { 200, -92.5, 2, 5 },
  { 368, -200.0, 1367, 1370 },
  { 163, -4765.5, 2, 1368 },
  { 88, -5780.5, 2, 1369 },
  { 239, -5427.0, 2, 5 },
  { 350, 256.0, 1371, 1372 },
  { 256, 2422.5, 14, 2 },
  { 436, 5250.0, 5, 2 },
  { 430, -3379.5, 1374, 1377 },
  { 51, -11964.0, 5, 1375 },
  { 344, 1271.0, 2, 1376 },
  { 221, 1482.5, 2, 5 },
  { 151, -3601.5, 1378, 1380 },
  { 180, 172.5, 2, 1379 },
  { 431, -705.0, 5, 2 },
  { 359, -254.5, 1381, 1382 },
  { 257, -4958.5, 2, 5 },
  { 323, 263.5, 1383, 1384 },
  { 271, -1327.0, 5, 14 },
  { 142, 3347.5, 1385, 2 },
  { 110, -3261.0, 2, 5 },
  { 415, -3353.0, 1387, 1390 },
  { 18, -11716.5, 5, 1388 },
  { 263, 1450.5, 2, 1389 },
  { 386, 907.0, 2, 5 },
  { 412, 140.5, 1391, 1397 },
  { 406, -111.0, 1392, 1395 },
  { 170, -3847.0, 2, 1393 },
  { 38, 115.0, 1394, 5 },
  { 107, -734.0, 5, 14 },
  { 434, 637.5, 14, 1396 },
  { 11, 6677.0, 5, 2 },
  { 190, -1486.0, 2, 1398 },
  { 166, 4576.0, 1399, 2 },
  { 283, 4837.0, 5, 1400 },
  { 118, 2020.5, 2, 5 },
  { 436, -3473.0, 1402, 1406 },
  { 255, -14543.5, 5, 1403 },
  { 72, -11510.0, 5, 1404 },
  { 161, 1491.5, 2, 1405 },
  { 12, -4819.0, 5, 2 },
  { 157, -3538.0, 1407, 1409 },
  { 150, 195.5, 2, 1408 },
  { 306, 3427.0, 5, 2 },
  { 127, 161.0, 1410, 1413 },
  { 160, -235.5, 5, 1411 },
  { 1, -193.0, 1412, 14 },
  { 100, -922.5, 2, 5 },
  { 406, 10017.5, 1414, 2 },
  { 191, -5629.5, 2, 5 },
  { 346, -1279.5, 1416, 1420 },
  { 421, -3193.5, 1417, 1418 },
  { 263, 2977.5, 2, 5 },
  { 304, -3462.5, 1419, 5 },
  { 430, -1970.0, 5, 2 },
  { 391, 335.5, 1421, 1427 },
  { 298, -169.0, 1422, 1423 },
  { 293, -3985.0, 2, 5 },
  { 10, -377.5, 1424, 1425 },
  { 397, -1127.5, 2, 5 },
  { 338, -1279.5, 1426, 14 },
  { 193, 2724.0, 2, 5 },
  { 361, 9152.0, 1428, 2 },
  { 112, -2944.0, 2, 1429 },
  { 409, 6774.0, 5, 2 },
  { 253, -3698.0, 2, 1431 },
  { 359, -225.5, 1432, 1438 },
  { 376, -1885.5, 1433, 1435 },
  { 171, -9671.5, 5, 1434 },
  { 279, 9672.5, 2, 5 },
  { 2, -3722.0, 1436, 1437 },
  { 243, 3768.5, 2, 5 },
  { 208, 11708.5, 5, 2 },
  { 290, 133.5, 1439, 1441 },
  { 343, -1426.5, 1440, 14 },
  { 366, 8794.5, 2, 5 },
  { 208, 3340.0, 1442, 2 },
  { 102, -69.0, 5, 1443 },
  { 411, 863.5, 1444, 5 },
  { 294, 1835.0, 14, 2 },
  { 409, -3243.5, 1446, 1449 },
  { 396, -16574.5, 5, 1447 },
  { 320, 1259.5, 2, 1448 },
  { 219, -7009.0, 5, 2 },
  { 154, -3569.5, 1450, 1452 },
  { 95, -142.0, 2, 1451 },
  { 397, 37.0, 5, 2 },
  { 359, -279.5, 1453, 1455 },
  { 281, -4346.0, 1454, 5 },
  { 434, -3541.5, 5, 2 },
  { 260, 258.5, 1456, 1457 },
  { 34, 522.5, 14, 5 },
  { 199, 3144.0, 1458, 2 },
  { 180, 2098.5, 5, 2 },
  { 442, -3140.5, 1460, 1462 },
  { 299, 879.5, 2, 1461 },
  { 439, -6400.5, 2, 5 },
  { 196, -6554.0, 2, 1463 },
  { 122, 339.5, 1464, 1469 },
  { 95, -193.0, 1465, 1467 },
  { 322, 5141.5, 1466, 2 },
  { 146, -5218.5, 2, 5 },
  { 385, -748.0, 1468, 14 },
  { 75, -4327.0, 2, 5 },
  { 286, 8341.5, 5, 2 },
  { 427, -3307.0, 1471, 1475 },
  { 90, -11247.5, 1472, 1473 },
  { 289, -8139.5, 2, 5 },
  { 326, 1388.0, 2, 1474 },
  { 66, -1659.5, 5, 2 },
  { 184, -2036.5, 1476, 1479 },
  { 393, 8688.5, 1477, 5 },
  { 208, -3138.0, 2, 1478 },
  { 115, -3862.5, 2, 5 },
  { 335, -236.5, 1480, 1482 },
  { 131, -6764.5, 2, 1481 },
  { 310, 20086.0, 5, 2 },
  { 332, 278.0, 1483, 1484 },
  { 228, 1041.5, 14, 5 },
  { 430, 6786.5, 1485, 2 },
  { 130, 18094.0, 5, 2 },
  { 433, -3574.0, 1487, 1489 },
  { 212, 1423.5, 2, 1488 },
  { 51, -4136.0, 5, 2 },
  { 226, -4313.0, 2, 1490 },
  { 146, 217.0, 1491, 1496 },
  { 197, -180.0, 1492, 1494 },
  { 68, -4544.0, 1493, 5 },
  { 1, -230.0, 2, 5 },
  { 329, 1453.0, 14, 1495 },
  { 423, 2333.5, 5, 2 },
  { 274, 5903.5, 5, 2 },
  { 280, -1463.5, 1498, 1503 },
  { 150, 12646.5, 1499, 5 },
  { 164, 862.0, 1500, 1502 },
  { 134, 288.5, 2, 1501 },
  { 289, -3727.0, 2, 5 },
  { 256, -4280.0, 2, 5 },
  { 256, 293.0, 1504, 1510 },
  { 247, -350.5, 1505, 1508 },
  { 406, 1423.5, 1506, 2 },
  { 22, -1409.0, 1507, 5 },
  { 87, -1324.5, 5, 14 },
  { 330, 5820.5, 1509, 5 },
  { 401, 704.5, 14, 5 },
  { 265, 3656.0, 1511, 1512 },
  { 74, -6970.0, 2, 5 },
  { 333, -2374.5, 1513, 2 },
  { 379, 8122.0, 2, 5 },
  { 154, -2308.0, 1515, 1518 },
  { 365, -815.0, 2, 1516 },
  { 33, 1716.0, 1517, 2 },
  { 316, -5121.5, 2, 5 },
  { 157, 3799.5, 1519, 1526 },
  { 4, -161.5, 1520, 1523 },
  { 41, -5849.0, 2, 1521 },
  { 79, 3505.5, 1522, 2 },
  { 256, 4880.0, 5, 2 },
  { 58, 218.5, 1524, 1525 },
  { 306, 1243.5, 14, 5 },
  { 178, -4611.0, 2, 5 },
  { 18, -7460.5, 5, 2 },
  { 406, -2081.5, 1528, 1531 },
  { 421, -3164.5, 1529, 1530 },
  { 72, -11435.5, 5, 2 },
  { 89, -4184.5, 2, 5 },
  { 221, 411.5, 1532, 1538 },
  { 167, -631.0, 1533, 1536 },
  { 114, 2907.5, 1534, 5 },
  { 226, -783.5, 2, 1535 },
  { 179, -2366.5, 2, 5 },
  { 252, -876.0, 1537, 14 },
  { 280, 17398.0, 5, 2 },
  { 349, 9992.0, 1539, 2 },
  { 235, -4589.5, 2, 5 },
  { 259, -3335.5, 1541, 1545 },
  { 143, -110.5, 2, 1542 },
  { 274, -3625.0, 1543, 5 },
  { 402, 1040.0, 2, 1544 },
  { 56, -728.5, 2, 5 },
  { 436, -3426.5, 1546, 1547 },
  { 87, -11033.5, 5, 2 },
  { 140, 272.0, 1548, 1553 },
  { 194, -177.5, 1549, 1551 },
  { 79, -2015.0, 2, 1550 },
  { 17, -5956.5, 2, 5 },
  { 386, 1230.0, 14, 1552 },
  { 329, 5578.0, 5, 2 },
  { 409, 12198.0, 1554, 2 },
  { 201, 795.5, 5, 1555 },
  { 300, 1567.0, 14, 5 },
  { 391, -1132.0, 1557, 1562 },
  { 430, -3663.5, 1558, 1560 },
  { 108, -11084.5, 1559, 2 },
  { 167, 482.5, 2, 5 },
  { 121, -3202.5, 2, 1561 },
  { 179, -5702.5, 2, 5 },
  { 337, 264.0, 1563, 1568 },
  { 328, -92.0, 1564, 1567 },
  { 280, -3172.0, 2, 1565 },
  { 242, 353.5, 1566, 5 },
  { 308, -259.5, 5, 14 },
  { 239, 695.5, 14, 5 },
  { 235, 3378.5, 1569, 1570 },
  { 76, -5590.0, 2, 5 },
  { 282, -3165.0, 5, 2 },
  { 229, -2020.5, 1572, 1576 },
  { 235, -3670.0, 1573, 1575 },
  { 273, 1057.0, 2, 1574 },
  { 273, 1222.0, 5, 2 },
  { 215, -1005.5, 2, 5 },
  { 371, -259.5, 1577, 1580 },
  { 424, -3426.0, 2, 1578 },
  { 238, 20444.0, 1579, 2 },
  { 137, -6773.0, 2, 5 },
  { 215, 324.0, 1581, 1583 },
  { 191, -350.5, 1582, 14 },
  { 272, -2016.0, 2, 5 },
  { 259, 4276.0, 1584, 2 },
  { 211, -2300.0, 2, 5 },
  { 442, -3326.0, 1586, 1588 },
  { 296, 985.0, 2, 1587 },
  { 36, -2604.0, 5, 2 },
  { 259, -3437.0, 1589, 1592 },
  { 256, -3603.0, 1590, 5 },
  { 122, -146.5, 2, 1591 },
  { 410, 2234.5, 5, 2 },
  { 383, -243.0, 1593, 1594 },
  { 290, -6764.5, 2, 5 },
  { 272, 436.0, 1595, 1596 },
  { 278, -1704.0, 2, 14 },
  { 286, 5262.0, 5, 2 },
  { 289, -2084.0, 1598, 1602 },
  { 155, -117.5, 1599, 1600 },
  { 375, 11087.5, 2, 5 },
  { 313, -5511.0, 2, 1601 },
  { 188, 2992.5, 5, 2 },
  { 259, 234.0, 1603, 1610 },
  { 262, -415.0, 1604, 1607 },
  { 329, -2671.5, 2, 1605 },
  { 313, -832.5, 5, 1606 },
  { 397, -663.5, 14, 5 },
  { 403, -166.0, 1608, 14 },
  { 97, -163.0, 1609, 5 },
  { 248, -4501.0, 2, 14 },
  { 216, 76.0, 1611, 1613 },
  { 116, -3770.5, 2, 1612 },
  { 286, 10267.0, 5, 2 },
  { 274, 4393.5, 1614, 2 },
  { 146, -6675.0, 2, 5 },
  { 421, -3362.5, 1616, 1619 },
  { 366, -13222.0, 5, 1617 },
  { 406, -4671.0, 2, 1618 },
  { 374, 1000.5, 2, 5 },
  { 184, -4195.0, 2, 1620 },
  { 368, -219.0, 1621, 1623 },
  { 323, -6178.0, 2, 1622 },
  { 124, -5314.0, 2, 5 },
  { 284, 374.5, 1624, 1626 },
  { 70, 437.5, 1625, 5 },
  { 435, 2044.5, 14, 5 },
  { 427, 5244.0, 5, 2 },
  { 262, -2176.5, 1628, 1630 },
  { 188, 465.5, 2, 1629 },
  { 169, -3977.0, 2, 5 },
  { 262, 2530.5, 1631, 1635 },
  { 347, -244.5, 1632, 1633 },
  { 43, -2392.5, 2, 5 },
  { 335, 281.0, 1634, 5 },
  { 258, 7126.5, 14, 5 },
  { 156, -8508.0, 5, 1636 },
  { 378, -555.5, 1637, 2 },
  { 435, -2227.0, 2, 5 },
  { 424, -3302.5, 1639, 1641 },
  { 275, 1439.0, 2, 1640 },
  { 108, -2442.5, 5, 2 },
  { 134, -622.5, 1642, 1645 },
  { 190, -2203.0, 2, 1643 },
  { 265, 4089.0, 1644, 2 },
  { 182, -6651.5, 2, 5 },
  { 188, 368.0, 1646, 1648 },
  { 347, -216.0, 5, 1647 },
  { 220, -16908.5, 2, 14 },
  { 293, 6845.0, 1649, 2 },
  { 143, 9686.0, 5, 2 },
  { 388, -3401.0, 1651, 1653 },
  { 272, 1413.5, 2, 1652 },
  { 45, -1870.5, 5, 2 },
  { 400, 287.0, 1654, 1661 },
  { 310, -482.5, 1655, 1658 },
  { 106, -6035.5, 2, 1656 },
  { 337, -785.0, 5, 1657 },
  { 248, 727.0, 14, 5 },
  { 26, 379.5, 1659, 1660 },
  { 239, -1355.5, 5, 14 },
  { 11, 9718.0, 5, 2 },
  { 439, 3221.5, 1662, 1664 },
  { 220, -765.0, 2, 1663 },
  { 202, 8830.5, 5, 2 },
  { 12, -7982.0, 5, 2 },
  { 415, -2933.0, 1666, 1671 },
  { 209, 1551.5, 1667, 1670 },
  { 215, 641.5, 2, 1668 },
  { 430, -5610.0, 2, 1669 },
  { 262, -5280.0, 2, 5 },
  { 27, -2292.5, 5, 2 },
  { 244, -3609.0, 1672, 1674 },
  { 448, -1571.0, 1673, 2 },
  { 222, -360.5, 2, 5 },
  { 242, 290.0, 1675, 1678 },
  { 338, -219.0, 1676, 1677 },
  { 19, -3162.5, 2, 5 },
  { 355, -774.5, 5, 14 },
  { 253, 4635.0, 5, 1679 },
  { 297, -2612.5, 5, 2 },
  { 418, -2196.0, 1681, 1686 },
  { 309, -14483.5, 5, 1682 },
  { 406, -4119.5, 2, 1683 },
  { 386, 841.0, 1684, 1685 },
  { 141, 7006.5, 2, 5 },
  { 155, 456.5, 2, 5 },
  { 244, 207.0, 1687, 1695 },
  { 202, -131.5, 1688, 1693 },
  { 439, 839.0, 1689, 2 },
  { 163, -8130.0, 2, 1690 },
  { 179, 422.5, 1691, 5 },
  { 296, -379.0, 5, 1692 },
  { 239, 484.5, 14, 5 },
  { 113, -736.0, 1694, 14 },
  { 185, -6078.5, 2, 5 },
  { 391, 10820.0, 1696, 2 },
  { 2, -5464.5, 2, 5 },
  { 445, -3286.5, 1698, 1702 },
  { 405, -13122.5, 1699, 1700 },
  { 392, -1415.0, 2, 5 },
  { 350, 1453.0, 2, 1701 },
  { 66, -2196.5, 5, 2 },
  { 118, -3745.0, 2, 1703 },
  { 341, -199.0, 1704, 1707 },
  { 365, -6094.5, 2, 1705 },
  { 146, -6781.0, 2, 1706 },
  { 377, 451.5, 5, 2 },
  { 356, 381.5, 14, 1708 },
  { 175, 3735.0, 1709, 2 },
  { 436, 10385.0, 5, 2 },
  { 190, -1411.5, 1711, 1719 },
  { 176, -191.5, 1712, 1714 },
  { 129, 5589.5, 2, 1713 },
  { 344, -1295.5, 2, 5 },
  { 253, -4350.0, 1715, 1717 },
  { 173, -84.5, 1716, 2 },
  { 422, 2389.5, 5, 2 },
  { 30, 10620.0, 1718, 2 },
  { 5, -81.0, 2, 5 },
  { 160, 222.0, 1720, 1727 },
  { 157, -214.5, 1721, 1725 },
  { 353, -2064.0, 1722, 1723 },
  { 84, 7050.5, 2, 5 },
  { 430, -649.5, 5, 1724 },
  { 94, -1329.0, 14, 5 },
  { 277, -881.5, 1726, 14 },
  { 42, -3197.0, 2, 5 },
  { 271, 5049.5, 1728, 2 },
  { 328, -11719.0, 2, 1729 },
  { 236, -8381.5, 2, 5 },
  { 226, -2144.0, 1731, 1733 },
  { 125, 575.5, 2, 1732 },
  { 247, -5022.5, 2, 5 },
  { 353, -229.5, 1734, 1738 },
  { 430, -3292.5, 2, 1735 },
  { 263, -4449.5, 1736, 1737 },
  { 357, 5508.5, 2, 5 },
  { 268, 5223.0, 5, 2 },
  { 317, 229.0, 1739, 1740 },
  { 185, -7116.0, 2, 14 },
  { 247, 4166.0, 1741, 2 },
  { 373, -5610.0, 2, 5 },
  { 259, -3437.0, 1743, 1746 },
  { 246, 855.5, 2, 1744 },
  { 171, 1200.0, 1745, 2 },
  { 320, -1135.5, 2, 5 },
  { 278, -2530.0, 1747, 1750 },
  { 405, 7732.0, 1748, 1749 },
  { 269, -3020.0, 2, 5 },
  { 310, 2074.5, 5, 2 },
  { 134, 294.0, 1751, 1757 },
  { 137, -158.0, 1752, 1756 },
  { 263, 3514.5, 1753, 2 },
  { 334, -3093.0, 2, 1754 },
  { 182, -515.0, 5, 1755 },
  { 209, -363.0, 14, 5 },
  { 179, -113.5, 5, 14 },
  { 223, 4020.0, 1758, 2 },
  { 38, -2488.5, 2, 1759 },
  { 110, 521.5, 1760, 5 },
  { 38, 169.5, 5, 14 },
  { 130, -4018.5, 2, 1762 },
  { 112, 3752.5, 1763, 2 },
  { 401, -238.0, 1764, 1767 },
  { 370, -2763.5, 1765, 1766 },
  { 143, 297.5, 2, 5 },
  { 110, -6730.5, 2, 5 },
  { 446, 328.5, 1768, 1769 },
  { 170, 537.0, 14, 5 },
  { 5, -4937.0, 2, 5 },
  { 379, -2506.5, 1771, 1775 },
  { 141, -13569.5, 5, 1772 },
  { 296, 518.5, 2, 1773 },
  { 292, -3999.0, 2, 1774 },
  { 33, 2668.0, 5, 2 },
  { 385, 164.0, 1776, 1780 },
  { 262, -461.0, 1777, 1778 },
  { 293, -3228.0, 2, 5 },
  { 351, 2503.5, 14, 1779 },
  { 249, 8613.0, 2, 5 },
  { 217, -1780.5, 2, 1781 },
  { 280, 6475.5, 5, 2 },
  { 442, -1938.0, 1783, 1786 },
  { 401, -1134.0, 2, 1784 },
  { 421, -4375.5, 1785, 5 },
  { 36, -9586.0, 5, 2 },
  { 113, -597.5, 1787, 1790 },
  { 154, -2759.0, 2, 1788 },
  { 436, 6831.0, 1789, 2 },
  { 354, -2164.5, 2, 5 },
  { 68, 254.5, 1791, 1794 },
  { 14, 267.0, 1792, 5 },
  { 371, 316.0, 14, 1793 },
  { 296, 2267.0, 5, 2 },
  { 122, 6072.5, 1795, 2 },
  { 103, -5695.0, 2, 1796 },
  { 248, 323.0, 1797, 5 },
  { 65, 655.5, 14, 5 },
  { 277, -2299.5, 1799, 1802 },
  { 262, -3901.5, 2, 1800 },
  { 221, -165.0, 2, 1801 },
  { 16, -4592.5, 2, 5 },
  { 377, -293.0, 1803, 1806 },
  { 347, -3565.0, 1804, 1805 },
  { 326, -4262.5, 2, 5 },
  { 267, -4245.0, 2, 5 },
  { 437, 255.0, 1807, 1809 },
  { 140, 535.0, 14, 1808 },
  { 116, 4120.5, 5, 2 },
  { 253, 3929.0, 5, 2 },
  { 358, -1869.5, 1811, 1817 },
  { 185, 1274.5, 1812, 1815 },
  { 234, 12662.0, 1813, 5 },
  { 334, -2313.5, 2, 1814 },
  { 111, 242.0, 2, 5 },
  { 48, 444.5, 5, 1816 },
  { 400, -1568.5, 2, 5 },
  { 370, 231.0, 1818, 1823 },
  { 268, -524.0, 1819, 1820 },
  { 248, -3710.5, 2, 5 },
  { 326, -985.0, 1821, 1822 },
  { 69, 226.5, 2, 5 },
  { 134, 1134.0, 14, 5 },
  { 79, -3420.5, 2, 1824 },
  { 430, 6177.0, 1825, 2 },
  { 134, 9994.5, 5, 2 },
  { 295, -194.0, 1827, 1833 },
  { 241, -3564.0, 1828, 1830 },
  { 265, -5885.5, 2, 1829 },
  { 89, -325.0, 2, 5 },
  { 272, -2644.0, 2, 1831 },
  { 427, -4524.0, 1832, 5 },
  { 201, -5946.5, 5, 2 },
  { 340, 207.0, 1834, 1836 },
  { 358, -106.0, 1835, 14 },
  { 16, -8925.5, 2, 5 },
  { 352, 9583.5, 1837, 2 },
  { 25, -7267.0, 2, 1838 },
  { 68, -5349.5, 1839, 5 },
  { 10, -1888.5, 2, 5 },
  { 427, -3353.5, 1841, 1842 },
  { 72, -13494.0, 5, 2 },
  { 67, -5536.0, 2, 1843 },
  { 89, 198.0, 1844, 1850 },
  { 176, -154.0, 1845, 1848 },
  { 200, -5196.5, 2, 1846 },
  { 8, -5615.0, 2, 1847 },
  { 143, -664.5, 5, 14 },
  { 391, 510.5, 14, 1849 },
  { 390, 1224.0, 5, 2 },
  { 52, 5922.0, 1851, 2 },
  { 104, 533.0, 1852, 5 },
  { 253, -1070.0, 5, 14 },
  { 124, -2727.0, 1854, 1857 },
  { 371, -696.0, 2, 1855 },
  { 435, 942.0, 2, 1856 },
  { 311, 1467.0, 5, 2 },
  { 94, 3524.5, 1858, 1863 },
  { 356, -273.0, 1859, 1860 },
  { 53, -5036.0, 2, 5 },
  { 242, 290.0, 1861, 1862 },
  { 64, 995.0, 14, 5 },
  { 83, -3813.5, 2, 5 },
  { 190, 1152.0, 1864, 2 },
  { 42, 3203.0, 5, 2 },
  { 250, -1775.0, 1866, 1870 },
  { 227, -300.0, 1867, 1868 },
  { 132, 11324.5, 2, 5 },
  { 235, -6256.0, 2, 1869 },
  { 386, 1230.0, 5, 2 },
  { 256, 275.5, 1871, 1879 },
  { 229, -316.5, 1872, 1874 },
  { 221, -3152.0, 2, 1873 },
  { 268, -406.0, 5, 14 },
  { 442, -149.0, 1875, 1878 },
  { 235, 508.0, 1876, 2 },
  { 190, -85.5, 14, 1877 },
  { 109, -1442.5, 2, 5 },
  { 248, -1230.0, 5, 14 },
  { 448, -2733.0, 2, 1880 },
  { 365, 5502.5, 1881, 2 },
  { 257, -6940.0, 2, 1882 },
  { 44, -5461.5, 2, 5 },
  { 322, -3512.5, 1884, 1889 },
  { 57, -11076.0, 5, 1885 },
  { 316, -3967.5, 1886, 1888 },
  { 349, -4276.0, 2, 1887 },
  { 430, -1216.0, 5, 2 },
  { 119, -1143.5, 2, 5 },
  { 440, -109.5, 1890, 1895 },
  { 332, -5550.0, 2, 1891 },
  { 346, 3025.0, 1892, 2 },
  { 146, -6702.0, 2, 1893 },
  { 374, -143.0, 5, 1894 },
  { 270, -601.0, 5, 14 },
  { 389, 240.5, 1896, 1898 },
  { 447, 1267.0, 14, 1897 },
  { 45, 3437.0, 2, 5 },
  { 274, 4918.0, 5, 2 },
  { 368, -989.0, 1900, 1903 },
  { 253, -1755.0, 2, 1901 },
  { 25, -2467.0, 2, 1902 },
  { 232, 17717.5, 5, 2 },
  { 332, 278.0, 1904, 1908 },
  { 410, -188.5, 1905, 1906 },
  { 67, -11011.0, 2, 5 },
  { 157, 510.5, 14, 1907 },
  { 357, 1427.5, 5, 2 },
  { 24, -181.0, 1909, 1910 },
  { 225, 49.5, 5, 2 },
  { 359, 860.5, 1911, 1912 },
  { 151, -4951.5, 2, 5 },
  { 222, 2106.5, 1913, 2 },
  { 251, 2757.5, 2, 5 },
  { 439, -678.5, 1915, 1921 },
  { 254, 1072.5, 1916, 1919 },
  { 442, -1986.0, 2, 1917 },
  { 247, -2930.0, 1918, 5 },
  { 203, -397.0, 2, 5 },
  { 60, 1989.5, 1920, 2 },
  { 73, 2473.0, 5, 2 },
  { 241, -962.0, 1922, 1924 },
  { 134, 223.5, 2, 1923 },
  { 374, 5279.0, 5, 2 },
  { 388, 167.0, 1925, 1926 },
  { 293, -733.0, 5, 14 },
  { 427, 6524.0, 1927, 2 },
  { 325, 211.5, 1928, 5 },
  { 279, 6468.0, 14, 5 },
  { 295, -3727.5, 1930, 1933 },
  { 316, -5121.5, 1931, 1932 },
  { 3, -11901.5, 5, 2 },
  { 322, -4731.0, 5, 2 },
  { 2, -3438.0, 1934, 1935 },
  { 411, 7437.5, 2, 5 },
  { 11, 229.0, 1936, 1940 },
  { 158, -203.0, 1937, 1938 },
  { 220, -2052.5, 2, 5 },
  { 260, 638.5, 14, 1939 },
  { 437, 6384.5, 5, 2 },
  { 155, 5333.5, 1941, 2 },
  { 109, -9397.5, 2, 1942 },
  { 65, 615.5, 1943, 5 },
  { 348, 1551.5, 1944, 5 },
  { 365, -863.5, 5, 14 },
  { 379, -4168.0, 1946, 1947 },
  { 63, -11245.5, 5, 2 },
  { 410, -248.0, 1948, 1951 },
  { 151, -3031.0, 2, 1949 },
  { 92, 4535.0, 1950, 2 },
  { 98, -6639.0, 2, 5 },
  { 407, 268.5, 1952, 1954 },
  { 43, 327.5, 1953, 5 },
  { 298, -1071.0, 5, 14 },
  { 364, 4605.5, 1955, 2 },
  { 442, 5233.5, 5, 2 },
  { 403, -3049.0, 1957, 1959 },
  { 200, 1499.5, 2, 1958 },
  { 63, -1716.0, 5, 2 },
  { 350, -233.5, 1960, 1962 },
  { 278, -6757.0, 2, 1961 },
  { 26, -4521.0, 2, 5 },
  { 299, 394.0, 1963, 1965 },
  { 262, -1544.5, 5, 1964 },
  { 8, -1176.5, 5, 14 },
  { 287, 4797.5, 1966, 1967 },
  { 91, 8250.0, 5, 2 },
  { 201, -2684.5, 5, 2 },
  { 430, -3679.5, 1969, 1970 },
  { 123, -14461.0, 5, 2 },
  { 220, -4333.0, 2, 1971 },
  { 122, 246.5, 1972, 1977 },
  { 17, -193.0, 1973, 1975 },
  { 22, -2378.0, 2, 1974 },
  { 332, 3785.0, 5, 2 },
  { 443, -456.0, 1976, 14 },
  { 40, 16894.0, 5, 2 },
  { 170, 5299.0, 5, 2 },
  { 439, -3337.5, 1979, 1981 },
  { 390, -13238.5, 1980, 2 },
  { 46, -1200.0, 2, 5 },
  { 208, -2188.0, 1982, 1984 },
  { 137, -47.0, 2, 1983 },
  { 448, 2174.0, 5, 2 },
  { 175, 171.0, 1985, 1991 },
  { 187, -299.0, 1986, 1989 },
  { 287, -2649.0, 2, 1987 },
  { 168, 769.0, 5, 1988 },
  { 429, 6167.5, 14, 5 },
  { 167, -1140.0, 5, 1990 },
  { 28, -626.5, 5, 14 },
  { 262, 4044.0, 1992, 1993 },
  { 181, 11621.5, 5, 2 },
  { 162, 2.5, 5, 2 },
  { 298, -2396.5, 1995, 1999 },
  { 269, 173.5, 2, 1996 },
  { 220, -3768.5, 2, 1997 },
  { 320, 2982.0, 1998, 2 },
  { 85, -3882.5, 2, 5 },
  { 325, 216.0, 2000, 2007 },
  { 352, -172.0, 2001, 2005 },
  { 206, -4963.5, 2, 2002 },
  { 154, 14248.0, 2003, 2 },
  { 349, -316.0, 5, 2004 },
  { 289, -150.0, 14, 5 },
  { 282, -824.5, 2006, 14 },
  { 53, -1327.5, 2, 5 },
  { 364, 3717.5, 2008, 2 },
  { 58, -1659.0, 2, 2009 },
  { 212, 10734.0, 5, 2 },
  { 415, -3370.0, 2011, 2014 },
  { 54, -11025.0, 5, 2012 },
  { 400, -4877.5, 2, 2013 },
  { 341, 429.0, 2, 5 },
  { 293, -3985.0, 2015, 2016 },
  { 336, 6569.5, 2, 5 },
  { 401, -352.0, 2017, 2018 },
  { 394, 10165.5, 5, 2 },
  { 329, 427.5, 2019, 2020 },
  { 19, 497.0, 14, 5 },
  { 442, 4392.5, 5, 2 },
  { 415, -3383.0, 2022, 2025 },
  { 354, -13184.0, 5, 2023 },
  { 365, 1524.5, 2, 2024 },
  { 255, -5435.5, 5, 2 },
  { 166, -3511.0, 2026, 2028 },
  { 178, -7159.5, 2, 2027 },
  { 10, -4049.5, 2, 5 },
  { 131, 249.0, 2029, 2033 },
  { 113, -597.5, 2030, 2032 },
  { 14, -4869.0, 2, 2031 },
  { 311, 3310.0, 5, 2 },
  { 362, -247.0, 5, 14 },
  { 397, 12706.0, 5, 2 },
  { 337, -2406.5, 2035, 2040 },
  { 351, -13214.5, 5, 2036 },
  { 248, 2915.5, 2037, 2039 },
  { 430, -3201.5, 2, 2038 },
  { 179, -160.0, 2, 5 },
  { 43, -4185.0, 2, 5 },
  { 106, -2856.5, 2, 2041 },
  { 64, 199.0, 2042, 2047 },
  { 112, -194.0, 2043, 2046 },
  { 1, -3349.0, 2, 2044 },
  { 213, 966.5, 5, 2045 },
  { 153, 1305.0, 14, 5 },
  { 363, -2489.5, 5, 14 },
  { 142, 4344.0, 2048, 2 },
  { 376, 11856.5, 5, 2 },
  { 436, -1661.0, 2050, 2056 },
  { 257, 1095.0, 2051, 2054 },
  { 345, 11354.5, 2052, 5 },
  { 257, 490.0, 2, 2053 },
  { 14, 286.5, 2, 5 },
  { 72, 1896.5, 2055, 2 },
  { 359, -3290.5, 2, 5 },
  { 437, -206.5, 2057, 2062 },
  { 184, -2187.0, 2, 2058 },
  { 286, 10696.0, 2059, 2 },
  { 116, -6720.5, 2, 2060 },
  { 401, -332.5, 5, 2061 },
  { 368, 113.0, 14, 5 },
  { 329, 279.5, 2063, 2065 },
  { 323, -466.0, 2064, 14 },
  { 394, 2752.5, 5, 2 },
  { 437, 5690.5, 2066, 2 },
  { 190, -7230.0, 2, 5 },
  { 244, -2303.5, 2068, 2071 },
  { 158, 399.0, 2, 2069 },
  { 193, -3641.5, 2, 2070 },
  { 16, -4592.5, 2, 5 },
  { 244, 3786.5, 2072, 2 },
  { 425, -130.5, 2073, 2076 },
  { 43, -2392.5, 2074, 2075 },
  { 140, -1208.5, 2, 5 },
  { 404, -271.0, 5, 14 },
  { 431, 175.5, 2077, 2078 },
  { 367, -859.0, 5, 14 },
  { 148, 5168.5, 5, 2 },
  { 448, -3289.5, 2080, 2083 },
  { 436, -3420.5, 2081, 5 },
  { 368, 1536.5, 2, 2082 },
  { 180, -2903.5, 5, 2 },
  { 247, -3691.0, 2084, 2086 },
  { 102, -170.5, 2, 2085 },
  { 406, 825.5, 5, 2 },
  { 341, -205.5, 2087, 2088 },
  { 115, -3842.5, 2, 5 },
  { 341, 169.5, 2089, 2090 },
  { 103, -1718.0, 5, 14 },
  { 241, 3946.5, 2091, 2 },
  { 448, 14163.5, 5, 2 },
  { 250, -3692.0, 2093, 2095 },
  { 324, 1155.5, 2, 2094 },
  { 321, 1405.5, 5, 2 },
  { 433, -3483.0, 2096, 2097 },
  { 144, -6998.5, 5, 2 },
  { 178, 137.0, 2098, 2103 },
  { 247, -396.5, 2099, 2102 },
  { 443, -2174.0, 2, 2100 },
  { 265, -939.5, 5, 2101 },
  { 100, -1357.5, 14, 5 },
  { 419, -399.0, 5, 14 },
  { 406, 9715.5, 5, 2 },
  { 439, -3301.0, 2105, 2108 },
  { 312, -15195.5, 5, 2106 },
  { 257, 1495.5, 2, 2107 },
  { 439, -6514.0, 2, 5 },
  { 136, -4144.5, 2109, 2111 },
  { 237, 547.0, 2, 2110 },
  { 187, -7514.5, 2, 5 },
  { 230, 237.5, 2112, 2118 },
  { 194, -177.5, 2113, 2117 },
  { 281, 1507.5, 2114, 2 },
  { 50, -5035.0, 2, 2115 },
  { 422, -199.0, 5, 2116 },
  { 149, -714.5, 5, 14 },
  { 155, 272.5, 14, 5 },
  { 351, 2586.5, 2119, 2 },
  { 277, 9361.5, 5, 2 },
  { 388, -1960.5, 2121, 2127 },
  { 24, -11626.0, 2122, 2123 },
  { 88, -4856.0, 2, 5 },
  { 346, -3951.0, 2124, 2126 },
  { 448, -1664.0, 2, 2125 },
  { 313, -5448.5, 2, 5 },
  { 323, -1705.0, 2, 5 },
  { 376, 9613.0, 2128, 2 },
  { 336, -673.5, 2129, 2132 },
  { 308, -3031.5, 2, 2130 },
  { 170, -61.5, 2131, 5 },
  { 275, -207.0, 5, 14 },
  { 381, 1228.0, 2133, 2137 },
  { 176, -480.5, 2134, 2135 },
  { 55, -10680.0, 2, 5 },
  { 230, 395.5, 14, 2136 },
  { 355, 1039.5, 5, 2 },
  { 39, -811.0, 2, 5 },
  { 292, -2067.5, 2139, 2142 },
  { 268, -4057.5, 2, 2140 },
  { 1, -2911.0, 2, 2141 },
  { 191, -183.5, 2, 5 },
  { 344, -191.0, 2143, 2148 },
  { 287, -3052.0, 2144, 2147 },
  { 384, 7739.5, 2145, 5 },
  { 183, 4269.0, 2, 2146 },
  { 245, -3498.5, 5, 2 },
  { 49, -5581.5, 2, 5 },
  { 326, 271.5, 2149, 2150 },
  { 276, 5081.5, 14, 2 },
  { 284, 4738.5, 5, 2151 },
  { 340, 6729.5, 5, 2 },
  { 382, -3425.0, 2153, 2156 },
  { 48, -12828.0, 5, 2154 },
  { 296, 3165.5, 2, 2155 },
  { 218, 1751.5, 2, 5 },
  { 85, -6281.5, 2, 2157 },
  { 19, 187.5, 2158, 2162 },
  { 127, -342.5, 2159, 2160 },
  { 32, -5536.5, 2, 5 },
  { 353, 640.5, 14, 2161 },
  { 280, 3950.5, 5, 2 },
  { 67, 4571.5, 2163, 2 },
  { 370, 11141.0, 5, 2 },
  { 415, -2919.5, 2165, 2169 },
  { 447, -13845.5, 5, 2166 },
  { 173, 1380.5, 2, 2167 },
  { 380, 1047.5, 2, 2168 },
  { 346, -19010.0, 2, 5 },
  { 422, -319.0, 2170, 2175 },
  { 302, -6096.5, 2, 2171 },
  { 254, 2554.0, 2172, 2 },
  { 131, -6764.5, 2, 2173 },
  { 145, -3252.0, 2174, 5 },
  { 73, -4667.5, 5, 2 },
  { 443, 157.5, 2176, 2177 },
  { 446, -1607.5, 2, 14 },
  { 367, 5565.0, 2178, 2 },
  { 296, 5498.5, 2179, 2 },
  { 275, 283.0, 2180, 5 },
  { 73, 82.5, 14, 5 },
  { 304, -2392.0, 2182, 2187 },
  { 262, -3902.0, 2183, 2186 },
  { 304, -5376.5, 2, 2184 },
  { 101, -521.0, 2, 2185 },
  { 248, 2814.0, 5, 2 },
  { 179, -297.5, 2, 5 },
  { 395, -162.0, 2188, 2193 },
  { 34, -5810.5, 2, 2189 },
  { 10, 5140.5, 2190, 2 },
  { 223, 4020.0, 2191, 2192 },
  { 92, -4899.5, 2, 5 },
  { 56, 2272.0, 5, 2 },
  { 395, 234.5, 2194, 2195 },
  { 96, -1587.0, 5, 14 },
  { 331, 6537.0, 5, 2 },
  { 412, -1749.0, 2197, 2201 },
  { 430, -4134.0, 2198, 2199 },
  { 264, -14600.5, 5, 2 },
  { 164, -326.5, 2200, 5 },
  { 444, 9140.0, 2, 5 },
  { 446, -163.5, 2202, 2205 },
  { 229, -1887.5, 2, 2203 },
  { 62, 5329.5, 2204, 2 },
  { 107, -5858.5, 2, 5 },
  { 209, 372.5, 2206, 2208 },
  { 200, -812.0, 2207, 14 },
  { 152, -3259.5, 2, 5 },
  { 311, 6604.0, 2209, 2 },
  { 331, 16126.5, 5, 2 },
  { 427, -1218.0, 2211, 2215 },
  { 388, -4115.0, 2212, 2213 },
  { 351, -13214.5, 5, 2 },
  { 221, -1816.0, 2, 2214 },
  { 149, 3230.5, 5, 2 },
  { 427, 155.5, 2216, 2222 },
  { 424, -160.5, 2217, 2220 },
  { 118, -5020.0, 2, 2218 },
  { 415, -642.5, 5, 2219 },
  { 191, 412.5, 14, 5 },
  { 104, -366.5, 2221, 14 },
  { 38, -227.0, 2, 5 },
  { 382, 10517.0, 2223, 2 },
  { 259, -547.5, 2224, 2225 },
  { 98, 2463.0, 2, 5 },
  { 11, -5602.0, 2, 5 },
  { 442, -3184.5, 2227, 2230 },
  { 66, -10903.5, 5, 2228 },
  { 439, -4108.5, 2, 2229 },
  { 161, 251.0, 2, 5 },
  { 148, -3700.5, 2231, 2233 },
  { 116, -330.0, 2, 2232 },
  { 169, -7195.5, 2, 5 },
  { 61, 200.5, 2234, 2238 },
  { 52, -210.0, 2235, 2237 },
  { 319, 14916.0, 2236, 2 },
  { 152, -6117.0, 2, 5 },
  { 76, 205.0, 14, 5 },
  { 70, 3637.5, 2239, 2 },
  { 428, 7223.0, 5, 2 },
  { 436, -2007.0, 2241, 2245 },
  { 54, -11889.0, 5, 2242 },
  { 306, 11276.5, 2243, 5 },
  { 419, 1410.5, 2, 2244 },
  { 424, -4630.5, 2, 5 },
  { 199, -3045.0, 2, 2246 },
  { 101, 244.5, 2247, 2252 },
  { 203, -173.0, 2248, 2250 },
  { 160, 2105.0, 2249, 2 },
  { 184, -2122.0, 2, 5 },
  { 156, 1087.5, 14, 2251 },
  { 49, 3832.5, 5, 2 },
  { 154, 4398.0, 5, 2 },
  { 421, -3316.5, 2254, 2255 },
  { 189, -14353.0, 5, 2 },
  { 206, -3970.0, 2256, 2257 },
  { 78, 8263.0, 2, 5 },
  { 326, -154.5, 2258, 2260 },
  { 286, 21179.0, 2259, 2 },
  { 338, -203.5, 5, 14 },
  { 275, 451.0, 2261, 2262 },
  { 20, -1062.0, 5, 14 },
  { 227, 4703.0, 2263, 2 },
  { 329, 4723.5, 5, 2 },
  { 244, -3695.5, 2, 2265 },
  { 398, -157.5, 2266, 2270 },
  { 287, -4297.5, 2267, 2268 },
  { 354, 7453.5, 2, 5 },
  { 418, -5885.0, 2, 2269 },
  { 160, -3636.5, 2, 5 },
  { 425, 187.0, 2271, 2272 },
  { 2, 436.5, 14, 5 },
  { 130, 3688.5, 2273, 2 },
  { 394, 8543.5, 2274, 2 },
  { 67, -4034.0, 2, 5 },
  { 445, -3623.5, 2276, 2278 },
  { 360, -12861.5, 2277, 2 },
  { 241, -9711.0, 2, 5 },
  { 173, -2803.5, 2279, 2280 },
  { 114, 2963.5, 2, 5 },
  { 443, -95.5, 2281, 2285 },
  { 218, 3296.5, 2282, 2 },
  { 305, -4542.5, 2, 2283 },
  { 386, -229.5, 5, 2284 },
  { 380, 13.0, 14, 5 },
  { 317, 229.0, 2286, 2287 },
  { 106, 192.5, 14, 5 },
  { 196, -4896.0, 2, 2288 },
  { 187, 3143.5, 2289, 2 },
  { 341, 294.0, 14, 5 },
  { 406, -3140.5, 2291, 2297 },
  { 102, -11108.5, 2292, 2293 },
  { 40, -9416.0, 2, 5 },
  { 266, 3009.0, 2294, 2296 },
  { 403, -3350.5, 2, 2295 },
  { 90, -1047.5, 2, 5 },
  { 321, -2747.0, 5, 2 },
  { 196, -3846.5, 2298, 2299 },
  { 406, -2572.0, 5, 2 },
  { 84, -241.0, 2300, 2303 },
  { 79, -4610.5, 2, 2301 },
  { 128, 78.5, 2302, 5 },
  { 152, -147.0, 5, 14 },
  { 105, 372.5, 2304, 2306 },
  { 404, -1100.0, 2305, 14 },
  { 386, -2930.0, 2, 5 },
  { 235, 3186.0, 2307, 2 },
  { 423, 1223.5, 2308, 5 },
  { 261, 586.0, 5, 2309 },
  { 75, 4296.0, 14, 2 },
  { 430, -3379.5, 2311, 2313 },
  { 442, -3258.5, 2, 2312 },
  { 285, -1738.0, 5, 2 },
  { 386, -244.5, 2314, 2316 },
  { 209, -5047.5, 2, 2315 },
  { 382, 10095.0, 5, 2 },
  { 404, 276.5, 2317, 2320 },
  { 175, 472.0, 2318, 2319 },
  { 128, 815.0, 14, 5 },
  { 321, -65.0, 5, 2 },
  { 374, 3946.5, 5, 2321 },
  { 324, -2325.0, 5, 2 },
  { 253, -3759.5, 2, 2323 },
  { 445, -3218.0, 2324, 2327 },
  { 225, -9440.5, 5, 2325 },
  { 362, 1717.0, 2, 2326 },
  { 402, 3954.5, 5, 2 },
  { 254, 312.5, 2328, 2332 },
  { 347, -209.0, 2329, 2331 },
  { 4, -3354.0, 2, 2330 },
  { 110, 7996.5, 5, 2 },
  { 227, -148.5, 5, 14 },
  { 313, 7856.0, 5, 2333 },
  { 279, -3067.5, 5, 2 },
  { 244, -2137.0, 2335, 2338 },
  { 128, -136.0, 2, 2336 },
  { 280, -5721.0, 2, 2337 },
  { 10, -3943.0, 2, 5 },
  { 341, -195.0, 2339, 2343 },
  { 290, -6522.5, 2, 2340 },
  { 232, 3751.0, 2341, 2 },
  { 212, -3293.0, 2342, 5 },
  { 386, -2716.0, 5, 2 },
  { 347, 262.0, 2344, 2346 },
  { 337, -2862.0, 2345, 14 },
  { 186, -2677.0, 5, 2 },
  { 235, 3922.5, 2347, 2 },
  { 31, -4079.0, 2, 5 },
  { 340, -1544.0, 2349, 2354 },
  { 418, -4080.0, 2, 2350 },
  { 160, -3058.5, 2351, 2353 },
  { 267, 954.5, 2, 2352 },
  { 278, -2611.0, 2, 5 },
  { 219, 11970.5, 5, 2 },
  { 355, 202.5, 2355, 2361 },
  { 361, -138.0, 2356, 2359 },
  { 49, -7160.0, 2, 2357 },
  { 347, -244.5, 5, 2358 },
  { 236, 458.0, 14, 5 },
  { 32, -273.5, 2360, 14 },
  { 384, 5549.5, 2, 5 },
  { 283, 6346.0, 2362, 2 },
  { 211, -1902.5, 2, 2363 },
  { 43, -7458.0, 2, 5 },
  { 421, -3270.5, 2365, 2368 },
  { 117, -11251.0, 5, 2366 },
  { 356, 1506.0, 2, 2367 },
  { 12, -609.5, 5, 2 },
  { 449, -184.0, 2369, 2372 },
  { 311, -6322.0, 2, 2370 },
  { 323, 3514.5, 2371, 2 },
  { 49, -5548.5, 2, 5 },
  { 248, 274.5, 2373, 2374 },
  { 188, -231.0, 5, 14 },
  { 412, 11462.5, 2375, 2 },
  { 251, 4497.0, 5, 2 },
  { 328, -960.5, 2377, 2380 },
  { 379, -4168.0, 2, 2378 },
  { 188, -2955.0, 2, 2379 },
  { 389, 4124.0, 5, 2 },
  { 358, 183.5, 2381, 2385 },
  { 75, 1156.5, 2382, 2384 },
  { 395, 290.0, 2383, 5 },
  { 5, 739.0, 14, 5 },
  { 312, -2497.0, 2, 5 },
  { 280, 3764.0, 2386, 2 },
  { 211, -1352.5, 2387, 5 },
  { 366, -4365.0, 5, 2 },
  { 340, -1515.0, 2389, 2395 },
  { 305, 596.0, 2390, 2393 },
  { 0, 9369.5, 2391, 5 },
  { 418, -2895.5, 2, 2392 },
  { 237, 192.5, 2, 5 },
  { 259, -4684.5, 2, 2394 },
  { 102, 2315.5, 5, 2 },
  { 316, 280.0, 2396, 2402 },
  { 441, 1297.0, 2397, 2401 },
  { 429, -633.5, 2398, 2400 },
  { 164, -71.0, 2399, 5 },
  { 162, 4466.5, 14, 2 },
  { 239, -4258.5, 2, 14 },
  { 416, 8679.5, 5, 2 },
  { 262, 4880.5, 2403, 2 },
  { 139, -3052.5, 2, 5 },
  { 274, -1917.5, 2405, 2410 },
  { 375, -13223.0, 5, 2406 },
  { 123, 13622.0, 2407, 5 },
  { 149, 651.5, 2, 2408 },
  { 349, -5303.0, 2, 2409 },
  { 398, 6147.0, 5, 2 },
  { 341, -226.0, 2411, 2415 },
  { 329, -5607.0, 2, 2412 },
  { 13, -3241.5, 2413, 2414 },
  { 269, 457.0, 2, 5 },
  { 164, 2720.0, 5, 2 },
  { 317, 229.0, 2416, 2417 },
  { 118, 7340.5, 14, 2 },
  { 275, 3637.0, 5, 2 },
  { 307, -2452.5, 2419, 2422 },
  { 161, 560.0, 2, 2420 },
  { 424, -6770.0, 2, 2421 },
  { 232, -4752.0, 2, 5 },
  { 196, 182.0, 2423, 2429 },
  { 205, -141.0, 2424, 2428 },
  { 251, -5017.0, 2, 2425 },
  { 25, 15946.5, 2426, 2 },
  { 141, 150.5, 5, 2427 },
  { 366, 1579.0, 14, 5 },
  { 437, 456.0, 14, 5 },
  { 316, 5107.0, 2430, 2431 },
  { 427, -3445.0, 2, 5 },
  { 183, -592.5, 5, 2 },
  { 100, -3390.5, 2433, 2435 },
  { 89, 3589.0, 2, 2434 },
  { 73, -6516.0, 2, 5 },
  { 76, 2869.0, 2436, 2444 },
  { 7, -174.5, 2437, 2442 },
  { 137, -3427.5, 2438, 2439 },
  { 350, -4493.5, 5, 2 },
  { 10, -3716.0, 2, 2440 },
  { 224, 343.5, 2441, 5 },
  { 272, -101.5, 5, 14 },
  { 70, 222.5, 14, 2443 },
  { 346, -4201.5, 2, 5 },
  { 82, 3747.0, 2445, 2446 },
  { 103, 4116.0, 5, 2 },
  { 91, 4722.5, 2447, 2 },
  { 48, 1735.5, 2, 5 },
  { 301, -1947.0, 2449, 2452 },
  { 364, -4155.0, 2, 2450 },
  { 161, 188.0, 2451, 5 },
  { 155, -262.5, 2, 5 },
  { 431, -107.5, 2453, 2459 },
  { 97, -2365.5, 2454, 2456 },
  { 128, 3861.0, 2, 2455 },
  { 122, 8140.5, 5, 2 },
  { 118, 4817.0, 2457, 2 },
  { 392, -323.0, 5, 2458 },
  { 290, 224.0, 14, 5 },
  { 437, 255.0, 2460, 2461 },
  { 73, 195.0, 14, 5 },
  { 313, 5321.0, 5, 2 },
  { 220, -2055.0, 2463, 2467 },
  { 262, -3650.0, 2464, 2466 },
  { 306, 1069.0, 2, 2465 },
  { 165, 797.0, 5, 2 },
  { 332, -543.0, 2, 5 },
  { 436, -3616.5, 2468, 2469 },
  { 375, -11494.5, 5, 2 },
  { 436, 3172.0, 2470, 2 },
  { 224, 388.0, 2471, 5 },
  { 122, -476.0, 2472, 2473 },
  { 107, -6752.5, 2, 5 },
  { 365, -252.0, 5, 14 },
  { 307, -2452.5, 2475, 2481 },
  { 167, 1258.5, 2476, 2478 },
  { 197, -146.5, 2, 2477 },
  { 328, -4820.5, 2, 5 },
  { 313, -4221.0, 2479, 5 },
  { 117, -2317.5, 2480, 2 },
  { 377, -2570.0, 2, 5 },
  { 319, 218.0, 2482, 2488 },
  { 235, -92.0, 2483, 2486 },
  { 149, -4218.0, 2, 2484 },
  { 286, -427.0, 5, 2485 },
  { 175, -264.0, 5, 14 },
  { 361, -175.5, 2487, 14 },
  { 55, -3815.5, 2, 5 },
  { 265, 5062.5, 2489, 2 },
  { 133, -3545.5, 2, 5 },
  { 400, -3139.0, 2491, 2494 },
  { 132, -13737.5, 5, 2492 },
  { 427, -3875.0, 2, 2493 },
  { 134, -208.0, 2, 5 },
  { 130, -3785.5, 2, 2495 },
  { 64, 153.0, 2496, 2500 },
  { 61, -247.5, 2497, 14 },
  { 193, 1137.0, 2498, 2 },
  { 32, -6622.5, 2, 2499 },
  { 97, -401.5, 5, 14 },
  { 376, 9613.0, 2501, 2 },
  { 124, 15336.0, 5, 2 },
  { 436, -3473.0, 2503, 2506 },
  { 72, -13494.0, 5, 2504 },
  { 149, 1634.5, 2, 2505 },
  { 196, 4152.0, 5, 2 },
  { 244, -3695.5, 2507, 2509 },
  { 107, -254.0, 2, 2508 },
  { 86, 743.0, 5, 2 },
  { 383, -250.5, 2510, 2513 },
  { 278, -7555.0, 2, 2511 },
  { 8, -5228.0, 2512, 5 },
  { 84, 5838.0, 2, 5 },
  { 353, 209.5, 2514, 2515 },
  { 109, 159.5, 14, 5 },
  { 358, 7583.0, 5, 2 },
  { 415, -2571.5, 2517, 2520 },
  { 338, 498.5, 2, 2518 },
  { 385, -4204.5, 2, 2519 },
  { 327, -1969.0, 2, 5 },
  { 217, -3667.5, 2521, 2522 },
  { 415, -2172.0, 5, 2 },
  { 218, 241.5, 2523, 2527 },
  { 284, -504.5, 2524, 2525 },
  { 187, -2130.5, 2, 5 },
  { 109, 1316.0, 14, 2526 },
  { 156, 812.0, 5, 2 },
  { 349, 9992.0, 2528, 2 },
  { 191, 367.5, 14, 5 },
  { 382, -2118.0, 2530, 2535 },
  { 242, -285.5, 2531, 2533 },
  { 349, -2615.5, 2, 2532 },
  { 133, -1064.5, 2, 5 },
  { 388, -4749.0, 2, 2534 },
  { 424, -1238.5, 5, 2 },
  { 394, 201.5, 2536, 2541 },
  { 376, -366.0, 2537, 2538 },
  { 302, -4901.5, 2, 5 },
  { 112, -85.0, 2539, 14 },
  { 28, -626.5, 5, 2540 },
  { 276, -3486.0, 2, 14 },
  { 239, 4590.0, 2542, 2 },
  { 277, -503.0, 2, 2543 },
  { 443, 4021.5, 2544, 2 },
  { 304, 15941.0, 2545, 2 },
  { 19, -6057.0, 2, 5 },
  { 220, -2072.5, 2547, 2549 },
  { 179, 1551.5, 2, 2548 },
  { 188, 1761.5, 5, 2 },
  { 442, -3717.0, 2550, 2551 },
  { 435, -14053.5, 5, 2 },
  { 374, -298.5, 2552, 2553 },
  { 338, -5980.5, 2, 5 },
  { 383, 219.0, 2554, 2555 },
  { 39, -1594.5, 5, 14 },
  { 160, 2197.5, 2556, 2 },
  { 415, 7876.0, 2557, 2 },
  { 425, 212.0, 14, 5 },
  { 271, -3572.0, 2, 2559 },
  { 284, -3777.5, 2560, 2563 },
  { 201, 5327.0, 2561, 5 },
  { 249, 4831.0, 2, 2562 },
  { 368, -5390.5, 2, 5 },
  { 286, -367.0, 5, 2564 },
  { 172, 131.5, 2565, 2568 },
  { 157, -192.5, 2566, 14 },
  { 166, -939.5, 2567, 5 },
  { 35, 2031.0, 2, 5 },
  { 211, 3318.5, 5, 2 },
  { 289, -1825.5, 2570, 2572 },
  { 250, -3692.0, 2, 2571 },
  { 230, 490.0, 2, 5 },
  { 253, 4317.0, 2573, 2577 },
  { 329, -185.5, 2574, 2576 },
  { 215, -3813.5, 2575, 5 },
  { 333, 5778.5, 2, 5 },
  { 320, 235.0, 14, 5 },
  { 129, 650.5, 2578, 2 },
  { 129, 422.0, 2, 5 },
  { 139, -3327.5, 2580, 2583 },
  { 356, 525.0, 2, 2581 },
  { 160, -5117.0, 2, 2582 },
  { 217, -2677.5, 5, 2 },
  { 154, 3811.5, 2584, 2 },
  { 196, 182.0, 2585, 2592 },
  { 211, -151.0, 2586, 2590 },
  { 226, -3636.5, 2, 2587 },
  { 26, -5847.5, 2, 2588 },
  { 220, -1067.5, 5, 2589 },
  { 428, -574.0, 5, 14 },
  { 28, -507.0, 2591, 14 },
  { 315, 1060.5, 5, 2 },
  { 95, -5132.5, 2, 2593 },
  { 329, 10055.5, 5, 2 },
  { 424, -3325.5, 2595, 2598 },
  { 69, -10899.0, 5, 2596 },
  { 293, 3150.5, 2, 2597 },
  { 77, 1203.0, 5, 2 },
  { 203, 306.5, 2599, 2605 },
  { 101, -524.5, 2600, 2602 },
  { 220, -1166.0, 2, 2601 },
  { 248, 499.5, 5, 2 },
  { 64, 198.5, 2603, 2604 },
  { 226, -4136.0, 2, 14 },
  { 200, -3514.0, 2, 5 },
  { 275, 5069.0, 2606, 2607 },
  { 56, -2234.5, 2, 5 },
  { 363, -1881.5, 5, 2 },
  { 307, -3439.0, 2609, 2614 },
  { 283, -4063.5, 2610, 2612 },
  { 325, -4874.0, 2, 2611 },
  { 322, -4831.5, 5, 2 },
  { 212, 1281.5, 2, 2613 },
  { 302, -894.5, 2, 5 },
  { 97, -3990.5, 2, 2615 },
  { 151, -276.5, 2616, 2619 },
  { 290, -5270.5, 2, 2617 },
  { 185, 448.5, 2618, 5 },
  { 137, 406.0, 5, 14 },
  { 178, 147.5, 2620, 2622 },
  { 62, 790.0, 2621, 5 },
  { 161, -1748.0, 5, 14 },
  { 262, 4785.5, 5, 2 },
  { 250, -3692.0, 2, 2624 },
  { 427, -3397.5, 2625, 2627 },
  { 286, -3487.5, 2626, 2 },
  { 93, -646.0, 5, 2 },
  { 7, -159.0, 2628, 2632 },
  { 34, -4370.0, 2, 2629 },
  { 418, 6648.0, 2630, 2 },
  { 355, -729.0, 2631, 5 },
  { 346, -796.5, 5, 14 },
  { 100, 122.5, 2633, 2635 },
  { 181, -630.0, 2634, 14 },
  { 114, 5192.5, 5, 2 },
  { 406, 8736.0, 5, 2 },
  { 436, -1267.0, 2637, 2643 },
  { 412, -3333.5, 2638, 2641 },
  { 243, -14502.0, 5, 2639 },
  { 218, 1543.0, 2, 2640 },
  { 81, -1352.5, 5, 2 },
  { 362, -3688.0, 2, 2642 },
  { 438, -7014.0, 2, 5 },
  { 401, -140.5, 2644, 2650 },
  { 170, -5523.5, 2, 2645 },
  { 434, -7562.5, 2, 2646 },
  { 65, 8950.0, 2647, 2 },
  { 106, -5557.0, 2, 2648 },
  { 335, -198.5, 5, 2649 },
  { 360, 1361.5, 14, 5 },
  { 290, 401.5, 14, 2651 },
  { 321, -340.0, 2652, 2653 },
  { 247, 4598.0, 5, 2 },
  { 263, 1184.0, 5, 2 },
  { 416, -1295.0, 2655, 2660 },
  { 360, 4639.0, 2656, 2659 },
  { 433, 57.5, 2, 2657 },
  { 449, -3851.5, 2, 2658 },
  { 164, -5238.5, 2, 5 },
  { 122, -8443.5, 2, 5 },
  { 392, 256.5, 2661, 2667 },
  { 344, -94.5, 2662, 2666 },
  { 430, -2769.5, 2663, 2664 },
  { 177, -5800.0, 5, 2 },
  { 77, -6553.5, 2, 2665 },
  { 335, -198.5, 5, 14 },
  { 82, -272.5, 5, 14 },
  { 416, 4966.0, 2668, 2 },
  { 358, -4513.5, 2669, 2670 },
  { 252, -8937.0, 5, 2 },
  { 400, 5142.5, 5, 2 },
  { 421, -3058.0, 2672, 2675 },
  { 363, -13055.5, 5, 2673 },
  { 281, 1474.0, 2, 2674 },
  { 222, -6277.0, 5, 2 },
  { 7, 3761.5, 2676, 2 },
  { 407, -264.0, 2677, 2680 },
  { 16, -2437.5, 2678, 5 },
  { 111, 898.5, 2, 2679 },
  { 121, -622.5, 5, 2 },
  { 290, 401.5, 2681, 2683 },
  { 266, -682.0, 2682, 14 },
  { 19, -1265.0, 2, 5 },
  { 386, 6006.5, 5, 2 },
  { 187, -2076.0, 2685, 2688 },
  { 368, 497.0, 2, 2686 },
  { 213, -6873.5, 5, 2687 },
  { 344, 818.0, 5, 2 },
  { 439, -3555.5, 2689, 2690 },
  { 402, -12321.0, 5, 2 },
  { 299, -200.0, 2691, 2692 },
  { 1, -3376.0, 2, 5 },
  { 332, 278.0, 2693, 2694 },
  { 367, -1005.0, 5, 14 },
  { 169, 2476.0, 5, 2695 },
  { 18, -2532.5, 5, 2 },
  { 190, -2014.0, 2697, 2704 },
  { 432, 9219.5, 2698, 5 },
  { 89, 2865.0, 2699, 2703 },
  { 26, 357.5, 2, 2700 },
  { 286, -3743.0, 2701, 5 },
  { 262, -5914.0, 2, 2702 },
  { 224, -3141.5, 2, 5 },
  { 182, -2767.0, 2, 5 },
  { 178, 137.0, 2705, 2708 },
  { 380, -269.5, 2706, 2707 },
  { 143, -5569.5, 2, 5 },
  { 26, 710.5, 14, 5 },
  { 211, 3154.0, 2709, 2712 },
  { 370, -2815.5, 2710, 2711 },
  { 342, -10163.5, 5, 2 },
  { 296, 10086.0, 5, 2 },
  { 115, 3781.0, 2713, 2 },
  { 288, 4035.0, 5, 2 },
  { 415, -3218.0, 2715, 2718 },
  { 69, -11415.5, 5, 2716 },
  { 314, 943.0, 2, 2717 },
  { 72, -3750.5, 5, 2 },
  { 187, -3350.0, 2, 2719 },
  { 335, -229.5, 2720, 2721 },
  { 257, -4958.5, 2, 5 },
  { 341, 216.5, 2722, 2723 },
  { 302, 125.5, 14, 5 },
  { 12, 344.5, 5, 2724 },
  { 132, 5365.0, 2, 5 },
  { 235, -3670.0, 2, 2726 },
  { 430, -3303.0, 2727, 2729 },
  { 390, -5371.0, 2728, 2 },
  { 21, 2299.0, 5, 2 },
  { 403, 166.5, 2730, 2736 },
  { 403, -332.5, 2731, 2735 },
  { 28, -8293.5, 2, 2732 },
  { 292, -882.5, 5, 2733 },
  { 160, -62.5, 2734, 5 },
  { 437, 145.0, 14, 5 },
  { 329, -708.0, 5, 14 },
  { 358, 9635.5, 2737, 2 },
  { 205, -1695.5, 2738, 5 },
  { 47, 258.0, 2, 5 },
  { 319, -1952.0, 2740, 2746 },
  { 212, 1501.0, 2741, 2744 },
  { 51, 14450.5, 2742, 5 },
  { 137, -123.0, 2, 2743 },
  { 351, -1269.5, 2, 5 },
  { 117, -1701.5, 5, 2745 },
  { 20, 1090.5, 5, 2 },
  { 73, -3014.5, 2747, 2749 },
  { 38, 238.0, 2, 2748 },
  { 208, 2009.0, 5, 2 },
  { 347, -229.5, 2750, 2751 },
  { 119, 4878.0, 5, 2 },
  { 278, 345.5, 14, 2752 },
  { 368, 4818.0, 5, 2 },
  { 289, -1773.0, 2754, 2759 },
  { 286, -3764.0, 2755, 2757 },
  { 39, -11737.5, 2756, 2 },
  { 28, -6094.5, 2, 5 },
  { 290, -1998.5, 2, 2758 },
  { 47, -5331.0, 2, 5 },
  { 440, -243.5, 2760, 2763 },
  { 55, -5982.0, 2, 2761 },
  { 223, 6430.5, 2762, 2 },
  { 95, -6795.0, 2, 5 },
  { 425, 212.0, 2764, 2765 },
  { 399, 1607.0, 14, 5 },
  { 349, 5534.5, 2766, 2 },
  { 64, 7405.5, 5, 2 },
  { 433, -1990.0, 2768, 2770 },
  { 427, -3788.5, 2, 2769 },
  { 212, -52.0, 2, 5 },
  { 433, 237.5, 2771, 2778 },
  { 442, -128.0, 2772, 2777 },
  { 79, -4813.5, 2, 2773 },
  { 67, 188.5, 2774, 5 },
  { 100, -454.0, 2775, 14 },
  { 101, 797.0, 2776, 5 },
  { 148, -1328.0, 5, 14 },
  { 203, -283.0, 5, 14 },
  { 19, 4045.0, 2779, 2 },
  { 326, 4478.5, 2780, 2 },
  { 52, -5977.5, 2, 5 },
  { 406, -2117.0, 2782, 2786 },
  { 200, 1201.0, 2783, 2785 },
  { 361, -3453.5, 2, 2784 },
  { 248, -1438.0, 2, 5 },
  { 427, -7306.0, 2, 5 },
  { 401, -275.0, 2787, 2791 },
  { 118, -5386.5, 2, 2788 },
  { 254, -4858.5, 2789, 2790 },
  { 423, 4920.5, 2, 5 },
  { 121, 5971.5, 5, 2 },
  { 422, 220.5, 2792, 2793 },
  { 61, 231.5, 14, 5 },
  { 445, 6892.0, 2794, 2 },
  { 449, 9383.0, 5, 2 },
  { 406, -3077.5, 2796, 2800 },
  { 57, -11160.5, 5, 2797 },
  { 320, 446.5, 2, 2798 },
  { 138, -2115.5, 5, 2799 },
  { 412, -3333.5, 2, 5 },
  { 151, -3601.5, 2801, 2803 },
  { 437, -938.5, 2, 2802 },
  { 172, -7183.0, 2, 5 },
  { 134, 252.0, 2804, 2808 },
  { 104, -507.5, 2805, 2806 },
  { 424, 5605.0, 5, 2 },
  { 158, -203.0, 2807, 14 },
  { 417, 242.5, 5, 2 },
  { 400, 12144.5, 2809, 2 },
  { 59, 12119.0, 5, 2 },
  { 271, -1541.5, 2811, 2817 },
  { 251, 194.5, 2812, 2815 },
  { 234, 10464.0, 2813, 5 },
  { 224, -318.5, 2, 2814 },
  { 40, 175.5, 5, 2 },
  { 253, -3953.0, 2, 2816 },
  { 88, -4367.5, 2, 5 },
  { 193, 116.5, 2818, 2823 },
  { 166, -180.0, 2819, 2822 },
  { 103, -3246.0, 2, 2820 },
  { 343, -725.0, 2821, 5 },
  { 370, -753.0, 5, 14 },
  { 370, -148.0, 5, 14 },
  { 238, 3603.0, 2824, 2825 },
  { 212, -7452.0, 2, 5 },
  { 193, 5993.0, 2826, 2 },
  { 345, -2937.0, 5, 2 },
  { 421, -3316.5, 2828, 2831 },
  { 135, -14574.0, 5, 2829 },
  { 442, -3135.0, 2, 2830 },
  { 448, -2759.5, 5, 2 },
  { 193, -3922.0, 2832, 2834 },
  { 361, -3929.5, 2833, 2 },
  { 4, -4549.5, 2, 5 },
  { 424, 5778.5, 2835, 2841 },
  { 122, 491.5, 2836, 5 },
  { 200, -181.5, 2837, 2840 },
  { 55, -2021.5, 2838, 2839 },
  { 241, -966.0, 2, 5 },
  { 37, 18139.5, 5, 2 },
  { 85, 475.5, 14, 5 },
  { 207, -104.0, 2842, 2 },
  { 379, 10396.0, 5, 2 },
  { 217, -2140.0, 2844, 2850 },
  { 399, 9100.0, 2845, 5 },
  { 238, -3500.5, 2846, 2849 },
  { 414, 1241.5, 2, 2847 },
  { 182, -463.0, 2, 2848 },
  { 227, 464.0, 5, 2 },
  { 215, 202.5, 2, 5 },
  { 109, 4426.5, 2851, 2 },
  { 193, 122.5, 2852, 2858 },
  { 208, -432.0, 2853, 2856 },
  { 296, -2309.5, 2, 2854 },
  { 180, 892.0, 5, 2855 },
  { 165, 1322.0, 14, 5 },
  { 13, -705.5, 2857, 14 },
  { 403, -1768.0, 2, 5 },
  { 223, 3558.5, 2859, 2 },
  { 62, -7538.0, 2, 5 },
  { 406, -3140.5, 2861, 2864 },
  { 400, -4116.5, 2, 2862 },
  { 336, -4937.5, 5, 2863 },
  { 6, 1335.5, 2, 5 },
  { 148, -3639.0, 2865, 2866 },
  { 373, -3426.0, 5, 2 },
  { 64, 199.0, 2867, 2872 },
  { 46, -215.5, 2868, 2871 },
  { 337, 9021.0, 2869, 2 },
  { 407, -333.5, 5, 2870 },
  { 188, 368.0, 14, 5 },
  { 290, 896.0, 14, 5 },
  { 424, 5438.0, 2873, 2 },
  { 386, -4794.0, 2, 5 } 
};

int32_t rf150_running_model_tree_roots[200] = { 0, 17, 33, 51, 69, 80, 94, 110, 125, 136, 146, 161, 174, 191, 206, 226, 240, 254, 268, 283, 294, 306, 320, 338, 353, 369, 386, 396, 414, 428, 441, 458, 470, 482, 499, 516, 531, 545, 555, 572, 588, 604, 618, 631, 644, 661, 673, 685, 700, 710, 726, 745, 758, 774, 788, 799, 813, 832, 847, 865, 882, 901, 916, 930, 941, 954, 969, 984, 1000, 1017, 1031, 1048, 1059, 1070, 1085, 1096, 1112, 1123, 1141, 1153, 1172, 1186, 1207, 1223, 1235, 1247, 1262, 1277, 1288, 1304, 1319, 1334, 1347, 1361, 1373, 1386, 1401, 1415, 1430, 1445, 1459, 1470, 1486, 1497, 1514, 1527, 1540, 1556, 1571, 1585, 1597, 1615, 1627, 1638, 1650, 1665, 1680, 1697, 1710, 1730, 1742, 1761, 1770, 1782, 1798, 1810, 1826, 1840, 1853, 1865, 1883, 1899, 1914, 1929, 1945, 1956, 1968, 1978, 1994, 2010, 2021, 2034, 2049, 2067, 2079, 2092, 2104, 2120, 2138, 2152, 2164, 2181, 2196, 2210, 2226, 2240, 2253, 2264, 2275, 2290, 2310, 2322, 2334, 2348, 2364, 2376, 2388, 2404, 2418, 2432, 2448, 2462, 2474, 2490, 2502, 2516, 2529, 2546, 2558, 2569, 2579, 2594, 2608, 2623, 2636, 2654, 2671, 2684, 2696, 2714, 2725, 2739, 2753, 2767, 2781, 2795, 2810, 2827, 2843, 2860 };

EmlTrees rf150_running_model = {
        2874,
        rf150_running_model_nodes,	  
        200,
        rf150_running_model_tree_roots,
    };

static inline int32_t rf150_running_model_predict_tree_0(const float *features, int32_t features_length) {
          if (features[427] < -2819.0) {
              if (features[443] < 450.0) {
                  return 2;
              } else {
                  if (features[400] < -4479.5) {
                      return 2;
                  } else {
                      if (features[303] < 1278.0) {
                          return 2;
                      } else {
                          return 1;
                      }
                  }
              }
          } else {
              if (features[85] < 142.5) {
                  if (features[112] < -85.0) {
                      if (features[431] < -5199.5) {
                          if (features[180] < 5100.0) {
                              return 2;
                          } else {
                              return 1;
                          }
                      } else {
                          if (features[67] < -5379.5) {
                              return 2;
                          } else {
                              if (features[55] < -235.5) {
                                  if (features[169] < 461.5) {
                                      return 1;
                                  } else {
                                      return 2;
                                  }
                              } else {
                                  if (features[63] < 2452.0) {
                                      return 0;
                                  } else {
                                      return 2;
                                  }
                              }
                          }
                      }
                  } else {
                      return 0;
                  }
              } else {
                  if (features[88] < 3232.5) {
                      if (features[86] < -5108.0) {
                          return 2;
                      } else {
                          return 1;
                      }
                  } else {
                      return 2;
                  }
              }
          }
        }
        

static inline int32_t rf150_running_model_predict_tree_1(const float *features, int32_t features_length) {
          if (features[412] < -1749.0) {
              if (features[374] < 1386.5) {
                  if (features[433] < -3329.0) {
                      return 2;
                  } else {
                      if (features[440] < -3531.0) {
                          return 2;
                      } else {
                          return 1;
                      }
                  }
              } else {
                  if (features[18] < 1459.0) {
                      if (features[296] < 297.5) {
                          return 2;
                      } else {
                          return 1;
                      }
                  } else {
                      return 2;
                  }
              }
          } else {
              if (features[430] < 156.5) {
                  if (features[304] < -164.0) {
                      if (features[220] < -4248.0) {
                          return 2;
                      } else {
                          if (features[376] < -350.0) {
                              if (features[67] < -989.5) {
                                  if (features[25] < -1428.0) {
                                      return 1;
                                  } else {
                                      return 0;
                                  }
                              } else {
                                  return 1;
                              }
                          } else {
                              if (features[238] < -597.5) {
                                  return 1;
                              } else {
                                  return 0;
                              }
                          }
                      }
                  } else {
                      if (features[406] < -111.0) {
                          return 1;
                      } else {
                          return 0;
                      }
                  }
              } else {
                  if (features[238] < -966.5) {
                      return 2;
                  } else {
                      if (features[325] < 8288.5) {
                          return 1;
                      } else {
                          return 2;
                      }
                  }
              }
          }
        }
        

static inline int32_t rf150_running_model_predict_tree_2(const float *features, int32_t features_length) {
          if (features[415] < -3369.5) {
              if (features[63] < -11245.5) {
                  return 1;
              } else {
                  if (features[335] < 2440.0) {
                      return 2;
                  } else {
                      if (features[47] < -1095.5) {
                          return 2;
                      } else {
                          return 1;
                      }
                  }
              }
          } else {
              if (features[433] < 297.0) {
                  if (features[253] < -212.5) {
                      if (features[296] < -3263.0) {
                          return 2;
                      } else {
                          if (features[268] < -404.0) {
                              if (features[202] < -1178.5) {
                                  return 1;
                              } else {
                                  if (features[22] < -376.5) {
                                      return 0;
                                  } else {
                                      return 1;
                                  }
                              }
                          } else {
                              return 0;
                          }
                      }
                  } else {
                      if (features[38] < 290.0) {
                          if (features[29] < -1763.0) {
                              if (features[30] < -3474.0) {
                                  return 2;
                              } else {
                                  return 1;
                              }
                          } else {
                              return 0;
                          }
                      } else {
                          if (features[51] < 1936.5) {
                              return 1;
                          } else {
                              return 2;
                          }
                      }
                  }
              } else {
                  if (features[286] < -2111.5) {
                      return 2;
                  } else {
                      if (features[448] < 9135.0) {
                          if (features[269] < -4374.0) {
                              if (features[303] < 3286.0) {
                                  return 2;
                              } else {
                                  return 1;
                              }
                          } else {
                              return 1;
                          }
                      } else {
                          return 2;
                      }
                  }
              }
          }
        }
        

static inline int32_t rf150_running_model_predict_tree_3(const float *features, int32_t features_length) {
          if (features[436] < -1621.0) {
              if (features[418] < -3229.5) {
                  if (features[417] < -12979.5) {
                      return 1;
                  } else {
                      if (features[245] < 1461.0) {
                          return 2;
                      } else {
                          if (features[436] < -6610.5) {
                              return 2;
                          } else {
                              return 1;
                          }
                      }
                  }
              } else {
                  if (features[73] < -7640.0) {
                      return 2;
                  } else {
                      return 1;
                  }
              }
          } else {
              if (features[427] < 155.5) {
                  if (features[313] < -166.5) {
                      if (features[250] < -3946.0) {
                          return 2;
                      } else {
                          if (features[268] < -912.5) {
                              return 1;
                          } else {
                              if (features[53] < -745.0) {
                                  return 1;
                              } else {
                                  return 0;
                              }
                          }
                      }
                  } else {
                      if (features[231] < -2054.5) {
                          return 1;
                      } else {
                          if (features[299] < -1581.0) {
                              return 1;
                          } else {
                              return 0;
                          }
                      }
                  }
              } else {
                  if (features[250] < -798.0) {
                      if (features[74] < 2735.0) {
                          return 2;
                      } else {
                          if (features[267] < 6853.0) {
                              return 1;
                          } else {
                              return 2;
                          }
                      }
                  } else {
                      if (features[409] < 6774.0) {
                          return 1;
                      } else {
                          if (features[162] < 159.5) {
                              return 1;
                          } else {
                              return 2;
                          }
                      }
                  }
              }
          }
        }
        

static inline int32_t rf150_running_model_predict_tree_4(const float *features, int32_t features_length) {
          if (features[415] < -2158.5) {
              if (features[75] < -11090.5) {
                  return 1;
              } else {
                  if (features[403] < -3161.0) {
                      return 2;
                  } else {
                      if (features[386] < -1701.5) {
                          return 2;
                      } else {
                          if (features[324] < -1195.0) {
                              return 2;
                          } else {
                              return 1;
                          }
                      }
                  }
              }
          } else {
              if (features[217] < -3667.5) {
                  return 2;
              } else {
                  if (features[254] < 447.0) {
                      if (features[266] < -159.0) {
                          if (features[52] < -2352.5) {
                              return 2;
                          } else {
                              return 1;
                          }
                      } else {
                          return 0;
                      }
                  } else {
                      if (features[202] < 3336.0) {
                          return 1;
                      } else {
                          if (features[321] < -2867.0) {
                              return 1;
                          } else {
                              return 2;
                          }
                      }
                  }
              }
          }
        }
        

static inline int32_t rf150_running_model_predict_tree_5(const float *features, int32_t features_length) {
          if (features[427] < -3307.0) {
              if (features[84] < -11091.0) {
                  return 1;
              } else {
                  return 2;
              }
          } else {
              if (features[167] < -2810.5) {
                  if (features[132] < 4161.5) {
                      return 2;
                  } else {
                      return 1;
                  }
              } else {
                  if (features[107] < 246.0) {
                      if (features[215] < -150.0) {
                          if (features[233] < -367.0) {
                              return 1;
                          } else {
                              if (features[339] < -208.5) {
                                  return 0;
                              } else {
                                  return 1;
                              }
                          }
                      } else {
                          if (features[404] < 1283.0) {
                              return 0;
                          } else {
                              if (features[323] < 2729.0) {
                                  return 1;
                              } else {
                                  return 2;
                              }
                          }
                      }
                  } else {
                      if (features[212] < 3645.0) {
                          if (features[194] < 372.5) {
                              if (features[446] < -1213.0) {
                                  return 1;
                              } else {
                                  return 0;
                              }
                          } else {
                              return 1;
                          }
                      } else {
                          if (features[306] < -1755.5) {
                              return 1;
                          } else {
                              return 2;
                          }
                      }
                  }
              }
          }
        }
        

static inline int32_t rf150_running_model_predict_tree_6(const float *features, int32_t features_length) {
          if (features[376] < -1553.5) {
              if (features[348] < -13232.5) {
                  return 1;
              } else {
                  if (features[306] < 11276.5) {
                      if (features[403] < -4805.0) {
                          return 2;
                      } else {
                          if (features[98] < -318.5) {
                              return 2;
                          } else {
                              if (features[280] < -4882.0) {
                                  return 2;
                              } else {
                                  return 1;
                              }
                          }
                      }
                  } else {
                      return 1;
                  }
              }
          } else {
              if (features[391] < 291.0) {
                  if (features[268] < -410.5) {
                      if (features[269] < -3575.5) {
                          return 2;
                      } else {
                          return 1;
                      }
                  } else {
                      if (features[295] < 421.5) {
                          if (features[143] < -1854.5) {
                              return 1;
                          } else {
                              return 0;
                          }
                      } else {
                          if (features[442] < -2675.5) {
                              return 2;
                          } else {
                              return 1;
                          }
                      }
                  }
              } else {
                  if (features[391] < 3786.0) {
                      if (features[115] < -2484.0) {
                          return 2;
                      } else {
                          return 1;
                      }
                  } else {
                      if (features[63] < -4388.0) {
                          if (features[29] < -824.5) {
                              return 1;
                          } else {
                              return 2;
                          }
                      } else {
                          return 2;
                      }
                  }
              }
          }
        }
        

static inline int32_t rf150_running_model_predict_tree_7(const float *features, int32_t features_length) {
          if (features[404] < -1135.0) {
              if (features[316] < -518.5) {
                  if (features[128] < 511.0) {
                      return 2;
                  } else {
                      if (features[349] < -5256.0) {
                          return 2;
                      } else {
                          return 1;
                      }
                  }
              } else {
                  if (features[259] < 2547.5) {
                      if (features[121] < -2737.0) {
                          return 2;
                      } else {
                          return 1;
                      }
                  } else {
                      return 2;
                  }
              }
          } else {
              if (features[337] < -4619.0) {
                  if (features[75] < -2508.0) {
                      return 1;
                  } else {
                      return 2;
                  }
              } else {
                  if (features[134] < 252.0) {
                      if (features[221] < -165.5) {
                          if (features[173] < -2568.0) {
                              return 2;
                          } else {
                              return 1;
                          }
                      } else {
                          if (features[70] < 496.5) {
                              return 0;
                          } else {
                              if (features[398] < 2302.5) {
                                  return 1;
                              } else {
                                  return 2;
                              }
                          }
                      }
                  } else {
                      if (features[278] < 6247.5) {
                          if (features[149] < 4920.5) {
                              return 1;
                          } else {
                              return 2;
                          }
                      } else {
                          return 2;
                      }
                  }
              }
          }
        }
        

static inline int32_t rf150_running_model_predict_tree_8(const float *features, int32_t features_length) {
          if (features[433] < -3574.0) {
              if (features[213] < -14161.5) {
